-0.35595971
-0.090863444
0.097929023
-0.077320643
0.44030896
-0.0024641275
-0.12135059
0.49122337
0.06795159
0.12745535
-0.37187719
0.052413821
0.2124598
-0.30332181
-0.06531509
-0.10865311
-0.2961891
-0.12777546
0.42053095
0.15799621
-0.12309501
-0.089246951
0.13321544
-0.058450412
0.22551058
-0.25366205
-0.3168973
0.21893598
-0.053593621
-0.057471205
-0.34834981
-0.4750689
-0.22257148
0.27435851
0.041668978
0.12762626
0.023163231
-0.020366365
-0.040866632
-0.30085057
0.12999816
-0.36086446
-0.3611131
-0.21043551
-0.21418419
0.021461191
-0.0055494811
0.14183192
-0.12855744
-0.12987696
0.085827045
-0.097460777
-0.33600631
-0.38771918
0.15666464
-0.22190222
-0.11624718
0.27711511
-0.081326894
0.054271389
-0.093264624
0.048088443
-0.025767153
-0.35228685
0.096155889
-0.023332888
-0.50947422
0.095767446
-0.34154204
-0.042696208
0.07519
0.075807229
-0.26929748
-0.025425289
-0.14539015
-0.082785062
-0.30813074
0.029417725
0.09591262
0.10684068
0.027974766
0.031504031
0.064990476
-0.43865043
-0.05697662
0.23791412
0.15757406
0.031795613
0.2927275
-0.23187377
0.38403192
0.5132013
0.0016833049
-0.45102024
-0.087799542
0.017220575
0.74857986
-0.22762042
0.22843567
-0.31414378
0.37674791
0.16374414
0.25743428
-0.019617906
0.38182795
0.16595359
0.24032353
0.16708259
-0.3745693
-0.21735685
-0.21046993
0.39457378
-0.10531495
-0.087260015
-0.68893737
0.31718877
-0.32689616
0.28543675
-0.080789857
-0.01647611
0.14337215
0.052406441
0.16036803
-0.2802524
0.4553175
-1.009016
-0.80250025
-0.83727515
0.080329165
0.28173715
-0.2185971
-0.75445551
-1.1524816
-0.83337545
0.033213299
-0.28896037
0.2121107
-0.8585282
-0.07389345
-0.4687278
-0.9782114
0.23854342
0.28957698
-0.2860643
-0.23000923
-0.4438476
-1.1696501
0.41759652
0.43746403
-0.41029438
-1.0844769
-0.28508198
0.22276649
-0.010321611
0.15815754
-0.37117198
0.708516
0.12836558
-0.075670332
0.50166273
-0.075909384
0.33811048
-0.85293758
0.024517775
0.067791626
0.14965357
-0.25469285
-1.1659611
0.84040827
0.39524803
-0.026013061
0.52366012
-0.15768231
0.26750368
1.1291224
0.023316745
-0.18727262
0.019534402
0.22714995
0.11849763
0.095744535
-0.18513617
0.31488052
0.2498918
0.25210342
0.23046601
0.17038679
0.11401327
0.34083375
0.90270835
-0.18579198
-0.99723959
0.040488806
-0.28476641
0.5262509
1.0583961
-0.42518991
-0.26352721
-0.47843686
-0.17560308
-0.35336235
0.30597425
0.12345237
-0.95667017
-0.48824757
0.35186052
0.20108943
0.26044521
0.46631762
-0.011387612
1.3073349
-0.042032041
-0.59926826
-1.8314375
-0.14483231
-0.056243323
-1.4000679
-1.0897522
-0.2682856
0.27642134
0.30893412
-0.98392111
0.70465851
-0.34933358
-2.2427757
-0.3039175
-0.29847655
-0.01510371
-0.48668113
-0.33160329
-0.10740178
1.1989392
0.62250948
0.101174
-0.4300293
0.68916279
0.18843511
0.65067267
-0.96309423
-0.21732587
0.053836234
0.80399293
-0.054978367
0.45195875
-0.31935373
-1.2042649
-0.32751232
-0.033859026
0.62301576
-0.1945309
-0.32919428
-0.27705893
1.0790182
1.2066578
0.55327886
0.023566823
-0.11791373
0.62882102
0.33289596
-0.12232626
-0.23853281
-0.38716832
0.38197193
0.3161937
0.035219193
-0.19617508
-0.55326188
-0.19710504
0.3314659
0.14563261
0.47774103
-0.20243183
-0.083357722
0.90983403
0.14863525
0.16016531
-0.90520102
0.12403554
-0.13595188
0.43637297
-0.36066401
0.29421455
-0.18295513
0.61812335
-0.53697836
0.64794701
-0.38797686
-1.8913791
-0.032609567
-0.42603463
0.23078406
0.1927046
-0.70319062
-0.12398339
0.69410914
-0.14567322
-0.099490464
-0.37397569
-0.0608977
0.15376204
-0.034091089
0.074781358
-0.019901982
0.0102957
0.96748489
-0.5789122
0.42052802
-0.091169931
-0.80781293
-0.12064675
-0.4650594
0.064219721
-0.16052745
-0.36729914
-1.470162
0.32465672
0.24518067
-0.1303627
-0.1817545
0.22909686
0.22498509
-0.29762596
0.073992223
-0.21736938
-0.065051973
0.027323823
-0.03554168
-0.056552883
-0.014097455
0.26374948
-0.30005777
0.064532004
0.42332938
-0.054268278
-0.019592831
-0.17598666
0.14481944
0.087651439
0.063961186
0.073331267
-0.13098159
0.1530595
0.20159489
0.14327112
0.17293139
0.050124053
-0.60198188
-0.073398538
-0.3758029
-0.044995651
-0.20731349
0.20740342
0.06225897
-0.0033025716
0.054408368
-0.0094874408
-0.21273233
-0.12759738
0.3521471
0.07466393
0.18190733
0.061056666
-0.14583349
-0.075176567
-0.060781024
0.040005684
-0.077548675
-0.24582335
0.16027689
-0.31941444
0.14581378
-0.081501245
-0.10656917
-0.13954753
-0.21890223
-0.052645866
0.014856198
-0.15635192
-0.059244715
0.12601882
-0.071884148
0.038786709
0.10049634
0.40650299
-0.047735449
0.31869975
-0.29892734
-0.11541601
-0.30061644
0.033996508
-0.049502682
0.15268007
0.14866468
-0.2692835
0.22685426
0.048199929
-0.15362017
0.088525772
-0.0085995458
-0.28794169
-0.18986832
-0.29604933
-0.059027418
0.13166116
-0.18124069
0.10245772
0.46342549
0.23737244
0.059596147
0.0064080893
-0.24375372
-0.50693327
0.18419257
0.10175849
-0.27849197
-0.05204004
-0.029417492
0.042683605
0.020240016
0.064359412
-0.36485401
-0.058642421
-0.19320692
0.0086662369
0.19643033
-0.16541995
-0.048067257
0.14966469
0.2490593
-0.33981386
-0.2168939
0.017699081
0.062028646
-0.41926694
0.34480751
-0.13569084
0.064575948
-0.24606021
-0.16482604
0.05710334
0.021687992
0.10051923
-0.38294339
0.0556271
0.10699043
0.015999498
-0.31799969
0.021335514
-0.009796977
-0.074691392
0.096087083
-0.38921535
-0.25057179
-0.21898456
0.35229975
0.19983126
0.065320939
0.27422938
-0.080762573
0.15561275
0.33592033
0.025509816
0.25013125
0.023964746
0.086134158
0.20239387
-0.32726333
0.23460327
0.059714667
0.0021039301
0.054882903
0.38427058
-0.2232523
-0.040117182
-0.367506
0.11715143
-0.52568662
0.15408386
-0.25516218
-0.034460947
0.24557447
0.75912094
0.31318176
0.13430749
-0.1025592
-0.28504413
-0.089969747
0.41847783
0.08720687
0.11906641
-0.33694962
-0.16556293
-0.045476239
0.032093421
-0.13303389
0.2914398
-0.16382727
0.12962127
-0.075551867
0.14942399
-0.16012967
0.19479387
0.14819165
0.28058249
-0.3901996
0.023849256
0.012048053
-0.10878079
-0.61802822
-0.45517892
-0.22317709
0.26105258
-0.16997896
-0.13831723
-0.27536887
-0.18491833
-0.16417272
0.0031096695
0.48699921
-0.45070904
-0.25517264
0.048829459
-0.25584751
-0.39430401
-0.23570177
0.28514481
0.10365811
-0.020507589
-0.036374658
-0.33857378
0.33084098
-0.036133979
-0.27263278
0.34492221
0.18724936
-0.099693805
0.021016393
0.013499788
0.16880873
-0.47916731
0.11960444
0.16931263
0.095230348
-0.31828552
-0.17485018
0.12046697
-0.065756612
0.095767789
-0.11273853
-0.39232343
-0.20519888
-0.079487741
-0.50474483
-0.017141549
0.14227095
0.030407039
-0.15559743
0.19654623
0.19832243
0.12178607
0.14980046
0.42796376
0.032768786
0.21720834
0.21737024
0.13079329
0.066638887
0.12762485
-0.068681546
-0.2916145
-0.2778323
0.0014130642
-0.092963517
-0.4233155
0.41962779
-0.0056617907
-0.088834397
-0.099232256
-0.21850763
0.13151041
-0.074561603
-0.28189856
-0.060772587
-0.25818819
0.082313955
-0.34238258
-0.22386274
0.079316325
0.27301145
0.12440626
-0.21867864
-0.17904805
-0.070822082
-0.13683829
-0.28644723
-0.28624415
0.1154957
-0.46259958
-0.376059
0.13470098
0.060682144
-0.085896164
-0.16061926
-0.1238502
-0.28128403
0.15495703
-0.072713189
-0.4116874
0.053382065
0.3481746
0.12951389
-0.12308552
-0.43667829
-0.14113028
-0.06177409
-0.31528133
-0.41711274
-0.06025967
-0.37975129
-0.20757288
0.019803084
-0.43337104
-0.14788769
-0.13968588
0.046286602
-0.056657415
0.077100866
-0.12798831
-0.14482181
0.058790706
0.023653448
0.014472013
-0.08491642
-0.10018361
0.041660853
-0.13793606
-0.039149374
-0.17591055
-0.0060101049
0.019438958
-0.11673985
0.082379647
-0.13713612
-0.052665062
-0.13724394
-0.060384426
-0.0224691
-0.05585612
0.0096871099
0.08407826
0.032082617
-0.11678998
-0.1744373
-0.04595888
-0.14409015
-0.040630989
-0.12373263
-0.18107921
-0.012670539
0.032951061
-0.060738634
-0.14315356
-0.19918348
-0.2338552
0.0056056143
-0.19518949
0.078765951
0.0023808286
0.083675355
0.058804091
-0.0064502526
0.014397381
-0.0037548458
-0.23755825
-0.086930752
0.067077816
-0.057884101
-0.11785513
-0.035172444
0.040122639
-0.12894729
0.037470732
-0.0044310684
-0.087451413
-0.20911367
-0.012652838
-0.18932593
-0.14307587
0.0055917399
-0.10851086
-0.13694984
0.22283335
-0.078099616
0.06677869
-0.0023811152
-0.082414776
-0.1443114
-0.2272623
0.074086994
-0.015292472
0.088262007
-0.010615584
0.026198028
-0.14974095
0.028629435
-0.33433908
-0.12792134
-0.11117587
0.031164555
0.038604733
-0.021523682
-0.033304904
-0.018067241
0.0071060481
-0.027992414
-0.2152659
0.25938818
0.17138971
0.02740331
0.089150198
0.14905225
0.10543306
0.075559139
-0.055913791
-0.23290335
-0.036778744
-0.26387408
-0.014483129
0.041647032
-0.040984511
-0.012087696
-0.13363455
-0.018496322
-0.028387496
-0.07276874
-0.48956436
-0.20865999
-0.19338506
-0.095735028
-0.058960892
-0.2110976
-0.20248529
0.093865842
-0.22979368
0.32225695
0.22661562
-0.32762691
0.013247869
-0.016395891
-0.29447332
-0.25066191
-0.083622523
0.0099459225
-0.033388805
0.18015824
0.032656025
-0.19024637
-0.12774976
0.011782157
-0.037235819
0.052471906
-0.11249696
-0.30549562
-0.004167879
0.016762931
-0.053406201
-0.078450069
-0.26928633
-0.12177818
-0.032707442
-0.23964378
-0.033499874
0.13677706
0.040818468
0.014619996
0.12777227
0.080579005
-0.083283626
0.1357834
0.020403052
-0.16114274
-0.074684858
8.3677944e-05
-0.21863338
0.26997235
-0.070575982
-0.19152309
-0.12694819
0.094180539
-0.07871712
-0.15535375
0.2324605
0.012106962
0.12624535
-0.17853595
-0.031860344
-0.075857729
0.11099922
-0.06140681
0.054970797
-0.10487854
-0.15434749
-0.16678104
-0.091062494
-0.18552478
0.078429334
-0.14103486
0.14132024
-0.058091033
0.17496282
-0.04259323
0.090243265
0.065792687
0.07513015
0.046838317
-0.11523317
0.028349891
0.054925654
0.10584812
-0.2693499
-0.15491733
0.10191179
0.17254809
-0.087919332
-0.048228249
0.074285649
-0.18940215
-0.039367635
-0.063993864
0.09869241
-0.24100177
0.094949476
0.0098844077
0.064949848
0.0059376955
0.016525239
0.1101446
0.17849679
0.019958938
0.03339804
-0.36626008
0.14866811
0.19088297
-0.083225772
-0.25009871
0.21686976
-0.065541901
-0.064358398
0.30483708
-0.31147739
-0.037658703
0.20921159
-0.038194712
-0.077683352
0.11085843
-0.069675289
-0.22397302
0.0013238839
0.019324845
-0.18172999
0.011375295
0.0040423525
-0.14023401
0.18733557
0.072118104
-0.012235428
-0.0053554564
-0.0011959703
0.26639757
-0.060827836
-0.22455572
-0.21338241
0.033611696
-0.21818084
-0.074440695
-0.11989664
0.12397519
-0.20664532
-0.09735439
-0.14199227
-0.24783634
-0.05195234
-0.16027111
0.15680474
-0.063832946
-0.093648091
-0.11582191
0.12611938
-0.031202467
-0.2436347
-0.03160806
0.088772237
-0.005271947
0.19588633
0.06101336
0.026610557
-0.042325094
-0.15638514
-0.061365541
0.08827965
0.18772373
0.010546892
-0.091250837
0.020464314
0.028509181
0.14241767
0.032536041
-0.13817593
0.20921153
0.14752255
-0.073830441
0.041773207
-0.15454887
-0.067681633
0.16756636
0.056658469
-0.12473635
0.0003680755
-0.11450556
-0.050834604
-0.070170306
0.033721305
-0.045518667
-0.030604331
-0.035424449
0.14973071
0.14920247
0.057777043
0.070252895
0.0594327
-0.0069683837
0.0086366404
0.15291241
-0.14215288
-0.23353791
0.099961743
-0.20983383
0.074633762
0.018528407
-0.01889329
-0.026842695
-0.008046357
0.18676192
0.023426127
-0.039431751
-0.11350779
-0.41276109
-0.15787478
-0.1364574
0.16638963
-0.11923198
0.13341479
-0.045484282
0.046957083
0.22418073
0.0051109758
0.62420911
-0.3214404
-0.1214627
-0.14513327
-0.27150285
0.11765675
0.57576162
0.12692282
0.27095431
-0.44734871
0.32328135
0.048471153
0.079143405
-0.73548257
-0.070520177
0.76418746
-0.31101948
0.039176941
0.0048865303
-0.2399728
0.073088877
-0.31555265
-0.18316247
0.095248014
0.0020327976
-0.45531887
-0.073201686
0.35440212
-0.42153466
-0.42224857
0.19408891
0.069090076
0.25116917
0.28799093
-0.36688638
-0.18827735
0.0012625984
-0.28799483
0.27296755
0.30651802
-0.14204472
0.013288748
-0.43939525
-0.01425927
-0.021380059
-0.27268171
-0.35090971
0.45006478
0.6527949
-0.63655275
0.0823901
0.2664395
0.31896999
-0.32695895
-0.24949265
-0.24672166
-0.048296329
-0.11836054
-0.25978279
0.60516995
0.033258595
-0.092420347
-0.16462331
0.17436005
0.066304214
0.12278175
-0.21624142
-0.24749078
-0.066570342
0.28923845
-0.14556582
-0.083388008
-0.18210718
0.0029782201
-0.054182876
-0.15163465
-0.27335602
-0.58744872
-0.37457088
-0.74791199
-0.42454195
0.033902694
-0.088283502
-0.63769674
-0.13152806
0.42254868
-0.31553274
-0.57615787
-0.092656709
0.22245792
-0.27420756
0.33613977
-0.44043463
0.26893756
-0.62018436
0.21822692
0.59132773
0.50468469
0.052960888
-0.84281093
-0.052266181
-0.25259653
0.20820311
-0.24793029
0.24304156
0.67038959
-0.54997319
0.070009254
0.036571659
0.099384986
0.17786449
0.016445778
0.035807353
-0.69218904
-0.013653279
0.63908595
-0.72464859
-0.26881504
-0.77507573
0.051823728
-0.36967692
-0.76922888
0.56296879
-0.43202862
-0.18809026
0.66716522
0.35707828
-0.086210795
0.19147806
0.95384908
0.23566665
-0.34946132
0.045550939
-0.41948733
-0.499033
-0.69566363
1.0500493
-0.2639783
0.62790537
-0.76994199
-0.27151555
-0.27579761
-0.80904412
0.93978894
-0.37131631
0.31857753
-0.61348665
-0.48421001
0.093916729
0.22416686
-0.90267557
0.70151001
-0.32732987
0.2364722
-0.61139071
-0.46192601
-0.5431183
-0.63372898
-0.041869581
0.4656207
0.0091105606
-0.27094129
-0.12045231
-0.3477661
-0.41821212
0.15497963
-0.19160581
-0.32692483
0.13704544
-0.27300209
-0.61864501
0.074534938
0.13431899
0.71502072
0.11354423
-0.61094213
0.20693363
-0.51853347
-0.98247761
-0.70267606
0.21691331
-0.89769107
0.38410878
-0.69635171
-0.07585305
-0.85339594
-0.11693069
0.75985843
-0.65831852
0.030535739
-0.067384966
-0.029102216
-1.3501514
-0.097606614
-0.11602296
-0.27325502
-0.65192091
0.10825942
0.15204304
-0.47731522
-0.84490579
-0.65297753
-0.10553934
0.28716692
-0.53659546
-0.24059276
-0.25922212
0.22348149
0.13068092
-0.20581402
-0.13085799
0.14567752
0.19842947
-0.22195627
0.21814598
0.095297538
-0.39069569
-0.024083404
0.12972793
0.58375877
-0.16513549
-0.088068888
0.06454514
0.39876491
-0.31978557
0.4299514
-0.55425853
0.15677546
0.061880313
0.062616974
-0.26493374
0.098789155
-0.11846007
-0.06024744
0.10261264
0.40638766
0.22193688
-0.032040428
0.22451648
0.56498027
0.15321751
-0.31656981
0.15381315
-0.11664862
0.35350281
-0.31142306
-0.10828512
-0.10244623
-0.045615945
0.082042247
0.36533228
-0.88520557
0.24180618
0.16592956
-0.42777979
0.052582774
-0.064190902
-0.19077411
-0.62374544
0.82762915
-0.16135834
-0.043424726
0.47648162
-0.60007215
-0.16462708
0.2333032
-0.13799222
0.20636606
-0.51312542
-0.54231614
0.45475286
0.51716012
-0.26881826
-0.16458842
0.22737056
-0.11546075
-0.050218195
0.1743972
-0.18963414
-0.61002284
0.0097246803
-0.50253469
-0.12969796
-0.16912663
-0.09881869
0.082978852
-0.014458222
0.043695673
-0.24396674
0.38455287
-0.41362551
0.23800103
0.33385137
-0.13918719
-0.059565946
-0.13450557
-0.26383421
-0.27651414
-0.29265398
-0.61453342
-0.0055444618
0.43566069
0.22405037
-0.61747628
-0.073035717
0.14227386
0.1355707
-0.060661376
0.14532469
-0.011261855
-0.26609147
-0.33299762
0.073170304
-0.082644887
-0.13059549
-0.078901373
-0.034725517
0.31713784
-0.6183368
0.2464873
-0.23162195
-0.27328691
-0.19832315
0.076515906
-0.12118569
-0.074028715
0.38251668
-0.043462399
-0.069193706
-0.18338107
0.27181152
-0.23094098
-0.0038838754
0.11638446
0.045503948
0.061917346
0.040194698
-0.049315635
0.31916681
-0.19094051
0.51526648
0.21453683
0.13967247
0.16901597
-0.085835315
-0.22717567
-0.45665985
-0.0059718317
0.014234046
0.28633112
-0.083175957
-0.20017233
-0.22713639
0.24122579
-0.18506218
-0.103306
-0.3081882
0.18165764
0.14048572
0.14460723
-0.042925131
-0.138514
-0.066564381
0.24194486
0.26024076
-0.17215532
-0.085459486
-0.13588431
0.086578853
0.091880165
-0.15470213
0.34028509
-0.026900403
-0.0090168417
0.22599141
0.071945012
-0.16842292
-0.43853533
-0.19160995
0.064166002
-0.09119451
-0.72954041
0.095238939
-0.059448335
0.20755337
0.25424296
-0.06380818
-0.040764671
-0.44658196
0.25487486
-0.14886667
0.25314969
0.16110817
0.1596121
-0.11786562
0.025937531
0.41792974
0.186316
-0.097351409
0.10450016
-0.085618228
0.15913831
-0.13374095
0.23589559
-0.068598732
0.2651993
0.46210787
-0.16358896
-0.08934541
0.33776021
0.33383134
-0.46173525
0.28590599
0.17604344
0.67925227
0.084958054
-0.093186177
0.048294138
0.07804776
-0.22866502
0.38929686
0.36497107
-0.047108408
-0.31646237
-0.26699534
0.10618901
0.065949835
-0.07185021
0.10513139
-0.15354039
-0.59987098
0.093822472
-0.30467778
0.058742486
0.055115078
0.072152019
0.46019825
-0.45023653
0.48833099
0.13429546
-0.11934635
0.42677379
-0.045520507
-0.43820691
-0.39592224
-0.082473785
0.11105423
0.047120843
-0.13617824
0.017308543
-0.15392861
0.044805098
-0.063284867
-0.90368772
-0.063436702
0.41915491
-0.26446438
-0.37197003
-0.00032504497
0.15634152
-0.62375742
-0.25633428
-0.010726519
-0.09839341
-0.17507775
-0.24358906
0.18945606
-0.61187994
0.14895797
0.051094506
-0.68761116
-0.38458848
-0.12934199
0.019511929
-0.80547082
-0.55204654
0.019577341
0.33824492
0.099114232
-0.46129072
0.22935827
-0.33292609
-0.41219717
0.09334141
-0.34720871
0.099652387
-0.85360438
0.098693639
-0.015786353
0.27468759
0.26923162
-0.14462668
-0.15330118
-0.31407925
0.32752281
-0.60949934
0.081666209
-0.27119595
0.38170364
0.087862439
-0.59058654
0.027512193
-0.20315006
-0.26669958
0.24601774
0.090376846
0.24643424
-0.4227007
-0.017700721
-0.59545022
-0.23154406
-0.17148294
-0.43453515
-0.066513434
-0.27486655
-0.45701814
-0.15011886
0.14047967
0.27640775
-0.088733964
-0.10380344
-0.35333857
0.29016921
0.28814217
0.16419488
-0.30798578
0.033940323
-0.098402195
-0.14680451
-0.14931263
0.29426396
0.2582027
-0.054110482
0.14718606
-0.17813602
0.29698005
-0.078261003
-0.62041134
-0.058385529
-0.022615857
0.20809208
-0.22766379
0.012678171
0.021438956
0.050870411
-0.30629396
-0.11756083
0.0021383266
0.10429748
-0.32991815
0.028834099
-0.32535303
-0.0052145431
0.13253073
-0.087530546
-0.4773587
-0.020622673
0.0084799854
-0.27695554
-0.31446657
0.10707651
-0.081084773
0.21754234
0.0078326855
-0.10825221
-0.25833675
0.07131204
0.11998897
-0.19927891
0.28133532
0.0041785822
0.040448762
-0.27277291
-0.26426658
-0.10539136
0.20156875
-0.4552584
-0.13450812
-0.056923255
-0.25282377
-0.093137071
0.37818283
0.23531705
-0.26233405
-0.096990362
-0.010966635
0.13494058
0.12859908
-0.24479505
-0.095088154
-0.09599939
0.16086459
0.49140075
-0.46768999
0.14973962
-0.092411608
-0.02707758
-0.38726941
0.021722166
-0.1419372
-0.59840208
-0.17681466
-0.1884774
-0.097576074
-0.084440701
-0.38209355
0.15604138
-0.40460023
-0.33559236
-0.00037769045
-0.14402764
-0.0058093001
0.14424382
-0.044541106
-0.055845637
0.46569249
-0.02270454
0.078314185
-0.22747359
-0.060958017
-0.19821173
-0.15125413
-0.069874227
0.71451688
0.26950884
0.14432415
0.0010156343
0.26983565
0.072436467
0.46326244
0.34386566
0.0045613614
0.62790143
-0.55916953
-0.24136718
0.26583529
-0.27833661
-0.80014837
0.023558816
0.26381421
-0.6004802
-0.13452561
0.050067756
-0.48150644
0.41773522
0.30026835
0.29013258
0.11923166
-0.33748487
0.031120434
-0.15469895
-0.18414888
-0.27405038
-0.47482619
-0.63376838
-0.39900535
0.13993156
0.42742282
-0.15274602
0.11491619
-0.36049995
0.44382411
-0.83244711
-0.4239434
-0.22804147
0.22352111
0.41571659
0.33478895
-0.35467812
-0.1537848
0.0007430035
0.0023471857
-0.15529704
-0.23602211
0.38061747
0.32408381
-0.2389513
0.087342933
-0.520275
-0.22950806
-0.071302965
-0.26712677
0.082278222
-0.27525485
0.26320699
0.12881313
0.38106611
-0.31127265
-0.11814196
0.37014228
0.45475167
0.22683418
-0.20408931
-0.11816458
0.17032248
-0.027095884
-0.60294408
-0.22386652
-0.049002051
-0.098315999
-0.20083326
-0.13508496
-0.43910542
-0.30335474
-0.24468665
0.19734086
-0.45147151
0.37612963
0.059937816
0.10477656
-0.27595711
0.26548246
-0.32039011
-0.72623891
-0.054593548
0.022102064
-0.01935214
-0.03704736
-0.80845314
-0.032774135
0.35103616
-0.27974245
0.37152237
-0.15200809
-0.29513389
-0.049836256
-0.35327181
-0.27970177
-0.24213247
-0.12900193
0.74181253
0.063747376
0.42964575
-0.18317296
-0.026471701
0.057544634
-0.3652038
0.051589467
0.13314979
-0.31874242
-0.22356877
-0.61097556
-0.65737414
0.45801997
-0.0019665658
-0.016235454
0.12162741
-1.0387943
-0.49271181
0.75088364
0.11293619
-0.1365836
0.44166449
-0.065303184
-0.62446904
-0.5537222
-0.55939639
-0.23517857
-0.036238566
0.18235071
-0.86304051
-0.62571359
0.3439633
-0.32923958
0.21663766
-0.064085491
-0.85692096
0.33759224
-0.033811945
0.33718801
0.45819938
-0.70779979
0.24660245
-0.37570757
0.22018719
0.01210363
-0.65112525
-0.52551377
-0.42302758
-0.53768319
-1.8762717
0.055464588
-0.038965102
0.25226375
0.16475168
0.26920155
-0.42421386
-1.0399395
0.098121986
0.72899818
0.56314063
-0.70575076
-0.24151896
-0.058060203
-0.078744106
-0.087727591
-0.82338452
-0.7171284
0.30662265
-0.0037789717
-1.3826587
0.56051481
-0.67245698
0.1409957
0.45823503
-0.19223313
-0.47363734
0.14229441
0.15696542
0.40670681
0.025834348
0.65007073
0.03654388
-0.51703519
-0.1412601
0.48396355
-0.096195728
0.14421819
-0.47641364
-0.32919043
-0.010718144
-0.42137769
0.13713422
0.51648158
0.22905463
0.31672698
-0.30062866
-0.090124652
-0.20898736
-0.98227215
-0.67103255
-0.28006053
0.3664071
0.066815853
0.50993657
0.11302873
0.48191988
0.62953502
-0.25929558
-0.35736036
0.44925988
-0.31126729
-0.36643094
0.64289755
0.24531643
0.37712434
0.45943463
0.5567314
-0.20699762
-0.050080966
0.013841086
0.18131307
-0.18830167
0.36589882
0.57384783
0.1558172
-0.28604856
-0.27023107
-0.13059886
-0.49627197
0.20159702
0.12091556
0.00608856
-0.1308434
-0.59637672
-0.63960373
-0.65717041
0.72042626
0.092184365
0.44702709
-0.29417926
-0.35065055
0.10685574
0.069166586
0.41317686
0.072246127
-0.33107531
0.1698252
0.13560702
-0.093627475
0.62888211
-0.23834337
-0.31970263
-0.11468344
-0.026443193
-0.25607398
0.12573805
1.0495552
0.58098125
0.25871423
0.3991124
-0.41137278
0.051330529
-0.45703837
-0.18415003
-0.038429845
0.18994023
0.28549552
-0.36178148
-0.37892702
-0.013919579
0.054190312
0.031744901
-0.18299493
0.14849208
0.35386708
-0.33583787
-0.73699206
-0.28672111
0.48578098
-0.26404935
0.032089051
-0.98757398
-0.4912748
0.26797375
-0.2015136
0.18475443
0.27407998
0.057755738
-0.74224699
-0.52510375
0.080575623
0.079735793
-0.44907477
-0.14184435
-0.47544789
-0.29940042
-0.68647009
-0.75346512
0.48997664
-0.23391898
0.53475338
-0.81651288
-1.2283485
-0.11634126
-0.029435661
0.080122337
0.15372999
-0.28338054
0.28894675
0.15100063
0.30576742
0.036180932
-0.35033989
0.030053154
0.0036320263
0.049955491
0.052804779
0.023869388
-0.27854043
-0.1977721
0.12664637
0.048699293
-0.18128729
-0.0098859295
0.0091130175
-0.041689463
-0.53289539
-0.18309568
-0.099836513
0.14970092
-0.15054655
-0.36817768
-0.15693858
-0.20700952
0.029786745
-0.17477444
0.18384285
-0.14365183
0.044105634
-0.31778717
-0.025459092
0.10630513
-0.085939042
0.0070185126
0.04848735
0.17562653
0.28397352
-0.26613399
-0.39755473
0.099680908
0.24320574
0.2617605
-0.52669728
0.093268596
0.29566705
0.04559299
0.37823331
0.067710504
-0.022469044
0.082405135
-0.32625493
0.09311948
-0.17423719
0.22212292
0.53330606
0.0086527839
-0.040690307
0.02422658
-0.20607483
-0.08964283
0.061842937
0.038706522
-0.17742223
0.014489841
-0.032186572
-0.095307723
0.061330233
-0.10010969
-0.14169142
-0.12038454
0.40903097
-0.24224681
-0.2195033
-0.18485494
-0.17430209
0.085242935
-0.059394218
0.045473363
-0.210342
-0.52204841
-0.18866706
0.13027282
0.090622157
-0.058867414
-0.13488229
0.056957245
0.19503574
0.080211163
-0.13776441
0.020223806
0.0087505756
-0.0081790853
-0.32143584
-0.34437385
-0.046849977
0.25255659
0.224086
-0.067838781
0.42410293
0.45952326
-0.054112721
0.079104289
-0.1049182
0.033867847
0.17834477
0.075601928
-0.21735665
-0.170983
-0.086741455
0.45459646
0.044188183
-0.075883701
0.26459193
0.062833317
0.095235258
-0.11345287
-0.16308862
-0.34909147
-0.059606254
0.076705597
-0.27386826
-0.07634452
-0.36665824
-0.11976328
-0.38617143
-0.42059037
0.25620061
-0.34803757
-0.27366224
0.14459647
-0.43578228
-0.054622419
-0.0070047961
0.40012693
-0.1305511
-0.44564843
-0.16096568
-0.24586083
-0.40604421
-0.11893799
-0.099304184
-0.19409235
-0.05033154
-0.093306877
-0.33794427
-0.026331905
0.045821354
-0.083241083
-0.0041353111
0.38385221
-0.13042389
-0.11119027
-0.14925064
-0.029988363
-0.2256534
-0.55602545
-0.22177173
0.079456314
-0.027971448
0.42243823
0.0081649637
0.38466462
-0.15576155
-0.087636434
-0.28085953
0.14248918
0.032210883
-0.29968929
0.031521961
-0.23455484
-0.015021776
-0.04675629
-0.099391297
-0.074004032
0.11928406
-0.31040329
-0.05599355
-0.13386387
-0.071745045
0.048515361
-0.16105358
-0.045252591
-0.058755416
0.29055116
-0.14840755
-0.2662389
-0.12587911
0.046349797
-0.1082117
-0.33684465
0.094821811
-0.27021009
-0.17754242
-0.11495777
0.21899247
-0.21727075
0.42259493
0.075663939
0.12123638
-0.062390614
-0.0087388046
-0.16711138
-0.11842829
-0.20482931
-0.062766232
-0.19968867
-0.23742856
-0.0070122522
-0.2030274
-0.12602632
-0.20508085
-0.22713791
-0.17794618
-0.23940732
-0.33703893
-0.015391258
-0.32191396
-0.23612295
-0.18409406
-0.13076894
-0.099310659
0.080085829
0.0097364532
-0.10911755
-0.061664406
0.15306881
0.15465957
0.013521075
-0.17884809
-0.046606652
0.10972411
0.09432932
0.18321435
-0.13535337
-0.2655462
0.013123245
-0.06256409
0.011456255
-0.20676285
0.16976358
-0.16764484
0.082693055
0.1599884
-0.37698179
-0.12652498
-0.10281775
0.021975394
-0.0600858
-0.1064075
-0.053221636
0.069904685
0.03876679
0.062028408
0.0071725254
-0.39802653
-0.071168534
-0.15545805
0.1445028
-0.12970135
0.033986267
0.14349931
0.22692221
0.24643521
0.096545026
-0.21777567
-0.22438744
0.042984948
0.11594263
0.034655299
0.076395035
0.13215563
-0.035220277
-0.11215217
0.13357314
0.13155112
-0.032053202
-0.053904247
0.019729622
0.047994811
-0.045770809
-0.27267468
0.21061607
0.19275682
-0.012191997
0.016129062
0.16743554
-0.24177104
0.096805833
0.11720267
0.036957331
0.037470721
0.0078271814
0.13009818
0.31566146
-0.1518847
0.021159247
-0.077678561
-0.30845156
0.16453663
0.11689311
-0.046724729
-0.051044855
-0.028751962
0.2456134
0.30803806
0.066942967
-0.10619476
-0.34521237
-0.49559629
-0.2861985
0.13070422
-0.10333601
-0.40278503
-0.10045739
0.14594917
0.16218258
-0.14641507
0.10232823
-0.062308572
0.09984339
-0.435633
0.26734692
0.16371812
0.37018779
-0.046790354
0.18443087
0.29205036
0.2752153
-0.69089019
-0.21494295
0.22966422
-0.09564136
-0.62858236
-0.16041857
0.19225766
0.067139298
0.11220549
-0.15933703
0.076497264
-0.26873735
-0.42879829
-0.14718488
0.087750763
0.2007965
0.35769451
-0.15185244
-0.23545668
-0.41902348
-0.03225933
-0.75301212
-0.20006965
-0.036573917
-0.10622232
0.29199728
-0.14943735
-0.39802134
-0.016974974
-0.06010117
-0.23764297
-0.63047791
-0.23765963
-0.7810964
-0.10594627
-0.45724159
-0.29712096
0.0098078819
-0.11017011
0.037148677
0.20208736
0.21000576
-0.5494867
-0.2603476
-0.32041597
-0.40182158
-0.14235592
-0.21837573
0.28074586
-0.20528775
-0.076525077
0.29968557
-0.13129279
-0.012133338
0.038426071
0.0042687878
-0.029060014
-0.043880511
-0.039512724
0.24116595
0.12391454
-0.15716696
-0.30114022
-0.33126679
-0.1153441
-0.25872752
0.17540799
-0.27513486
0.098772287
-0.19089919
-0.22445716
-0.20099269
-0.020879596
-0.35367748
-0.32859159
-0.20564133
-0.12575172
-0.28058681
-0.24676816
0.31064194
-0.0031473786
0.20429149
-0.049116921
0.13172291
-0.21415146
0.46612212
0.19962195
0.396626
0.26219043
-0.47105905
0.052900065
0.0085153589
0.035249107
0.18892042
-0.048273735
0.2152577
-0.068336576
-0.13717785
0.35835364
-0.039942589
0.91108382
0.42933702
-0.13738905
0.068031058
-0.47917023
0.050902054
-0.12939623
0.053465415
0.37317437
1.0764714
0.19154765
-0.17120305
0.24086186
0.72543848
0.27525252
-0.43436348
0.11974083
0.22914793
0.34948361
-0.13197826
0.16295019
0.65838093
0.62389845
0.33269656
-0.08079347
-0.44496238
-0.05509118
0.19664408
-0.16799293
0.047280475
-0.16194329
0.023932228
0.040054448
0.17693746
0.28893876
-0.092566498
-0.16058594
-0.42449972
-0.2843782
0.34135434
0.012637621
-0.86661166
-0.24347223
0.1632804
0.0079989573
0.092541032
-0.31313339
0.43081769
0.11092336
-0.17282121
-0.40742472
-0.77552462
0.010020399
0.34642112
0.53331655
-1.0707291
0.43917143
-0.45893255
0.16230945
0.3152872
0.81090736
0.41402769
0.68969816
0.030248767
0.034840737
0.28099245
0.20563471
-0.86610019
0.2332768
-0.31425187
-0.02132846
-0.88116252
-1.2157418
0.57184404
-0.15107153
0.36326408
-1.3612487
0.056217935
-0.19603193
-0.38922045
-0.43108431
-0.017172545
-0.70584375
-0.17417175
-0.4240118
-0.16261663
-0.31457964
0.15736772
0.48179683
-0.3297886
0.54768991
-0.63748473
-0.62362128
-1.1099385
-0.066124752
0.085896231
-0.43673947
-0.42220396
0.49415779
-0.12084275
-0.5983088
-0.064926416
0.52225447
0.51843661
-0.64830178
-0.80553377
-0.56936866
-0.36623475
-0.12555932
0.8915745
-0.34997553
-0.22292803
0.71090496
-0.053424649
-0.4013539
-0.0036064605
0.21542768
0.18657917
-1.1568809
0.13592145
-0.45008722
-0.56236148
-0.068446472
0.00058659993
-0.37258711
0.3721616
0.45633602
0.82133448
-0.088154383
0.55953091
-0.71152657
-0.010946047
0.10932969
-0.26082659
-0.11706916
-0.53529567
0.45698288
-0.47136262
-0.34662157
0.092081688
0.21888711
0.59429836
0.21371128
-0.023877684
-0.13321611
0.23694512
-0.27597898
-0.45705998
-0.57375109
-0.33691043
-0.47916713
0.19993064
-0.42834479
-0.10365306
0.17753799
0.46677414
0.3300485
-0.13339372
0.024003888
-0.34841925
-0.13980079
0.0096028289
-0.33348429
-0.40570283
0.1943519
0.027618904
0.18240766
0.24243174
0.44659302
0.17321983
0.27678087
0.70388925
-0.28547049
-0.32315183
0.27584293
-0.41533193
-0.091674119
-0.20332287
-0.18093538
0.48929214
0.013821152
-0.49623325
-0.06321241
-0.47425893
0.18533671
-0.91794169
0.42835686
0.14696915
-0.51932144
0.32673323
-0.4060275
-0.28376275
-0.31559363
-0.077804476
-0.16037187
0.23064852
0.30009454
-0.24261118
-0.26601312
0.088004805
-0.095571429
0.13949227
-0.18966956
0.20202282
0.16707569
-0.024222821
-0.04350068
0.44490001
-0.098996393
-0.19195393
-0.60049653
-0.31367907
-0.1695708
0.078671157
-0.48948726
-0.49504977
0.44083941
-0.090790123
0.050162364
0.37890863
0.072402991
0.56912029
0.42893395
0.011565861
0.14229913
0.26665092
-0.082871608
-0.39094266
-0.19229046
-0.32657081
-0.027561335
-0.1380392
0.087286547
-0.04488644
0.2667447
-0.48864654
-0.32081112
0.054654896
-0.028796505
-0.14952141
0.28880194
-0.15557477
0.31891567
0.079047993
-0.45341489
-0.42973214
-0.081512712
0.042859845
0.23832288
0.21101031
0.65463763
-0.32777372
-0.46171334
-0.19972576
0.058893427
-0.020012278
-0.51804429
-0.79967642
0.00079979183
-0.46578294
-0.3148973
-0.095340781
0.0015225481
-0.095894255
-0.87431341
-1.1721218
-0.14769639
0.14422469
0.4750388
-0.75512344
0.36424232
-0.58292967
-0.4720532
0.1964
0.10058574
-0.089096971
0.32642877
-0.54129225
-0.6679157
0.58597481
0.63697112
-0.51461667
0.083305225
0.24664377
0.45587012
0.44233006
-0.38636354
0.10002041
0.28132245
-0.080994114
0.40630794
0.28560042
-0.26031059
-0.30782509
0.1608142
-0.52720922
0.1345659
0.3349759
-0.25450739
0.13975978
1.3166667
0.74310094
-0.31401744
0.80174845
-0.55691022
0.38288978
0.96461493
-0.059713379
-0.061096389
0.236002
-0.1178715
0.054381482
0.23385632
0.16932189
-0.15641929
-0.081184231
0.42797717
0.53592098
0.27730298
-0.32301179
0.42943197
0.46032336
-0.58593971
-0.64012808
0.033451512
-0.25053465
0.60649657
0.16919076
-1.0897081
0.0201448
0.14539994
0.58508736
-0.29540926
0.33182669
0.13550609
-1.7508464
-0.77998024
-0.13100994
0.3885203
-0.47109941
-0.55261046
0.48012319
0.68101925
0.55512381
-0.67971766
-1.4307733
-0.0063842246
-0.011811806
-0.47943246
-0.93515897
0.14245035
-0.39655811
0.4163442
-1.2992457
0.59352797
-0.32484686
-0.9573257
-0.16551219
0.086403646
0.24047507
-0.2813347
-0.45174614
-0.39225012
0.28315035
0.85472649
0.8905459
0.036887165
0.2045286
0.792377
0.3243145
0.54505885
-0.079068162
0.18931054
-0.25752586
0.47889736
0.48770016
-0.13131614
-0.61197782
-0.29798755
-0.092420042
-0.047737781
-0.027372167
-0.14677604
-0.017218545
0.49966556
0.41009241
0.46409607
0.36750695
-0.08375302
-0.073319152
0.47999534
0.030477803
0.12715741
0.32125023
-0.11201119
0.63970423
0.1504495
0.093763545
-0.20839825
-0.15250656
0.30696723
-0.19073939
0.34856901
-0.30552846
0.29245207
-0.3568655
-0.22261789
0.24486348
-0.20878945
0.23172159
-0.14763044
-0.43780959
-0.96991616
0.13721725
-0.26292855
0.20197923
-0.42922881
0.25336882
0.54326743
-0.40941146
-0.017081546
-0.23008107
-0.093364872
-0.2689639
-0.95867074
-0.33063659
-0.17433359
0.10418666
-0.06960047
-0.47784507
0.47214469
0.20338599
-0.27906343
0.25990221
-0.21900053
-0.45780203
-0.46849111
0.028871458
-0.27196413
0.20446284
0.079309918
-0.13696986
-0.51038468
-0.53921258
0.056742635
0.17380564
-0.65926546
-0.16325234
0.45414212
0.090046957
0.47497192
-0.37498301
-0.080147535
0.01359721
-0.015093139
0.21815586
0.27053738
0.005430101
0.0017493287
-0.033226304
-0.018006433
0.041980065
0.094318129
-0.070074692
0.10348357
0.19498222
-0.1209276
0.061494235
-0.3526679
-0.15612404
-0.085386075
-0.18235764
0.49503589
0.18091242
-0.13113438
0.035667408
-0.010805649
-0.30895016
0.14819539
0.017470421
0.087940902
0.1614053
0.25833261
0.087179296
0.35756925
-0.33980313
-0.15431948
0.040042598
-0.30536878
-0.030778682
-0.11718341
-0.072529435
-0.10268915
-0.23742737
-0.096498989
-0.075680941
-0.35991341
-0.15944651
0.11506203
-0.53604496
-0.32590061
-0.02144069
0.38714263
-0.12824835
-0.009680165
0.18091567
-0.24661502
-0.18343313
-0.48534793
-0.40272629
0.31079459
0.099524856
0.17562488
0.36064193
-0.38748413
-0.3855916
0.13775615
-0.20474742
0.35470724
0.44451675
-0.16373204
0.27276605
0.046162046
-0.21007961
-0.3564322
0.043953087
-0.11900783
0.67372668
-0.23298234
0.47965065
-0.42923146
-0.11758247
-0.050853457
-0.23116273
-0.53149074
-0.16214187
0.29440969
0.045344383
0.071250238
0.19424911
-0.32645413
0.11806587
0.20758818
-0.2563633
0.055500817
0.052250981
-0.065344252
-0.17097013
0.015261519
-0.20388635
0.18203743
-0.35682759
0.074272975
0.085992061
-0.46357995
0.24405479
-0.87305677
-0.2556372
0.32500732
-0.28559491
0.23436506
0.78653044
-0.20179871
-0.11538912
0.014570867
-0.3681145
-0.27584964
0.22851475
0.2925784
0.16946387
0.0035161953
-0.64339525
-0.40436918
0.23138954
0.15017922
-0.0050051529
0.1507384
0.47573301
-0.24770416
0.23545881
-0.25946721
-0.26731879
0.037020084
0.29886538
0.17112736
-0.49593073
-0.13168411
0.0012043631
-0.43483329
-0.27023035
0.20663179
0.13229576
-0.53842384
-0.39326844
-0.21486919
-0.052492514
-0.54373395
0.1936083
-0.0036808825
-0.30041498
0.20572224
-0.12791221
0.27105367
-0.06952858
-0.08884123
-0.27265549
0.062980056
-0.53472579
0.67065084
-0.18382861
-0.22538154
0.14902641
-0.089727677
-0.045743946
-0.24076511
0.12828591
0.30094427
-0.27750331
-0.055335112
-0.11362246
0.57134318
-0.37358949
0.10924466
-0.053760465
0.073597729
-0.45961323
-0.081223473
-0.25779223
-0.71260047
0.57614481
0.041707091
0.086694688
0.11827997
0.20085795
-0.10930657
-0.17329611
1.0994861
-0.42604131
0.29988185
0.31165624
0.56468189
0.83757925
0.19971961
-0.50034606
0.18165053
-0.039777264
0.80327779
0.41228127
-0.019578684
0.21560399
0.5906415
0.19390638
0.47489002
0.25521514
0.66735405
0.6512863
0.34084865
-2.2342257
-1.1766677
-0.19291238
0.30460116
-1.5798728
-1.2271799
-1.8761318
1.2589877
-0.44153893
-1.4169755
-1.9827489
-0.72681916
-0.77196223
-1.6301149
1.0167075
-0.64820164
-0.064824082
-1.0730742
-1.6756594
-1.3931435
2.446995
0.34456563
0.18173932
0.23638718
0.13292669
0.055138215
0.16068231
0.19978188
0.49308753
0.18407628
0.54182231
0.24534594
0.18765822
0.098534144
0.4002609
-1.3729181
0.35658655
-0.039198801
-0.095616058
-0.11069817
-0.47246146
0.48198333
0.085070603
-0.0035007242
0.16778646
0.18128477
0.31373793
-0.022257054
0.28987229
0.012145177
-0.36043629
-0.10587876
-0.31895599
0.68187094
0.014136086
0.19767253
0.30286026
0.19270292
0.30375457
0.31048229
-0.47162417
0.20065184
0.078062162
-0.095309772
0.20743598
0.30348632
0.0048979595
0.051386598
-0.22060883
0.52682918
0.60585999
0.17650451
0.30168739
0.064374059
-0.45249161
0.24460188
-0.16455816
-0.29200295
-0.3834233
-0.51815218
0.13839112
-0.25515109
0.1954318
0.2180094
0.14565964
0.49670607
0.11799574
0.55134565
-0.15952173
0.64607018
0.2560364
0.096396372
0.13649556
0.066453971
0.68418854
0.17121081
0.30685669
0.14648715
-0.034482669
0.12646225
0.38290808
0.1673266
-0.029179467
0.094654441
0.54834592
0.14190529
0.051664017
-0.055987604
-0.079878092
-0.32977656
-0.099058248
-0.15042464
-0.49293908
-0.15670167
-0.086428292
-0.1684996
0.10062754
-0.25699708
-0.15994756
-0.032390736
-0.30901539
-0.11079602
-0.23367362
0.021619547
0.18497817
-0.055446479
0.12539038
0.043210182
-0.24125697
-0.15566576
-0.10943291
-0.026381865
0.015910286
-0.51499099
0.47331658
-0.35711482
0.85568315
0.051377453
-0.30855501
-0.026836442
0.020855794
0.3616969
0.20427331
0.20636415
-0.8652432
-0.33079487
-0.067431152
0.57096225
0.41197842
0.14024965
0.13868286
-0.22389634
-0.31916013
0.21574889
-0.25539273
-0.08268699
0.30624294
-0.11407755
-0.35290891
-0.018320091
-0.20234682
0.10107678
-0.012693156
-0.007558459
0.26095417
0.58889365
-0.06168196
0.13158742
-0.15532076
-0.11131878
-0.21584027
-0.10319544
-0.14301363
0.030203093
0.22213303
-0.38485783
-0.2152999
0.32481721
-0.17020249
-0.37746009
-0.15208331
-0.17075868
0.045676831
0.24270496
-0.4568972
0.38631681
-0.28802934
0.10851041
-0.55553758
0.44422615
-0.13464227
0.14118439
0.009821522
0.077440888
0.31181034
-0.24833722
-0.78591281
0.028766625
0.52310741
0.21657299
0.02541182
-0.14133067
-0.17805646
0.12886372
0.12891178
-0.068274602
0.081885979
-0.052371573
-0.62228853
-0.029183503
-0.057929631
0.23443501
0.086401664
-0.020552544
-0.36086619
0.10935926
0.26973587
-0.70372421
0.42087138
-0.16721424
-0.090464041
0.085828833
-0.12511143
0.26401138
-0.3743085
1.1175342
-0.60335112
0.12427095
-0.51605886
0.26147971
-0.080216631
0.62189341
0.025340263
-0.14837798
0.39983311
-0.096679606
0.086241528
-0.042736299
-0.30559674
-0.15292108
0.18439864
0.31716627
-0.014317014
-0.25633073
-0.37849858
-0.01689215
-0.48467094
-0.12473974
0.068838641
-0.0057511753
-0.77749676
-0.45277727
0.55921006
-0.081176281
0.1102716
0.085673384
0.43880373
-0.24120484
-0.2796225
0.19814532
0.34592128
-0.23192902
0.49569461
0.10910533
0.41011685
0.28930128
-0.12122076
-0.70603412
-0.20525965
0.26418707
-0.77935123
-0.87939817
-0.43543562
0.21540742
-0.12329405
0.13321404
-0.53603989
0.14148231
-0.0066682068
-0.42959264
-0.2355002
-0.18743213
-0.35861763
-0.27519834
-0.48406509
0.52582771
0.32180333
0.29330707
0.059035908
-0.12098396
-0.19101532
-0.53897655
-0.58040375
-0.58557326
0.80629021
0.26736298
0.88432986
-0.20577005
-0.25643712
0.99038661
-0.11024771
0.29486057
0.33654666
0.38259959
0.19865553
0.84912932
0.15107678
-0.86067224
-0.67277062
0.48362654
-0.1515526
0.49458715
0.51111925
-0.098282918
0.37815556
0.44883135
-0.12760605
0.022184234
0.17883253
0.50042099
0.40368471
0.041831493
-1.7982445
0.17601299
-0.65471238
0.25698152
-0.85011256
-0.029185027
0.10161795
0.3772631
0.16522042
-0.24802585
0.46089527
-0.94192404
-0.069492884
0.75144023
-1.3856155
-0.46803433
-0.29736811
-0.58542377
-1.1022552
-1.2753401
-0.13807602
0.14277932
-0.43869907
-0.2146101
-1.8111622
-0.5262354
-0.5012061
-1.4926323
3.0630107
-0.082861342
-0.32835418
-0.471288
-0.089523725
-1.2788849
-0.72237325
0.4786236
0.03087341
-0.032283466
0.21308029
0.65335733
0.41668248
0.83712071
0.01852526
0.43233454
0.38120383
0.63101393
0.33184901
-0.23847733
0.29223508
-0.42086732
-0.50358808
0.15533975
0.38141638
0.16992815
0.13434952
0.66129744
-0.040355947
0.081463359
-0.52172095
0.17768383
-0.03783825
0.14882565
-0.10287216
0.38434833
-0.44374758
0.057887293
0.0089077819
0.31050345
-0.26061708
-0.074833728
0.20035246
0.39279157
-0.1664165
0.52875066
0.17453702
0.25151736
0.120004
0.3554785
-0.39266214
-0.24870169
0.48178285
-0.26381567
-0.37648651
-0.59735334
0.046707213
0.039714355
-0.179364
0.10435382
0.63959414
0.15500894
-0.24576178
0.18527284
0.1401546
-0.049464136
0.04686816
-0.34559736
-0.3098368
0.069909185
-0.070339613
0.12146607
-0.290665
0.1866831
-0.32219061
0.031377696
0.27519587
0.22049795
0.15291791
0.25411305
-0.019035675
0.29784885
-0.16464452
-0.15429236
0.3052696
0.5845089
-0.17400734
0.37158337
-0.2012665
0.022445476
0.045083847
0.36059585
0.21140519
-0.18570675
-0.14718978
-0.16672507
0.21512832
-0.18646371
-0.24400979
-0.21196628
0.060453404
-0.23106997
-0.20897937
0.11307719
-0.44252241
-0.35453406
0.51576781
-0.54173326
0.16738664
-0.02374563
-0.3495433
-0.43420351
-0.002250527
0.30918744
0.055337783
-0.36779499
0.15485702
-0.57152057
0.43513444
-0.41050997
-0.0080413446
-0.3780039
0.027446762
-0.11381825
0.22021435
-0.1821738
-0.25462562
0.27090862
0.21088332
0.11128293
-0.32214212
-0.67289704
-0.25496429
0.099751107
-0.3187688
-0.24728853
-0.143253
0.017261073
0.020076595
0.086205617
-0.059734851
-0.098373167
0.30873132
-0.26351646
-0.51926345
-0.081480697
-0.063765414
0.35460693
0.42524654
-0.21491496
-0.10709441
0.09408135
-0.44538379
-0.38965303
0.054974329
-0.15575331
0.11490031
-0.22787972
-0.62649488
0.14630991
-0.03158104
-0.09260226
-0.31005961
-0.10351568
-0.11988483
0.10650128
-0.25421178
-0.28041971
0.034544714
0.010122973
0.040089671
0.018642245
-0.063657366
-0.67564863
-0.35696039
0.039771639
-0.041687623
0.076109976
-0.14688648
-0.0705375
0.13585684
-0.56837791
0.29448056
0.31837875
-0.39259949
0.21129705
-0.46635783
-0.089475699
-0.20382948
-0.03638361
0.010665635
0.21109718
-0.11594584
-0.28022873
-0.55323464
-0.094249718
-0.38972962
0.061004728
-0.018978361
0.078770958
-0.51741242
0.40113065
-0.46749011
0.27844763
0.099546313
-0.24249285
-0.5491783
-0.36422902
0.35146102
-0.1616535
-0.32520607
0.34511417
0.52590352
0.26243457
-0.19005334
-0.078330927
-0.050577093
-0.11395993
-0.12099452
0.0034545946
-0.25905004
0.3204855
0.087223522
0.38411054
-0.39749241
0.17586957
-0.4614557
0.14248414
0.40129042
0.1046046
-0.10177099
0.14522329
0.28662711
0.55316466
0.091161184
-0.24216172
0.1065316
0.29129362
-0.88054729
-0.21551196
0.29242474
-0.0030272673
-0.61475682
-0.08825317
-0.073129028
0.55291051
-0.39876825
-0.16327621
-0.7468335
0.52805483
-0.011905799
-0.44069105
0.10714667
0.61790794
0.14591181
0.1551294
-0.16676499
0.28345165
0.046841197
0.11315905
-0.1451672
-0.7982797
-0.7809605
-0.080640316
0.51432782
-0.50053203
-0.56629556
-0.18387708
-0.39771274
-0.43292487
-0.59546453
0.1110907
0.25316828
-0.50560981
-0.8245036
-0.12729438
-0.27508584
-0.026590478
0.16431963
-0.2207053
-0.09333688
0.73725462
0.069457434
0.04719536
-0.14737859
-0.31207657
0.47084847
-0.8351742
0.13302289
0.055268522
0.26137257
0.70988798
-0.24204801
-0.32114848
1.7292057
0.52610373
0.79326737
0.1122932
0.46502462
-0.16531378
0.34549627
0.13644001
-0.16845205
-0.8546887
-1.0921141
0.16615061
0.25321051
-0.32250705
-1.6114144
-0.42311963
0.14868246
-0.5757336
-1.0312693
0.10204669
0.03720909
-0.85847282
-0.76215243
-0.42947781
-0.47835088
0.18134561
0.52295309
-0.4051657
-0.013028964
0.86012298
0.4295117
0.45152968
-0.069537856
-0.21921523
0.34030992
-0.57000095
0.2783424
-0.23771176
0.021057304
0.25650522
0.19144687
-0.016280537
0.36068818
0.60198081
1.1976483
0.24676895
0.56812292
-0.10517799
0.20733696
-0.021517485
0.22038628
-0.4092437
-0.34615728
-0.23515733
-0.090123065
0.19847989
-0.61235666
-0.090581141
-0.18030755
0.0734699
-0.43071356
0.26138592
-0.36315313
0.57199287
0.40848988
0.35859555
0.53522456
-0.22255258
-0.28142378
-0.358138
0.070047051
-0.033260141
0.53670382
0.23059998
-0.50033081
-0.10966324
-0.50275213
-0.30258143
-0.40517834
0.15010084
-0.37060469
0.1828222
-0.36014229
0.057271697
0.057371598
0.12710057
-0.12176817
0.46523571
0.099731877
0.19120319
-0.34791282
-0.18926121
0.11499775
0.25376284
0.68892205
-0.34591198
0.29907006
0.51594245
0.068829447
0.088312052
-0.26172444
-0.37109452
-0.38689265
0.23172563
-0.3028487
0.098833203
0.87767094
-0.14843334
0.247208
0.18208113
-0.23592933
0.099077657
-0.24888639
-0.0056362087
0.22531013
0.14073417
-0.26966563
-0.29632527
-0.16064002
0.17750081
-0.26562959
0.10533004
-0.20970133
-0.43544143
-0.075739019
-0.05585219
0.057705175
-0.070822179
-0.43351907
-0.023018025
-0.14855778
0.24034664
-0.082115471
-0.020864798
-0.19796908
0.26070654
-0.11702788
0.13184765
0.31972572
0.088005297
-0.23028736
-0.0031776207
0.050708063
-0.23420903
0.078199655
0.15982558
-0.22924471
-0.16516981
0.022812877
0.23114219
-0.098966949
0.41929188
0.0023411789
0.2632015
-0.21607271
-0.33289188
0.11947051
-0.10026406
-0.31379011
0.45509455
0.0086211655
-0.30914748
0.16771859
0.042818405
0.21620862
0.21643987
0.0263003
-0.19001043
0.55444527
0.24739544
-0.02569475
0.33629501
-0.50679183
-0.14298646
-0.0027318622
0.13623303
-0.21861328
-0.33056137
-0.34928626
-0.13807158
-0.4811666
0.090974405
0.30348274
-0.11441421
0.18648446
-0.38556144
0.37658966
0.26622733
-0.028885987
-0.30225137
-0.66702813
-0.49764404
0.50378394
-0.1674795
-0.083430789
-0.36322874
0.034138311
-1.1742688
-0.84876513
-0.83979982
-0.46198112
0.47632903
0.099658184
-0.66780341
-0.32316506
0.34187779
-0.18697156
0.0035674491
0.37662071
-0.0322574
-0.66148406
0.16261648
0.28076917
-0.39693591
-0.13952452
-0.93908435
-0.25106156
-0.31584299
0.62329024
-0.13733119
0.015366266
0.32570806
0.76995218
0.18581212
-0.12582496
0.26838559
-0.12470426
0.4628236
0.18286248
0.3430351
-0.12587155
0.61939621
0.20881373
0.29789576
0.45152557
0.66501671
-0.47533056
0.19196224
0.59625942
-0.090264335
0.18200807
0.64465404
0.080252476
-0.1591984
0.24345383
-0.29331467
0.39811003
-0.25076556
0.23470539
-0.028069569
0.12947954
-0.51986873
-0.18262491
-0.41619241
-0.29784021
0.21137786
0.0038792237
-0.2452476
-0.060389627
0.53894413
0.37544408
-0.21344036
-0.80482841
0.36807024
-0.11954939
-0.10900322
-1.1361312
0.35546711
-0.49228016
0.26843944
-0.53639507
0.16564284
-0.076432973
0.14598691
-0.11770721
0.13444985
-0.097436272
-0.12768805
-1.1141497
-0.02587023
-0.40326464
-0.99331826
0.21036716
-0.37425244
-0.5953967
-0.080504328
-0.58763713
1.3357137
0.076507382
-1.3044397
-0.68388796
0.28841364
0.36982736
-1.1019788
0.64031559
-0.72130001
-0.6595549
-0.19889718
0.1644467
-0.32715806
0.12052128
0.47678372
-0.015726522
-0.86287111
-0.45340452
0.67035842
-0.030530114
0.12448367
-1.1182616
0.15925702
0.85783315
0.26380178
-0.34140721
-0.78356212
0.31218889
-0.15624669
-0.74792618
0.37635955
-0.3644582
0.097358458
0.76045382
0.53389883
-0.86841458
0.36145806
0.030028403
0.7007333
-0.3576889
-0.29123977
-0.12383266
-0.36855015
-0.32976839
-0.37990201
0.24922663
-0.088686839
-1.059406
0.044024147
0.21309072
0.59241879
0.80694419
0.13398303
-0.25724462
-0.8350262
0.51494557
-0.30425644
-0.62417012
-0.40962958
-0.17028056
0.051142946
-0.050742924
-0.52074879
-0.070375524
-0.50600171
-0.29159698
-0.32866606
-0.16342895
-0.045539871
-0.87425089
0.38724026
-0.20394407
0.13285431
0.16911934
-0.19722177
-0.20713963
-0.21829784
0.0012978631
-0.2003731
0.17687234
0.38818151
-0.44007346
0.0061932812
-0.17104888
-0.16344105
-0.26177368
-0.044114083
0.72233778
0.35673773
-0.43170506
0.43949816
0.51121145
0.58498394
0.19270204
0.23283015
-0.7753135
-0.17708486
0.10496107
0.2787334
0.14397278
-0.098037109
0.51252091
-0.2441165
0.85448825
-0.1051821
-0.79239166
0.1118588
0.17499317
0.0056216824
0.18053629
0.12313024
0.33726111
-0.84318691
0.12687393
-0.21544757
-0.11779594
0.058083575
-0.82957667
0.37873721
-0.79345983
-0.74231529
-0.35177648
-0.075839341
-0.012814071
-0.26586264
-0.16072826
-0.43764308
-0.16807334
-0.42513973
-0.52570134
-0.32083213
0.13686357
0.032698326
-0.3965852
0.18900216
0.87780511
0.42499176
-0.32060444
0.11398783
-0.15013559
0.17826508
0.4646509
-0.49477726
0.1429144
0.45200312
0.12891901
-0.98726213
0.26267388
0.26494953
0.0036816522
0.51922446
0.093880691
0.76383263
0.23865725
-0.09729372
-0.013586108
0.0017986434
0.065758877
-0.51207393
-0.57867664
-0.047536243
-0.0048961407
-0.24851254
0.42881972
0.32649404
-0.26443177
0.20061764
-0.3122209
0.12015005
0.3814643
-0.56570959
-0.2354123
-0.19613764
-0.27029258
0.066006459
-0.31670466
0.13488398
0.24588004
0.872751
-0.47462073
-0.18326494
-0.22395371
-0.24186264
-0.24472964
0.023140661
0.058423523
0.064458206
0.51775926
-0.34608659
-0.28758219
-0.099637076
-0.73610145
0.16737404
-0.048171349
0.051699616
0.31850794
0.16451953
-0.20152733
-0.017177571
-0.096110106
-0.61645973
0.052694287
0.15374522
0.10030676
0.021682046
-0.011297019
0.12210929
-0.38708204
0.094282366
-0.25596404
0.015510029
-0.15403713
-0.38182375
-0.2732175
0.17363508
0.50953388
0.2267186
0.087736838
-0.15965214
0.084338769
0.074294858
-0.11842322
0.058052909
-0.18934162
0.2012924
-0.083095044
0.11773802
0.10831176
-0.025801003
0.078151703
0.046091322
-0.25374106
-0.2010943
-0.16954704
0.0034674355
0.32679221
-0.14790222
-0.32471317
0.24690655
-0.2603302
0.18732846
0.23672549
0.07887461
0.13872585
0.063162044
-0.16818877
-0.071736112
0.07187812
0.29958978
-0.24513443
0.058579061
0.0042754514
-0.28734863
-0.23525128
-0.1451022
-0.11943202
-0.35865951
-0.048462801
0.035828516
-0.093101278
0.34912997
-0.2067526
0.097570397
-0.13850354
-0.27434403
-0.50384146
-0.021310586
-0.14787231
-0.10137097
0.069366835
0.14527807
0.42134604
-0.22723016
-0.50927752
0.25800067
-0.21577246
0.14583728
-0.23648438
-0.48676503
0.039381128
-0.19683243
-0.48956519
0.045921165
-0.10556381
-0.10496996
0.4049587
-0.1326427
0.23878013
0.30125877
0.61979443
0.095434539
-0.22528709
0.52269721
0.13097662
-0.36450222
-0.066703402
-0.18188111
-0.43407798
0.33636889
0.058575004
-0.068274513
-0.19848175
-0.42006353
-0.036250181
-0.16401562
-0.35244852
0.13002931
0.8029139
0.929582
0.48528373
0.18819387
0.51015991
0.098348528
0.40049866
0.76740485
0.275841
-0.14459383
-0.86141056
0.25360754
0.15564203
-0.21505545
0.22528073
0.41815454
-0.43034613
0.42319956
0.39508751
-0.21357921
0.31497446
-0.82639968
0.82352769
0.03186132
-0.73588067
-0.94172263
-0.50946313
-0.58012927
-0.086442046
-1.0225197
0.014367666
-0.5398947
0.026993882
-0.68500847
0.44041651
-0.32697776
-1.277176
-0.99031401
-0.2556769
0.000738492
-0.46435404
-0.27710861
-1.8224839
1.0353738
0.29698107
-0.5139932
-0.19439454
0.47021556
0.19342242
0.061996691
-0.93525404
-0.069240905
0.12526114
-0.15978898
0.26140159
0.11049601
-0.12960592
-1.1146547
-0.3935408
-0.81917614
0.17610289
-0.3314971
-0.15890697
0.16965146
1.3570993
0.63724995
0.9308967
0.45270783
-0.38124758
0.74704331
0.81717956
-0.1419552
-0.13029407
-0.16749479
0.29681709
0.98031694
0.082633808
0.13048874
-1.4397926
-0.3492654
0.52375174
-0.13067016
-0.26984873
0.14471832
0.1785136
1.3160738
-0.083877727
0.026769292
-0.73602134
-0.23460649
0.54257166
0.3971113
-0.90047961
-0.25831297
-0.30469736
0.0065810531
0.093859963
0.73299849
-0.040417563
-1.8888503
-0.65403044
-0.11661145
-0.017149085
0.10028592
-0.5965544
-0.47698793
-0.13774052
-0.37965524
-0.28216723
-0.66425782
-0.075840339
0.19079389
-1.1620747
-0.81697458
-0.0053887004
-0.3646726
0.25138366
-0.37039095
0.72553504
0.13459721
-1.336679
-0.11884511
-0.28981012
-0.44203001
-0.18827376
-0.39190242
-1.123974
0.024195731
-0.15389244
0.27164012
-0.36398876
0.15978135
0.093343645
0.15941148
0.38416409
-0.064630389
-0.67804354
0.032538764
0.5917086
0.45496836
-0.32923481
-0.32825685
-0.36212996
-0.45075703
-0.80144632
0.42303324
-0.31790242
-0.57057196
0.45970941
0.22510047
0.3068969
0.54877436
-0.41824743
0.18107423
0.3327713
0.19075394
-0.54101312
0.35741457
-0.50383675
0.72805965
0.63304996
-0.31436673
-0.67798144
-0.61544913
0.052356616
0.060181554
0.53629017
-0.78882623
-0.18323426
0.069654509
0.38696894
-0.58593124
-0.061088774
0.44287464
0.44329813
-0.21683262
-0.23356993
0.34052417
0.20936055
0.011004959
-0.34615171
-0.0015369185
-0.19825342
-0.079451874
0.16340832
-0.29027668
0.23893499
0.030224888
-0.20200884
-0.6296401
-0.49465731
-0.020811761
0.047244217
-0.25231928
0.44365099
0.26120618
-0.15141903
0.46883687
0.10325669
-0.1003465
-0.048926584
-0.26172069
-0.19719526
0.27805799
-0.17880064
-0.14320019
0.24933811
0.053734604
0.072458923
-0.033503886
0.023711363
-0.52103323
0.17471935
0.0052333781
-0.072312817
-0.13067622
0.19472603
-0.1339466
-0.2056082
0.44697106
-0.32345822
0.028544784
0.16811316
0.3655608
-0.035510156
-0.26640323
0.12240672
0.1367957
0.31458879
0.083352186
0.1076493
-0.22879483
-0.14515762
-0.1703667
-0.095548704
-0.16811313
-0.096668296
-0.41463819
0.072439149
0.069815472
0.071591169
0.29167792
-0.18113045
0.20822449
-0.099519923
0.22028549
-0.47659004
-0.57896781
0.16056979
0.23384452
-0.0097617712
0.44473794
-0.4247776
0.31871933
-0.065948397
0.088332579
-0.24966766
-0.19464087
0.21405356
0.26460963
-0.35840309
0.041817646
0.36039025
-0.13667561
0.054765876
0.061817002
0.3316412
-0.40609339
-0.35390535
-0.32560202
0.077546477
0.23896874
0.35103309
-0.15932901
0.12421169
-0.25725347
-0.11736755
-0.14061892
-0.3104974
-0.246712
-0.10770052
-0.095947132
-0.038432904
-0.054563139
0.015679481
-0.26321113
0.15778139
-0.12770529
-0.30736718
-0.42943648
-0.23860526
0.16485278
0.099286646
-0.27653077
-0.19874988
0.66386187
-0.31403756
0.12150146
0.29142174
-0.12919644
-0.22658658
-0.097908273
0.098258942
-0.23866372
0.16224591
-0.56251442
-0.58483076
-0.023708809
0.16556092
-1.1041927
-0.54964197
-0.48897141
0.19522658
0.15776297
-0.082038581
-0.39176583
0.27878433
-0.24057721
-0.049499825
0.43860716
0.30324778
0.025617065
0.53519541
-0.5429799
0.15252499
-0.40693417
0.13289636
0.2333716
0.28640193
0.24611968
-0.80593741
-0.023630481
0.53314483
0.096605025
-0.021994414
-0.90501976
-0.11070179
0.12671116
0.029344231
0.039773732
0.012544238
0.030092472
-0.37959239
0.33800608
0.18788935
0.071861103
-0.23919731
0.15731899
-0.018188296
0.035607599
0.33245471
-0.65200174
0.3671301
0.053384025
0.2125334
0.082244501
-0.34595722
0.23041967
0.14636634
0.056483302
0.64623904
0.40958762
0.099705614
0.069403082
0.048328616
0.28138551
-0.18628703
-0.14887576
0.17874978
0.25054762
-0.097668901
0.21657439
-1.0534346
0.087632
0.39306644
0.1379161
-0.12065187
-0.24855898
0.0023790482
-0.29117748
-0.42492995
0.63682652
0.10828021
0.11397012
-0.44568837
0.31458747
0.53916258
0.35008192
-0.18076091
0.20724027
0.41009241
0.29948312
0.32892537
-0.40298635
0.80656755
0.49621627
0.057516243
-0.31373811
-0.35328305
0.00066442805
-0.42147711
-0.57815015
0.30854341
0.013717934
0.071528859
-0.44980633
-0.15301573
0.14147282
0.41038251
-0.4082191
0.01176029
0.068689436
-0.18335186
0.051434156
-0.4042193
0.17364553
-0.25810251
0.088515066
-0.44818088
-0.5375523
-0.27793255
-0.071881257
-0.17912365
0.54566282
0.0041110199
0.11269975
-0.29879093
0.093644746
1.0177414
0.079794757
-0.9701196
-0.14012323
0.0075855083
0.23035936
-0.19956204
-1.1870142
-0.081453279
-0.43206838
0.090058252
-0.18069991
-0.65425789
-0.17890163
0.24578455
-0.18409725
0.51507074
0.12053913
0.13023584
0.046661958
0.19863382
0.21525925
0.23164462
-0.84565973
0.05837502
-0.12183723
-0.016884824
0.076359801
-0.4426662
-0.051278558
-0.049331252
-0.027584305
0.13127284
-0.91930526
-0.36505842
0.04815409
0.25342202
0.18718098
-0.33594957
0.11838375
0.15853563
-0.35569432
0.18494274
0.17993805
-0.29489392
-0.016681651
-0.46465537
0.14991552
-0.52351624
-0.28170261
-0.25715047
-0.24486543
0.012712696
0.10085753
-0.52638721
-0.54824305
-0.14656666
-0.25481382
-0.13786335
-0.53676295
0.32732648
0.050523832
0.049115762
0.1861611
0.019284081
-0.35782164
0.12369984
-0.27694774
0.15123028
0.16680923
-0.43551058
-0.01077704
0.4350535
0.20036471
-0.10536879
-0.59806955
-0.9307813
-0.15252775
-0.19910114
0.4094944
0.2052467
-0.33421558
0.13240589
0.24043843
0.1113023
0.11076362
0.041197017
0.53425211
0.21646158
-0.052872486
0.35412529
0.028993949
-0.2384762
0.086599775
0.16992149
-0.10400598
-0.026401261
0.23050909
0.0047436883
-0.23259029
-0.31438631
-0.11542245
0.047456171
0.39624089
0.23611347
0.29444325
0.084796652
0.16509396
-0.028386502
0.025375528
0.15733315
0.29979798
0.46307468
-0.077189825
0.15393893
-0.27432323
-0.17173116
-0.13878872
0.10393069
-0.44894058
-0.00024862398
-0.20069979
-0.47304925
-0.14336765
0.10825331
0.29593539
0.0018313513
-0.17345405
0.16561206
-0.0021486524
0.12181998
0.29392284
0.063882358
0.056324396
0.41227964
0.035602864
-0.15767039
-0.23471546
-0.67746317
-0.43083039
0.092889942
-0.39846766
0.19051492
-0.12306738
-0.11481486
0.30259266
0.19424807
-0.049254064
0.24054372
-0.27080223
-0.29376343
-0.18291084
0.80184156
-0.24592312
-0.43062824
0.29775348
0.19378893
-0.044955768
0.0072060972
-0.51234668
-0.48426187
-0.36258617
0.1814798
0.14818059
-0.17780873
-0.13882063
-0.13573295
-0.21712485
0.13982143
-0.081394665
-0.064555898
-0.062881559
-0.29595873
0.072092116
-0.074207805
-0.19318628
0.11831291
-0.49581847
-0.33157438
-0.41678753
-0.073215932
-0.82066375
-0.021246461
-0.061566647
-0.32548076
-1.0295056
-0.87937284
-0.070891209
-0.20612288
-0.66467774
0.031553283
-0.5714224
-0.3769471
-1.1216944
0.032360796
0.03286029
-0.92928487
-0.22185194
0.26263583
-0.45677018
-0.56255174
-0.016094459
-0.43377566
-0.63531047
-0.51492983
0.47878364
-0.78351599
0.15829834
0.37990776
0.44973844
-0.0090201758
0.32289767
-0.9254452
0.091254018
-0.77454054
-0.13908619
0.15095636
-0.66294426
0.10520773
0.029539835
-0.47480792
-0.54772824
0.24925514
-0.19109607
0.65748781
-0.25749907
0.34696716
-0.80991173
-0.086516596
-0.025420351
-0.10499889
0.64941525
0.31174102
0.17745802
-0.44357479
0.016272794
-0.25297719
0.042189449
0.34545135
-0.79673833
0.22139753
0.47668943
-0.25256494
0.94801557
-0.73859656
0.60419452
-0.67744952
-0.098064199
-0.93029135
-0.068597935
-0.14362873
-0.056796741
-0.30962402
0.14393304
-0.075244643
0.0083019799
-0.92588919
-0.18793309
0.33118352
-0.40711638
-0.45392245
0.15035315
-0.10863145
-0.42921087
0.35159707
-0.094811998
0.3575871
0.032758053
-0.8700825
-1.0485162
0.2097898
-0.057535786
-0.12127962
-0.90407783
0.3899844
0.088532098
-0.19050261
-0.67049044
0.43026817
-0.36531177
-1.0056506
0.10650677
-0.19243866
-0.34274122
-0.19571212
-0.016151983
-0.22375524
0.87660015
0.47423634
0.22169158
-0.16818286
0.21805601
0.19323775
0.38059345
-0.5712294
0.28540194
0.25915098
-0.57314014
-0.13122003
0.16195792
-0.27503222
-1.0125734
0.1471718
0.26893035
0.02038121
0.18630549
-0.42872515
0.12669984
0.93762386
0.24300662
-0.6919595
-0.58857244
-0.062960528
0.01545442
0.075967588
-0.88350874
0.12375765
0.055509578
0.29072338
-0.58777827
0.2356932
-0.11444858
-1.4456445
-0.029009409
0.11319505
-0.66944945
0.38201499
-0.74594802
-0.092038319
1.0017327
-0.24771582
-0.44035056
-0.275913
-0.27468994
-0.13936134
-1.0136307
-0.98503184
0.11669145
0.61508197
0.91167289
-0.28746203
0.30433142
-0.17103969
-0.95129126
-0.085471191
-0.17422511
0.15387627
-0.39643225
-0.92301667
-0.75725824
0.72450674
-0.036398292
0.18214855
-0.069203742
-0.04914185
0.25676307
-0.34776589
0.097013526
-0.082619615
0.20472354
-0.14354089
0.31172621
0.47828084
0.04904687
-1.1603465
-0.28562868
0.20295706
0.01035567
0.32396898
-0.72629172
-0.61670822
0.55720055
-0.049936354
-0.58807164
-0.30494806
-0.25224966
0.32795334
-0.2708936
-0.44566521
0.75079226
-0.48612055
-0.25945011
-0.5502755
0.57890636
-0.385589
-1.2629929
0.08341486
-0.074433908
0.051887583
-0.48305467
-0.78562361
-0.82140738
0.12282519
-0.48618326
0.1636816
-0.39107952
-0.35091299
-0.1513852
-0.26046655
-0.41908619
-0.046692986
-0.52620649
0.21004181
-0.33148357
0.39952716
-0.0065503819
0.09453088
0.54455614
0.2491851
-0.34332702
0.2175729
0.14906631
0.0050538224
-0.020404456
0.12157251
-0.13681702
-0.22404435
-0.51488656
-0.041086681
-0.018022193
-0.57223415
0.35211968
0.0026929211
0.048114613
0.37636241
0.17442328
-0.78655756
0.5333147
0.22437979
-0.6109255
0.048694551
-0.21804643
-0.48000672
0.38952813
0.96834397
-0.011589378
0.41726673
0.68158424
-0.16054821
0.37965047
0.24305177
0.050686985
0.43322796
-0.18765317
-0.38091886
-0.22251838
0.14381528
-0.46644726
0.12314182
0.10540427
0.11480732
-0.39204481
0.28690282
0.1277189
-0.18350643
0.41825271
-0.22181673
0.10420343
0.5964064
0.0717813
-0.46124542
0.23041981
-0.22475691
0.097736947
-0.21692216
0.034683134
0.18651937
0.51124161
0.11239906
-0.039062981
-0.89896399
-0.17809589
0.099970676
-0.49209124
-0.033535425
0.030880837
-0.29320341
0.1082902
0.23426427
0.16938297
0.31706938
-0.48490256
-0.54832411
-1.5044289
-0.0087668849
-0.062746994
0.3952001
-0.25687248
0.32814649
-0.29870197
0.1437775
-0.3753705
-0.58658135
0.032291435
-0.22921619
-0.45740917
-0.12846135
0.51572365
0.61482704
0.38106081
1.394119
0.015911778
0.060552794
0.08649464
-0.078103513
0.18518953
-0.5370332
-0.23208036
0.94161862
0.063206591
-0.0015369952
1.4174075
0.35876492
0.23914123
0.04938259
0.060117971
0.29281551
-0.1544627
1.3356353
-0.10343023
-0.27477181
1.3663689
0.23790129
0.042868298
0.52442759
-1.0690676
-0.078169249
-1.1075734
0.025243634
-0.18821277
0.22943674
0.17704272
1.3516331
0.49445236
-0.22293751
0.1665823
-0.045679908
-0.70861012
0.11829284
0.4967736
-0.22257923
0.19204593
0.78256357
-0.30387926
-0.34741232
-0.054767646
-1.3980981
-0.096024148
-0.61532211
0.91887647
-0.41248429
0.96969932
-0.21004963
-0.30376014
-0.51779622
-1.5291938
0.13364378
-0.34243339
-1.2622205
-0.21043001
-0.065524034
-0.35297692
-0.12873007
0.60110253
0.41012266
1.040841
0.29230294
-0.19571269
-0.042120624
-0.62802786
0.3952674
0.0072280802
0.92976004
-0.41633195
-0.84620631
-0.085214563
-0.92234004
-0.13490514
-0.30886856
-0.53941101
0.050752297
0.45503667
0.19003993
0.38690251
0.1354395
0.34581891
0.58330691
0.31649566
-0.13960172
-0.2836667
-0.060547519
-0.026493398
0.9857071
0.012517212
-0.55473828
-0.26361117
-0.22474279
0.013720545
0.28037634
-0.26085758
0.35219339
0.07161162
0.31875008
0.47389755
-0.0032768832
-0.092381202
-0.22133641
-0.045676526
0.09837281
-0.23061675
0.50553942
-0.44634077
-0.35301143
0.13031003
0.41882262
-0.25543952
-0.22449957
-0.24324602
-0.31985104
0.013164864
-0.0014623664
-0.75792968
-0.097055614
-0.017778698
0.17154168
-0.10016399
0.087000996
0.093469039
0.10936651
-0.26555347
-0.27591634
0.32300943
-0.16872258
0.16146377
-0.070573993
0.1408948
-0.13837524
-0.35650542
-0.40534827
-0.78067654
0.002512448
-0.38003078
-0.57885879
-0.511913
0.30528152
0.077342778
-0.14795162
-0.23263782
-0.53438574
0.22882785
0.57700497
-0.35110572
-0.16787533
-0.013800198
0.29834229
0.16675062
-0.40824556
0.2399151
-0.39235863
-0.31259301
-0.14686987
0.26072469
-0.30991018
0.18514134
-0.30937088
0.59695739
-0.035551623
0.47058818
0.49466479
-0.3953419
0.065908387
0.53543895
-0.49719658
0.24199563
-0.31461471
0.10921019
0.30435395
0.0017299835
0.10940206
0.0012487179
-0.11017556
-0.031711332
-0.072715469
0.097820729
0.25770289
-0.0002428562
0.0017103709
0.21040362
0.40817949
-0.32955113
-0.52415532
-0.060270067
0.2910893
-0.58406532
-0.5006519
-0.58940601
-0.17221542
-0.00043748124
0.077479281
0.32465017
-0.30174047
-0.36117876
-0.01837373
0.022865821
-0.03557251
-0.1852494
0.31787139
-0.08183904
0.099830605
-0.41625002
0.52798927
0.032253176
0.097520508
-0.011101395
-0.18708065
-0.29608512
-0.045632415
0.7450211
0.16239664
-0.51039863
-0.67074442
0.41019318
0.022183161
-0.22731866
0.26269925
0.23140559
0.21229209
0.38421607
0.27918893
-0.28107071
0.18481915
0.059145465
0.13110641
0.19311631
0.16102789
-0.56582886
-0.13517106
0.10532235
-0.30074489
0.26675683
0.08188808
-0.09765432
0.16836797
0.39411083
0.041869756
0.41106638
-0.053257167
0.3417291
0.412406
0.20770867
-0.42117569
0.25590107
-0.58206999
0.53750712
0.32942721
-0.22025302
-0.22893609
0.086843401
0.26424575
0.24184132
-0.27936152
-0.35398671
0.29453537
-0.52226013
-0.34714395
-0.18695651
-0.25236979
-0.69478655
0.53306597
-0.19882849
-0.51111686
-0.03348048
-0.16036665
0.514768
0.4318226
0.10138661
-0.00089222315
0.1242142
-0.027897729
0.31144899
-0.90905863
0.03873359
0.08672516
0.0025712885
-0.0018649342
0.21443339
-0.5679161
0.072120182
-0.30755422
0.74113894
0.18994932
-0.81441909
0.1601433
-0.16824099
-0.74968249
0.105897
-0.34409931
-0.4107756
0.13367145
0.39547381
0.062751472
-0.10129526
0.32881531
0.13826817
0.13095079
0.1112657
-0.080982216
-0.046051234
0.055286799
0.4971101
0.49067047
0.21369629
-0.91690791
0.10983197
-0.14957562
0.19738519
0.44826201
-0.38427192
0.027685305
-0.9544161
0.1747423
-0.75369853
0.12405355
-0.20070438
-0.1273229
-0.56948698
-0.57959807
0.28131208
-0.12984756
-0.50155663
-0.62434357
-0.2443388
0.088917859
-0.38059852
0.43201059
-0.5696857
-0.6977039
-0.27549341
-0.44337171
-0.23744443
-0.89399719
-0.23429686
-0.1018913
-1.1250824
-0.85884947
0.49072695
-0.28207824
1.9250952
0.20119892
-0.35087401
0.35968012
-0.61414474
-0.68754905
0.46288469
-0.093291759
0.29948193
0.72294754
0.42629486
0.043221217
-0.26208118
-0.13266228
0.64738715
0.24113278
-0.25028038
0.53841549
0.38226607
-0.30150241
-0.36740685
0.88435763
-0.71250725
0.24750029
-0.27050751
0.6665377
0.52061492
0.59170097
-0.097053245
-0.65527779
-0.0035981387
-0.2421743
0.21441081
0.26954889
-0.71690345
0.091232948
0.18957482
-0.13679639
-0.64187115
-0.58908552
0.2725403
0.14376107
0.10272636
-0.34916124
0.34701279
-0.00011518007
-0.22951098
0.43364224
0.25497085
-0.83190441
0.18409096
0.33740658
0.095227756
-0.56740761
0.064915583
-0.13938563
-0.023381256
0.21050072
-0.43017003
-0.89790004
0.66919214
0.17765903
-0.27803344
0.079597943
0.39087576
0.86488742
-0.30333704
-0.41672164
-0.40533027
-0.10450716
-0.51268798
-0.023298716
-1.222101
0.069419682
-0.5708493
0.0070388922
-0.3002345
0.023622613
-0.57754886
-0.22429121
-0.054301575
0.052609991
-0.3356165
0.053686034
0.38122684
-0.45319983
0.1733311
-0.047183808
-0.11099005
0.43267834
-0.099684589
-0.23156589
0.27961999
0.093585715
0.28607404
0.23705615
-0.49556807
-0.093771324
-0.079716541
0.42487997
-0.59347546
-0.31175452
0.37948069
-0.084296681
0.59069335
-0.22009057
0.54063761
1.1153834
-0.0098022576
-0.23150244
0.086781636
-0.21570224
0.229258
0.15110554
-0.66545659
0.49569619
-0.095904917
0.0029642249
0.46529496
-0.80495107
-0.022263762
-0.0055300854
-0.81572521
0.33432475
0.04631253
-0.59131259
-0.59574145
-0.091110826
0.2757121
-0.21766505
-0.062709592
-0.059916809
-0.094101191
-0.21966319
0.133826
0.0014506384
0.1020072
0.048228405
-0.17654015
0.037018076
-0.48312113
0.076582029
0.035034534
-0.29516011
0.037953958
-0.22722813
0.31375563
-0.21365705
-0.26052478
0.6540755
0.42935583
0.10244791
0.030153086
-0.28368166
0.34399512
0.16442896
0.073394366
0.32804671
-0.019172417
0.24628562
-0.44339281
-0.17259429
0.36933634
-0.46133545
0.22463168
-0.67651266
-0.718481
-0.18986875
-0.065287158
0.069144487
-0.57899249
-0.31700969
-0.39932182
0.36957929
-0.3515079
-0.043681741
-0.23013848
-0.36560023
0.3016752
-0.15811394
0.61324805
-0.16343644
-0.20762213
-0.27393991
-0.21990173
0.53501344
0.15143217
-0.33247265
0.022283152
-0.23149654
0.26082647
0.0027262147
-0.50249457
-0.1872936
-0.10801271
0.11441477
0.49079981
0.2028161
-0.24500376
0.21616426
-0.2990354
-0.19442078
-0.032853417
-0.56018966
0.013716096
-0.60354012
0.062641136
-0.38968381
-0.42793107
0.27825245
0.2593441
0.023954324
0.34661686
-0.097857423
0.46325707
0.024162408
-0.33651176
0.095199294
0.94944614
0.035531614
0.44507629
-0.17366189
-0.61556387
-0.61110711
-0.14144759
0.22970891
0.31538588
0.28806514
-0.34137043
-0.73098832
0.41728288
-0.26631162
-0.026331069
-0.20240091
0.18424815
-0.13499485
-0.031019187
-0.20933002
-0.47663686
0.046945676
-0.5433147
-0.33079696
0.27499706
0.40665063
-0.37465939
0.24357368
-0.2081217
-0.19718717
-0.29624784
-0.36739755
-0.080507107
-0.091672406
-0.055821959
-0.068925746
0.10499708
0.19211133
-0.019867046
0.39664394
-0.27725786
-0.51087135
0.40437126
0.30947641
0.50653917
0.29808071
-0.31759292
0.085822642
-0.76168531
0.19204918
0.19714448
0.50198865
0.25048289
0.29187015
-0.0065168808
-0.14371109
-0.19813092
-0.66022635
0.52815378
-0.13391732
-0.073020026
-0.13821344
0.14988853
-0.24391469
0.67460263
0.10574793
-0.46463376
-0.43663633
-0.43622607
0.20816904
-0.10433752
0.75957805
-0.013996189
-0.1054713
-0.21513863
0.32380015
0.50269729
0.035547994
0.30183992
0.22054945
0.11510651
-0.42824247
-0.066138007
-0.63328314
0.057898369
-0.43846014
-0.53516579
0.15805668
0.56038994
-0.44170234
-0.23172174
-0.18073517
-0.046357945
0.36550552
-0.36274144
-0.2732484
-0.54319274
-0.0065522911
-0.4432795
-1.0259153
0.56038439
-0.077378601
0.001401694
0.21976671
-0.40902305
0.33731911
-0.054057185
0.20514296
-0.52830422
0.19815989
0.21581541
-0.74193776
0.16343479
-0.53819162
0.049121372
0.36954284
0.37211078
-0.22830519
-0.61782902
-0.20710567
-0.11844574
0.74399161
-0.25476807
-0.31755391
-0.61344075
-0.41402721
-0.0071393894
-0.50495011
0.69374686
-0.0076669641
0.0069837789
-0.084876575
-0.65706074
-0.11736764
-0.22613655
-0.34211835
0.44416797
-0.025187176
0.19663948
-0.16447346
-0.38445956
0.028925305
-0.57128417
-0.19304366
-0.50401586
-0.38639611
-1.479211
-0.41204897
-0.69958824
0.048271399
0.061915979
-0.42417428
-0.67618388
0.44657621
0.48766455
0.22403568
0.011510607
-0.25171334
0.45573968
0.24339123
-0.18221004
-0.0064543951
-0.55693674
0.01312021
0.44801062
-0.78700554
-0.56390327
-0.23137435
0.033479132
0.31246871
-0.34633821
-0.91068041
-1.2030972
-0.039422713
0.41955468
0.11787079
-0.45067257
0.12325377
-0.089690074
-0.35898298
0.28423283
0.48665366
-0.05085557
-0.52827543
0.017711889
-0.11971672
-0.05275654
-0.54193205
0.21833125
0.12860711
-0.71092117
-0.21628219
0.088016421
0.3561379
-0.1024344
-0.24587528
-0.10794161
0.15284316
0.084869117
-0.89128959
0.013903877
-0.13082278
0.022436759
-0.084955625
-0.022037091
-0.38247538
-0.28189054
0.1906029
-0.10805801
0.13493431
0.18927528
-0.3613348
0.18580167
-0.42980444
0.18248144
-0.17720965
-0.020182993
-0.12736584
0.091133542
0.06787616
-0.005051957
0.25118542
-0.13367835
0.85726339
0.61767697
-0.17305869
-0.27814314
-0.22256482
-0.2915732
-0.17741373
-0.17699163
-0.12375753
-0.0031335587
0.38002005
-0.25474638
0.22516742
-0.59871942
0.36980972
-0.062888145
0.12716684
-0.63037348
0.29040021
0.24310338
-0.23600806
-0.031433638
-0.36568549
0.17905746
0.11043958
0.3494665
0.16070001
-0.27933925
-0.041095976
-0.25044003
-0.10290328
-0.12732232
-0.45373607
-0.30018616
-0.088012598
-0.0013230982
0.35764706
-0.14798538
-0.3067846
0.68346721
0.0090545127
-0.097527377
0.74453562
-0.10069713
0.24205761
0.26909778
-0.31102243
0.60742444
-0.045270365
0.10488495
1.1509216
-0.21314503
0.23147471
-0.19926679
-0.41448149
-0.31710708
-0.17216076
0.22219187
0.19272864
0.46189621
0.73968321
-0.53849643
-0.53353757
0.026357748
0.19650064
0.12706916
-0.33413163
-0.066140153
0.19037046
-0.04965613
0.38677168
-0.29209384
0.19950257
0.57600701
0.013614243
0.48165116
0.2138001
0.047084831
-0.12595761
-0.087399632
-0.084422201
0.088127948
0.42673627
0.20738468
-0.68586266
0.1153269
-0.57061595
0.24890329
-0.089088216
-0.66180295
-0.30226436
0.32142621
-0.6146121
0.22675645
-0.17186026
0.047723137
0.033112224
-0.071187764
0.15305014
0.34539151
0.09114784
-0.66355097
-0.66169643
-0.16684334
0.32729989
0.10931125
0.26820156
0.050497979
0.47633731
-0.20145631
0.84073496
-0.17675401
0.0098499898
-0.30688107
-0.55165035
-0.57792491
-0.030717103
-0.18674469
-0.38051456
-0.29037416
-0.67317814
0.11347885
0.11868704
0.098662332
0.52818942
0.48435447
0.0053746235
-0.24880326
-0.37264472
0.62683719
-0.24936378
0.51659125
-0.13156599
-0.45928758
-0.019361332
0.55213165
0.31412932
0.07250908
0.15465857
-0.62018901
0.10692867
-0.17174967
-0.29078567
0.34339136
-0.096143089
0.53648627
0.076336585
-0.091383733
0.1401038
-0.07450854
0.27136177
0.053459033
-0.61823773
-0.062775418
0.093530774
0.2046807
0.097217359
-0.26636013
-0.19293557
-0.42049444
-0.35815084
-0.11917991
0.20921111
0.27319658
-0.88017964
0.50410503
0.4181335
-0.4033829
0.077203251
0.47418451
0.13927922
0.26159325
0.16525434
-0.38986897
0.037353344
0.11464592
0.29714945
0.82194465
0.10447285
0.09390676
0.10452493
-0.121178
0.37252495
0.74989802
0.27243632
0.26829952
0.40376928
0.75638092
-0.26668587
-0.65093851
-0.56690663
0.19628228
0.53267258
0.16086859
-0.48114374
0.052504223
-0.28215525
0.012775103
0.12689739
-0.44932258
0.30206865
-0.15606521
-0.35055438
-0.051442668
0.1028467
0.0033956366
-1.0099525
-0.36411083
0.28547001
-0.63714701
0.43569568
0.029868197
0.67531335
0.15738608
0.15309566
0.26326227
0.74197978
-1.2221321
-0.22773115
0.28163779
-0.36898497
0.24935862
0.10668456
-0.56222725
-1.1132802
0.87496555
-0.010604049
-0.71498162
0.39640296
-0.060962647
-0.99616516
1.3789451
-0.12992868
0.55366307
-0.49305058
0.25174594
0.082536608
0.92749137
-1.7999995
-0.37872928
-0.76411837
-0.12371624
-0.0028057508
-0.45614484
-0.69988936
-0.098279431
-0.00019015135
-0.036203153
-0.82873428
-0.58932501
0.10196548
-0.30132285
0.459656
0.066925213
0.20093651
-0.28642026
-0.033023447
0.12796779
-0.027616639
-0.71034133
0.36629805
0.17676234
0.36411184
0.60920805
-0.20713082
-0.77670729
0.65228623
0.44254565
-0.29456499
-0.3013851
-0.22336479
0.65462685
0.026173288
-0.39422643
-0.32184693
0.3120268
-0.18054272
-0.29576039
-0.17542098
0.13417126
-0.39341456
-0.21779689
-0.037521217
-0.12941021
0.6358338
0.039335441
0.36167687
-0.29121366
0.0095949387
0.44403246
-0.44338459
-0.25776488
0.59170443
0.038962495
-0.38126898
0.65154153
-0.35539228
0.14595273
0.04987615
0.1276167
-0.28847861
-0.7126078
-0.10674249
-0.18959549
0.33457136
0.54209149
-0.62881547
0.07678245
0.3795796
0.091808155
0.1981243
-0.90734589
0.040707421
0.16100103
-0.1094811
-0.29095963
-0.052898746
0.017796656
-0.3530347
-0.040581286
0.61237448
-0.264108
-0.40946972
-0.6541276
0.30105859
0.14123067
0.89765143
0.40281695
-0.45863396
-0.31722271
-0.16803832
0.23202877
-0.73179835
-0.64774168
0.073970564
-0.23304194
0.31990877
-0.076547168
-0.097462781
-0.36545989
-0.074245058
-0.22539666
-0.36655056
-0.035947446
-0.60041702
0.13168716
-0.30057946
0.24662401
-0.18898728
-0.73369724
0.22558728
0.46455482
0.056088202
-0.26327902
-0.25986043
-0.03829312
-0.2420398
0.049749877
-0.42485049
-0.15233728
-0.44592303
-0.045352492
0.064828955
-0.83637124
-0.45272025
-0.1736275
0.046408542
-0.023769625
0.4505285
-0.02386415
-0.41018167
-0.2673389
-0.15540431
-0.20332156
-0.16598098
-0.11947752
-0.10848141
0.09103445
0.13397487
-0.44210112
-0.16451195
-0.10733728
-0.25810125
0.20644297
-0.70320469
-0.55257726
-0.072933272
0.1110546
-0.014245421
-0.29711208
-0.10368443
0.010615722
-0.21490681
-0.20475157
0.1550892
-0.12516785
-0.2089548
0.42974406
-0.22136335
-0.35361481
-0.063548706
0.28831139
0.40530726
-0.31993034
0.043539219
-0.19702978
0.74494976
-0.66994369
0.46264222
-0.094795488
0.21295397
-0.056263868
-0.28213164
-0.29983565
0.62268293
-0.29531917
0.07988891
0.89230174
0.071054012
-0.27944383
0.080854699
-0.47301614
-0.43570575
0.66868538
0.049846698
0.35424581
0.23019122
-0.1730213
-0.080409206
0.58295804
0.11117326
0.032478541
-0.22712149
-0.50255919
-0.021235025
0.075383261
0.010796708
0.11810919
0.14780651
0.15070102
-0.0072291302
-0.11762201
-0.20841271
-0.051272295
0.029293539
-0.0066503384
-0.63464409
-0.10941227
-0.053434536
0.23535371
-0.17392971
0.077865362
-0.030705992
0.068964697
-0.36740655
0.37107554
0.46964705
0.50896806
0.079534963
-0.18027952
-0.23699529
0.24768955
0.49888107
-0.3103011
0.43105182
-0.40699735
0.17638268
-0.53665334
0.51339757
-0.10292187
-0.01447536
-0.44292417
-0.26516128
0.11663704
-0.31241736
-0.044752605
0.43903178
0.34903526
-0.10574785
-0.1646931
0.046814341
0.29254308
-0.065351881
-0.10193855
-0.18802489
0.072782658
-0.57110304
0.51870549
-0.15925629
0.76500249
-0.62248719
-0.62248665
-0.95640481
-0.48388872
0.061589424
0.23964836
-0.3957116
-0.70208061
-0.035250332
-0.10352467
-0.12028759
-0.36230579
0.3545346
-0.0099419132
0.45983511
-0.80631691
0.26087767
-0.035842363
-0.88324428
-0.31978041
0.53294617
-0.53539395
0.67483181
0.81677359
0.86792707
0.38812229
-0.45816329
-0.22828417
-0.91724581
0.13666372
-1.0286034
-0.35769516
-0.19129649
-0.10426632
-0.36949843
0.03204247
1.165864
0.89670897
0.23297274
-0.40081382
-0.80922085
1.0441266
0.57593811
-0.033978682
-1.1772243
0.12437036
0.16181029
0.23009643
0.57917595
-2.2314062
0.039446745
0.16593672
0.36530176
-0.032521494
0.23547806
0.037406918
2.30299
-0.38679373
-0.43922019
0.72280663
-0.23982643
-0.73564565
0.035819918
0.098634757
-0.58205807
0.050615557
1.1066489
-0.63970339
-0.54400808
0.67256016
-0.11132024
0.22361822
-0.60656196
-0.17855284
0.32342917
-0.70595402
0.13427845
0.44006401
0.50564182
0.17553377
0.3243444
-0.26483011
-0.30705354
-0.043623365
0.38417345
-1.0597886
-0.37987933
0.49368548
-0.23103817
0.36188999
0.5504064
-0.79229134
-0.23609352
-0.68918794
-0.073515631
-0.30422312
0.6081515
-0.1973118
-1.5115145
-0.039401218
-0.33391792
0.022570578
-0.30370179
-0.40644979
-0.19531439
-0.21455678
0.41307673
-0.22222485
-0.54504317
0.25906476
0.28828913
-0.610111
-1.4323745
0.10912363
0.036290761
-0.18129003
0.032778598
0.098401137
0.076101415
-0.93241882
-0.00033777385
-0.014373879
-0.13665836
-0.0008188684
-0.4029021
-0.65112525
0.55080211
-0.43285289
0.20953535
-0.25128043
0.060022794
0.24647592
-0.10034568
-0.31490293
-0.20346287
0.16609459
0.6654501
0.74902755
-0.35060358
-0.66739535
-0.62608242
-0.50601941
-0.1029345
0.1781593
0.20615315
-0.23267798
-0.62935394
0.78592741
-0.02157622
0.36389616
0.059023097
-0.29053578
0.54982424
0.015596578
0.42650601
-0.059331074
0.45719582
0.28513604
0.35375538
0.88410115
-0.14845328
-0.31216994
-0.49854788
-0.094076551
0.77935356
0.038723513
-0.97261846
-0.38901669
0.42421716
-0.037346579
0.1972196
-0.27908748
-0.016023228
0.026735859
-0.38820642
-0.457243
0.31835821
0.48423818
0.086716972
-0.28008765
-0.2778365
-0.20091568
-0.40172693
-0.38056356
-0.51177424
0.50479144
-0.097987011
0.044590008
-0.63664252
-0.074431241
0.050851211
0.024815371
0.075218916
0.040698074
0.043960333
0.49408746
0.14225127
-0.046000175
-0.45142302
0.13819215
0.62759441
0.4423497
0.7527613
0.093499452
0.0065966276
0.20840578
-0.080193125
-0.39938498
0.074563578
1.1072537
0.27570271
0.086670324
0.01409794
0.34342915
-0.17054006
-0.24847414
0.50754017
0.51717913
-0.23558234
0.031969197
0.38836294
0.55391496
-0.29989874
0.0068413881
0.18743065
-0.069256634
-0.11949319
-0.26140094
0.26352888
0.2600759
0.70646989
-0.164406
0.2897819
0.072669312
-0.46307054
-0.033096731
0.51793015
-0.14541981
-0.12536332
-0.301503
-0.16206522
0.32512152
0.67213285
-0.63325727
-0.22418776
-0.0004287069
-0.30027643
-0.16173793
-0.24884376
0.23048541
-0.058415722
0.69722635
-0.096092775
0.11960732
0.31278014
0.029570153
-0.31406546
0.04346827
0.11774148
-0.17133713
0.21671101
-0.063701801
-0.18938772
0.66204196
0.20761235
-0.10904498
-0.0092370063
0.016456626
-0.0055590528
0.21535106
-0.079196446
0.062441729
0.50684291
-0.6305685
0.35301524
0.75175083
0.93633699
0.24411413
0.56679684
-0.57459277
0.42329577
0.34738424
-0.3672573
-0.21690804
0.62648046
-0.46172744
0.49587852
0.63225526
0.040017609
-0.017928442
0.051767468
-0.70315593
0.73809761
0.26971442
-0.33593595
-0.27030566
0.055249244
-0.096112616
-0.31075215
-0.17378932
-0.96665883
-0.43083891
0.072812244
-0.79971558
-0.64130545
0.45352584
-0.13212545
0.34723026
0.34658661
-0.21475677
-0.24724297
-0.43051204
-0.53813523
0.55310416
-0.092374772
-0.91170114
0.016162505
0.52691394
-0.28136706
0.17382461
-0.36309516
0.21110922
0.17510876
-0.020438829
-0.98969913
-0.014696846
-0.22944087
-0.11486265
0.20093535
-0.02221255
0.039632503
-0.26062009
-0.40783691
-0.46016169
0.02592914
0.0078339642
-1.0821071
0.70807898
0.52097905
1.7355758
0.18675625
-0.026974009
0.39517263
1.0639635
0.44441664
-0.60507011
0.10063645
1.2707503
-0.032348614
-0.34494951
1.0537121
-0.14693981
0.30567837
-0.068872102
0.61893797
0.52242351
1.6409936
-0.66684037
-0.18996561
0.73478419
1.2306223
-0.1560472
0.1800417
0.31253126
0.43362719
-0.17281201
-0.91023934
-0.80623668
0.18254197
-0.20803276
-0.24512489
0.40286934
-0.14149758
-0.021678451
-0.28863707
0.15517581
0.61233693
0.11149336
-0.76058978
-0.7410838
-0.27538213
-0.052371498
-0.16856633
-0.28120822
-0.55077243
-0.075728804
-0.32817233
-0.26374185
-0.57033616
-0.11906756
-0.43083364
0.38942027
0.56467211
-0.24313651
0.079653956
-0.6746214
-0.60885
0.042814635
-0.18457742
-0.54555297
-0.478172
0.019395184
0.47462633
0.082067639
0.14870194
-0.36813122
0.18525021
-0.27994964
-0.0039746882
-0.80261278
0.34968811
-0.028170815
-0.068409413
0.91038507
-0.35047927
0.15192598
0.088124864
-0.82181704
0.27212477
-0.040817518
-0.57849157
0.36240423
0.20233853
0.71779525
0.14619701
0.5819658
0.69440722
0.12947442
-0.20770593
0.0050254441
-0.82044053
0.31691036
-0.30056468
0.16191654
0.67896664
0.36761126
0.15088126
-0.044539139
0.16458765
0.74240029
0.46387017
-0.50672919
0.44741771
0.073891155
0.11542083
-0.41162327
-0.48978621
0.34645343
-0.12573339
0.0084305536
-0.24398214
-0.44739932
-0.029450554
-0.25556517
0.22593258
0.14705585
-0.13949864
0.38564441
-0.38922599
-0.13726103
0.31001887
0.31226334
-0.25498974
0.2939316
-0.0973932
0.24920033
-0.25115246
-0.67827988
-0.17264038
-0.20713675
-0.46869147
-0.47995511
-0.3238804
-0.054632105
0.25209403
0.33486944
0.28505221
0.049176622
0.34243685
-0.51742041
0.19298643
0.34228307
0.0057142647
-0.11048954
0.099882387
-0.043373842
0.87423408
-0.25610963
-0.26926389
-0.022444967
0.15142734
-0.019978633
0.034717914
-0.53760946
0.12191281
0.13318889
0.22699839
0.22482142
0.082531944
-0.33836657
-0.06742955
-0.23567471
0.25621027
0.84470487
-0.35194376
0.25095618
0.078780033
-0.05815741
-0.40040103
0.2466549
0.37801349
0.24700487
-0.37006536
-0.15781525
0.33820426
-0.054470289
-0.38082489
0.28759873
-0.065306626
0.1950459
0.16926844
0.23436251
0.075648308
0.37914136
1.0473348
-0.48020169
0.075658247
0.22549273
-0.24255508
-0.27961376
0.10917486
-0.048518714
0.44305694
-0.0099739535
0.16725734
0.22981897
0.38903508
-0.80319607
-0.060727112
-0.040125377
0.31730002
0.01492714
0.086377241
-0.013300111
0.53565586
0.55156964
-0.33997425
0.18859942
0.056944381
0.41226259
-0.23506773
-0.07333076
-0.45675167
0.40221187
0.29952469
-0.1784025
0.035713073
-0.14449248
-0.028379157
-0.040404018
0.3884677
0.28922778
-0.15928157
0.6900785
-0.0038030024
0.93000233
0.5326761
-0.57836503
-0.045708276
0.21451575
0.017847747
0.019171549
-0.097092763
-0.045930408
0.35640252
-0.054392058
-0.21154395
-0.48917636
0.26615492
-0.42797023
0.35224715
0.15573879
-0.1447089
-0.12107344
-0.67703116
0.13642545
0.24467306
-0.4827562
0.13840534
-0.4543151
-0.28552887
-0.378602
0.027550256
-0.70295554
-0.54760581
0.17163634
-0.12098859
0.09751071
-0.31645277
-0.13092291
-0.12246213
0.26857999
-0.4016349
-0.43661559
-0.37026811
0.018689852
0.05182521
0.60641533
-0.41468555
-0.15243399
0.58504486
-0.5136047
-0.083724752
0.12989129
-0.085249744
1.0834471
-0.33820584
0.62265247
-0.21783596
-0.15165199
0.094213806
0.54965854
-0.37737316
-1.0589696
0.86340123
0.74767458
0.29129156
0.35752702
0.40268221
0.89019614
0.66652811
-0.61158663
-0.96118653
-1.3147745
0.04329583
-0.68597603
-1.3431227
0.24762797
-0.23892722
0.5573622
-0.7391122
-1.5389569
-0.13593718
0.63841051
-0.85648006
-0.84092021
-0.56318182
-0.082816519
-0.14092417
1.7504721
-0.63562518
-0.7442854
0.53974694
-0.19373862
-0.79170889
0.23448463
0.24130735
1.1021639
-0.53757596
0.26340106
0.76243997
-1.0456065
0.37892273
-0.06850142
0.7100234
-1.7401789
0.82532954
1.0929898
0.43074927
0.31950521
0.64013851
-0.60539216
0.44988251
-0.58865994
-0.26778111
-0.94986331
0.34130329
-0.21806349
-0.73297006
-0.18268524
-0.17295781
0.47562581
0.10626599
-0.095748723
-0.76111853
0.94419891
-1.1637206
-0.77894711
-0.22840834
0.31619993
-0.17390554
0.57774866
-0.70341927
-0.83797848
0.18360306
-0.040764641
-0.11842063
0.37678918
0.25901088
-0.034400988
-0.10395545
0.21703127
0.016653139
-1.0888299
-0.0089856368
0.27170604
0.22441618
-0.51639754
0.73095202
0.53305089
-0.058117244
0.10780596
0.57713938
-1.0303974
-0.20407189
-0.45071244
0.18427104
0.074986838
-0.32264978
0.27018595
-0.27005512
0.15611704
-0.022272015
0.2454596
0.11174327
-0.20701356
-0.52512753
-0.27256477
-0.12930621
0.11201578
-0.48525351
0.095303617
0.24490651
-0.14724225
-0.6261121
-0.40657058
-0.27154562
0.17337874
0.28865772
-0.41915756
-0.018880317
-0.35970202
0.21894938
-0.18703237
-0.240615
-0.10984908
0.38730222
-0.092340864
-0.067073949
0.11132901
-0.16437005
0.16579142
-0.49616691
-0.095807254
-0.015730018
-0.57958061
0.12104355
0.020818396
-0.0060474426
0.51302689
0.066511631
-0.044552218
-0.63110334
0.0042312085
0.50960803
-0.266514
0.58683324
0.34233773
0.38191709
-0.29686889
0.37106848
-0.29947039
0.15608136
0.16406684
-0.18711749
-0.2557275
0.40349913
-0.075452223
-0.019274743
-0.0063076001
0.35275504
0.022824006
0.063491106
-0.4296799
0.002212585
0.36536917
-0.24180074
-0.25242242
0.075139128
-0.0043107658
0.15632123
0.005850656
-0.35858795
0.023589548
0.21829981
-0.44234973
-0.18483372
0.05940735
-0.22370279
-0.062783644
-0.099448472
0.16675682
-0.42049003
-0.26966998
-0.03755644
0.055985231
0.068077698
-0.11603858
-0.25579667
-0.33948454
0.028485471
-0.093114726
0.1981231
0.17118832
0.21858944
0.18343996
0.15984145
-0.061965104
0.24206984
0.35321438
-0.28994319
0.49678403
-0.13171196
0.34490773
-0.46345606
-0.28445479
0.029252149
0.26354232
-0.21168639
0.40034211
0.35880008
0.11777535
-0.42340824
-0.12749717
-0.20511603
-0.24248618
0.045456793
-0.025956485
-0.61288077
0.16823196
0.34241778
0.47911504
-0.13123077
-0.55683786
-0.13748527
0.2695086
0.18599737
-0.090715267
0.17415692
-0.10770615
0.46523246
0.64263505
0.15212186
-0.28052595
0.72448015
0.46644938
-0.0055009578
0.10239064
-0.18915135
-0.86826468
0.11216547
0.20783354
0.02540043
0.18222985
0.19958466
0.29386854
-0.12084868
-0.29362434
0.90683031
0.046066944
-0.42732865
-0.31183302
0.30427834
-0.078748703
-0.57110322
-0.001067849
-0.13519982
-0.22703993
0.26163042
-0.63739657
-0.69605947
0.015373523
-0.41110733
0.12898728
0.34748232
0.86526275
-0.67617059
0.39630884
-1.1360517
1.0370791
0.20639105
-0.37238905
0.51158202
0.097900532
-0.28600278
-0.93120337
0.37908736
-0.065182284
0.46817517
0.19936185
-0.058291379
-0.77313304
-0.71257752
-1.1554723
0.55307543
-0.56355119
-0.23880905
-0.16819741
0.39233971
0.092402518
0.64918488
-0.08801765
-0.20391828
-0.4263941
0.79908532
-0.28569052
-0.30108541
0.65621799
-0.37268925
1.4368373
-0.041613106
0.20668627
-0.11880654
-1.1237812
-0.30070341
0.15476343
-0.40198493
-0.33943999
-0.031141125
0.23027027
-0.67506582
-0.30690411
0.017046459
0.5280177
-0.28027692
-0.20265251
-0.51178545
-0.022436889
0.83463955
0.11441056
0.17178981
0.18481635
0.69481343
1.4401811
-0.69355536
-1.3753607
0.090815105
-1.4091506
-0.2452752
0.13672295
0.31350645
-0.35926056
-0.28443375
0.52831835
0.83812046
-0.21403775
-0.19347547
-0.14365824
0.35734937
-0.3619329
-0.39317694
0.30860302
-0.42178795
0.71920925
0.33333519
-0.24861141
0.029828832
0.029105511
-0.89561588
-1.1204966
0.039188609
-0.065361671
-0.13735151
-0.066713825
0.68737811
0.82037753
0.60250181
-0.55944997
-0.44103134
0.44811845
-0.62303191
-0.1599267
-0.29692557
0.11107355
0.33052725
1.088017
-0.5878014
-0.1639939
-0.71991903
-0.799061
-0.72571957
0.39336449
-0.39935523
-1.1739194
-0.011651774
-0.16474403
0.2619155
-0.34710446
-1.3301551
-0.11025301
0.069024235
-0.67877614
0.061664242
-0.98496246
0.005406389
0.037311174
1.616289
-0.40644369
-0.46659246
0.00023784266
-0.076140851
-0.3169468
0.36691913
-0.16852267
-0.45210209
-0.34754953
-0.11129695
0.2565811
-0.34686464
-0.48965552
-0.48728135
0.36471578
-0.47480041
-0.11454616
0.46172497
-0.55704397
0.14129737
0.66132814
-0.83179659
-0.21283546
0.011053267
-0.47994447
-0.28124478
0.71941936
0.7242642
-0.66271359
-0.41485709
-0.043245457
-0.5753113
-0.32154828
-0.8912099
-0.21535841
0.7572028
0.0027401366
0.2806285
-0.36568433
-0.26062775
-0.038639661
0.39858851
-0.94116843
-0.3956061
0.56737542
0.07803686
-0.12303513
0.179921
0.19177052
-0.44373634
-0.2018514
-0.15070525
0.22305416
-0.723355
-0.46109211
0.17125134
-0.50570446
0.01341517
0.44185549
0.047193106
0.32950991
0.23936254
-0.17589332
-0.72452241
-0.23803538
0.031242788
0.017347429
0.35390258
-0.42307445
0.060652696
-0.30825394
0.17245238
-0.47827107
0.34670061
-0.54525805
-0.16923311
-0.55658579
0.028054919
0.42929262
0.30750686
0.22462864
0.12999596
-0.12989712
0.37166491
-0.62706578
-0.80320984
0.002188277
-0.45648882
0.5329212
-0.07030417
0.079424053
-0.7587834
0.05637417
0.13728346
0.55417806
-0.6708861
0.27028951
-0.52853459
-0.32617587
0.21172473
0.093824372
0.22426099
0.050907146
0.36354271
-0.0047037676
-0.028629029
-0.038646951
-0.21204986
-0.41853744
0.45178151
0.097992882
0.3537598
-0.56776816
0.41582784
0.10042629
-0.34022039
0.24204782
0.2565906
0.68903619
-0.032507818
0.023537859
0.61577636
0.14259902
0.30525726
-0.26275691
-0.00014181656
0.35061848
-0.30341396
-0.35761929
0.098033324
-0.7374754
-0.40678439
0.060096893
0.21040986
-0.027325401
-0.10323516
-0.73490936
-0.52680463
-0.81615627
0.19745904
-0.17243889
-0.24269396
-0.0033101344
0.25717998
-0.23297118
-0.16284119
-0.49710995
0.36819395
-0.33903363
-0.31539592
0.077847794
0.047185436
-0.21055438
0.23727842
0.51210111
-0.179104
0.27616149
-0.31906903
-0.50665575
-0.96070039
0.12064739
-0.0018180095
-0.017845308
0.19300336
0.20919253
0.19782996
-0.20899692
0.075837165
-0.018645421
0.28480452
-0.12783985
-0.47340754
0.14972012
-0.2896865
0.09487132
-0.22754169
-0.075800501
0.072468065
-0.14143012
-0.31500918
-0.46004885
0.35237342
-0.26721206
0.64575583
-0.28724009
0.12215918
0.062152918
0.12040775
-0.16623496
-0.12946248
0.024886394
-0.24914816
-0.46530065
0.044836607
-0.59097666
-0.26983079
0.14481503
0.045333311
0.44501215
-0.397118
-0.61452848
-0.30803135
0.26213756
-0.066347145
0.035455149
-0.51792449
0.11441747
-0.23194964
-0.4079228
-0.059377413
-0.12621912
-0.065143935
0.16059531
-0.63781363
0.39149639
0.044458125
-0.6178416
0.22708878
-0.43308502
-0.33022711
-0.38995123
-0.40823179
-0.30603468
-0.033476427
-0.30179313
0.6066348
0.18418993
-0.1314479
-0.27176401
-0.2775951
-0.29376233
-0.43154389
1.1793096
0.84925985
0.056806646
-0.35360938
-0.60194784
0.038578406
0.45410207
0.24260223
0.52186066
-0.41690409
0.30362022
0.35580432
-0.0626745
0.3672466
0.1440264
0.12688804
0.074359007
0.40365291
0.63541114
0.38110325
0.17561372
-0.26878542
-0.17698257
0.36755058
0.49708858
0.19496384
-0.29858366
0.041081306
0.59276539
-0.23321414
-0.24027878
0.11857121
0.19541636
-0.042057373
0.27940974
-0.92990804
0.10371184
0.29948378
0.18361928
0.11243373
-0.17203043
0.10075519
0.63507187
-0.12373384
-0.2147499
-0.50538081
0.026495062
0.32942393
0.064698935
-0.22087675
-0.085721985
0.37743413
0.15803038
0.75405061
-0.031177407
0.066805996
0.48200008
0.073868029
-0.46393746
-0.68697953
-0.052365307
0.24748574
0.39506194
0.10829144
0.26074284
0.19032621
-0.31238115
0.011938768
0.27598101
-0.00050193776
-0.14755541
-0.89796984
0.63491291
0.61620057
0.2269824
0.35130382
0.87051249
0.63568759
0.077400513
0.12479828
-0.21449055
0.41165212
-0.59010643
0.11187986
-0.27076167
-0.088887654
-0.0439572
0.12702796
0.29065195
0.27407932
-0.2972708
-0.067671284
-0.14824873
0.082038112
-0.68213022
-0.23323178
0.11384739
-0.060185645
0.70696926
0.42053226
0.18453854
-0.4822816
0.21896525
-0.33955014
-0.11439356
0.062175132
0.19906662
-0.38997349
0.12292428
-0.17860533
0.38494003
0.15541926
0.21752033
-0.5970037
-0.08439289
-0.36562914
-0.076092087
0.00051164138
-0.4183417
0.39161924
0.3103601
0.14238629
-0.5601055
0.77053475
-0.24296267
-0.062661693
-0.053102747
0.15619241
0.076069102
0.28886235
-0.56903243
-0.14320223
0.036375284
-0.13535893
-0.51874942
0.10717761
-0.72564614
-0.36681673
0.14866622
-0.15766135
0.21995316
0.048563734
0.24737404
-0.39150286
0.079240352
-0.14969265
-0.69618416
-0.087260894
-0.47044364
-0.055164814
0.51445782
-0.35439467
0.17273992
-0.23097837
-1.1794783
-0.12122276
-0.2157589
-0.27621973
-0.33340642
0.070457287
-0.19667432
0.30999747
0.16227606
-0.016689133
-0.82996798
-0.3002834
-0.52787489
-0.64594293
-0.3484163
-0.042381741
-0.20365445
0.23891334
-0.044088461
-0.30932406
0.36255863
-0.61775821
-0.26798469
0.29574051
0.089597233
-0.12485512
-0.30099991
-0.32716727
0.30800211
-0.12224695
0.091574885
0.065483689
-0.05061014
-0.23049271
-0.30486658
-0.3233231
-0.87731254
-0.51897305
-0.12590498
0.095014408
0.13594352
-0.50531965
-0.34015542
0.4284603
-0.23633972
-0.3578186
0.58726674
0.57190466
0.17472793
-0.069120415
0.47212422
0.20483668
-0.65485179
-0.24905886
-0.21622764
-0.31007686
-0.79330599
-0.90885156
-0.053220905
-0.73571128
-0.75410467
0.37275496
-0.30460909
0.02298169
-0.0054084705
-0.28904772
-1.0605643
0.18989114
-0.13257752
-0.64610338
0.2296512
0.37154165
-0.13563676
0.15894842
-0.20297578
-0.23888589
1.1649458
-0.5030362
-0.67322445
0.041970123
-0.1709459
-0.36203676
-0.014878002
-0.47763905
0.58144051
-0.028108267
-0.32289788
-0.78019661
-0.35770059
0.17467919
0.11688627
-0.078960344
0.33373699
-0.13946715
0.38699642
-0.25947478
0.064125709
0.1000567
-0.13078554
0.028685175
-0.26143327
-0.0045264331
-0.72499394
0.44980997
0.093744092
-0.22708498
-0.20513229
-0.68114913
-0.50771481
0.16742039
-0.16842867
0.25319517
0.29754248
0.16354336
0.66708082
0.41744521
0.30975494
0.019942539
0.1849017
-0.20902205
-0.64393371
0.0063787308
-0.19311374
-0.59925979
-0.053084515
-0.32782364
0.11883838
0.16811211
0.21342562
-0.50117147
0.21514314
0.10759824
-0.075369619
0.38942304
-0.17708899
0.62094039
0.089877926
-0.33365297
0.10207696
0.027173679
-0.43328601
-0.38557449
-0.099104933
-0.35466933
-0.67636639
0.40075392
-0.55863345
0.30892363
-0.27801624
-0.23345871
-0.84058994
0.2170731
0.20281118
-0.0098749772
-0.21725813
-0.19442582
0.80596375
-0.19162898
0.2743507
-0.32333738
0.61849803
-0.63111711
0.2041508
-0.53636408
-0.9716723
0.30265319
0.42651179
0.27758616
-0.89295059
0.13109951
-0.37935358
-0.33662871
0.32174981
0.294815
0.4654803
-0.038030066
0.25102198
1.3335229
0.23763512
0.58890206
-0.43298218
0.40952972
-0.76151651
0.54623801
-0.29089451
-0.95246392
-0.34727097
0.1510766
0.19235286
-0.56834924
0.13129294
0.33189544
-0.63526249
0.26770398
0.24668065
0.23291221
0.23807502
0.27468991
0.83615738
0.13037281
0.11339793
0.13004315
-0.057014912
-0.2354361
-0.012623097
-0.50005203
-0.641258
0.24779005
0.25427058
-1.0728658
-0.68558639
0.061808504
-0.032203048
-0.63637781
-0.35198784
-0.031161476
0.36213017
-0.29727769
0.14528231
0.86876631
0.30073908
0.27668577
-0.020415772
-0.049390472
0.13436401
0.31929573
0.020517953
-0.023593208
0.41771197
0.10794646
0.45837978
-0.24442972
0.24116984
0.030313585
0.074560694
0.7126087
0.35806346
0.066607542
0.39369154
-0.033104572
1.4128923
0.24575269
0.63122833
-0.57831007
-0.083638452
-0.46905869
0.13221939
-0.37191966
-0.44882667
0.18278633
-0.1497387
-0.80567253
0.029647395
-0.39948657
-0.0078049372
-0.32785213
-0.3400746
0.46057546
0.18586397
0.15372774
0.3639788
0.64848399
0.22664014
-0.067932658
-0.0071635535
-0.36482307
-0.6497522
-0.044747967
-0.11929663
0.16046801
0.082812101
-0.25859421
0.35578561
-0.0036216956
-0.58020067
0.030195417
0.017365597
-0.080484182
-0.032884687
0.41197231
0.090687938
-0.011433076
0.60978484
0.25689423
0.43109632
0.50391656
-0.15287161
0.10805144
0.016612943
0.013612473
-0.0031575477
0.041329712
0.20761377
-0.18210107
0.11544535
-0.1227605
0.43550897
-0.6272679
-0.044895455
0.14837477
0.2411246
-0.36853647
0.15483567
0.22403611
0.11699328
0.57761723
0.90129846
-0.052274045
-0.25904897
0.061634865
0.23021351
0.2454112
0.070070267
0.27648905
-0.45045486
-0.63883245
0.25565419
-0.080492698
-0.40064558
-0.42932159
0.21204787
0.29078129
0.44067141
-0.063178495
0.37033194
0.19378333
0.43357241
0.17921123
-0.092731819
0.013454164
-0.16659084
0.12864418
-0.29428053
0.35788009
0.16954434
0.26792607
0.052204311
-0.1452807
0.0065087723
-0.15873452
-0.69574195
0.071832523
0.0014306834
-0.0047989599
0.17944902
0.11773658
-0.16649275
0.1898299
0.4315986
0.32640108
-0.69155318
-0.026277879
0.18735829
0.1059588
0.19875945
0.46606699
-0.39139393
-0.02828826
-0.38280553
-0.17269842
-0.39692825
-0.55602127
-0.13286856
0.29216561
-0.0020227302
0.32701313
0.24881582
-0.39179116
-0.12760869
-0.20613064
0.61787045
0.32430199
0.091769986
-0.11736716
0.22011989
-0.13768519
-0.045687057
0.1756399
-0.34977308
-0.25556508
-0.26601735
0.062864646
-0.40044031
0.19408728
-0.32009816
-0.44208694
-0.074304603
-0.024667719
-0.088379867
0.24965282
-0.17911868
-0.99748415
0.23048721
-0.36892089
-0.23957905
0.16077958
-0.018329337
-0.31672341
-0.18053629
-0.49717224
-0.045078859
-0.065130934
0.75291073
-0.40054339
0.04837694
-0.21037555
-0.36693889
0.29433137
-0.1334613
-0.055467434
0.17137101
-0.3042416
-0.64500535
0.72617763
0.10116562
-0.12443502
-0.035519663
0.18504924
0.56320876
0.25485179
-0.47992483
-0.10482857
0.21169552
-0.064928547
0.14975782
0.32542405
-0.14900768
-0.019817084
-0.69360578
-0.31205067
0.37660205
0.015062002
-0.2923488
0.0040100985
0.95908725
0.71936071
-0.061447136
0.63359576
-0.2778993
0.53939533
0.71866632
0.028475769
0.091164567
-0.094613008
0.14973283
0.013985734
0.1650023
-0.34902424
-0.014268151
-0.3300817
0.3158651
0.16554318
0.29533243
-0.37035295
-0.37684682
0.74549466
-0.05791812
-0.65237564
-0.039639965
0.04659139
0.19381274
0.17819105
-1.2320644
-0.14921531
0.14121845
0.019715402
-0.44937557
0.15640971
0.13193524
-1.0030174
-0.55816036
-0.08927466
-0.012421701
0.029912865
-0.50184214
-0.82203656
1.0458378
0.31570432
-1.1440456
-0.3187837
0.0087405937
0.1885377
-0.62752044
-1.4419181
-0.22024935
0.11053392
0.47210595
-0.72640014
0.7417801
0.14022417
-1.6283302
-0.26592261
-0.51829046
0.15443105
-0.26574475
-0.59736091
0.088433497
0.86456347
0.94316101
0.66384727
0.14552474
0.060351402
0.9684968
0.56299186
0.156177
0.09389919
0.91835904
0.42556953
0.6990332
0.26756704
-0.2368219
-0.092255421
-0.4700883
-0.32150644
0.17854452
0.14803547
-0.31639013
0.32672697
1.8042618
0.43008155
0.39869976
0.24946183
-0.33361939
0.49571183
0.66146827
-0.41511908
-0.14500111
0.22684243
-0.043041121
0.63308871
0.046558328
0.1724159
-1.2702762
-0.31138676
0.32600269
0.18973452
0.34021258
-0.41037577
-0.41317192
0.43594342
-0.37205803
-0.048327878
-1.5848405
0.19416617
-0.075034514
-0.71438491
-1.1535923
0.2557613
-0.037553683
0.48560098
-0.88131052
0.69621575
-0.24257624
-1.5689039
-0.071609147
-0.19222479
-0.21724203
-0.022401173
-1.0751073
0.38488826
-0.47279531
0.27891383
0.069431581
-0.65920162
0.48629019
0.17708014
-0.22782886
0.41581506
-0.30166396
0.39547119
0.18835226
0.2669279
0.29813308
0.34477922
-0.13075365
-0.035536684
-0.39503041
-0.086803079
-0.36811653
-0.085459538
-0.96134824
0.25197855
0.026133502
0.55491215
0.17776385
-0.36670548
0.51090002
0.034043334
0.40181667
0.016688898
0.070974536
0.05964642
0.59412104
-0.24148698
-0.42235294
-0.43015409
0.071628287
-0.14859615
0.0761986
0.29645106
-0.04064887
0.061520088
0.37450415
-0.012422624
0.04410556
-0.069805406
0.058595411
0.42713675
-0.068551704
-0.31618884
-0.14811227
-0.35415724
-0.14761005
0.27075759
0.4248597
0.00021403172
-0.2778987
-0.014445108
-0.015225386
-0.14558971
0.21421647
-0.45140079
0.35270649
-0.29602078
0.38644007
-0.047848314
-0.14707032
0.23683766
0.028088816
-0.28771219
-0.20202923
-0.027917817
-0.22777782
0.066224284
-0.35257593
0.08927305
0.19031841
-0.12635152
-0.19038388
-0.11719254
-0.021256683
0.032745663
-0.2393546
-0.52906269
-0.097023875
-0.06768202
-0.097493805
-0.30331755
0.029213492
0.23804213
0.20300533
0.14147545
0.28700295
-0.27488846
0.076709569
0.021299239
0.23758431
-0.284087
-0.067306489
0.042806536
-0.22499788
0.19185251
-0.19367889
-0.023253623
-0.13904442
-0.36455616
-0.068090841
0.0018914304
0.097374871
-0.10226381
0.085169025
-0.1760647
-0.17004308
-0.22709119
0.20489287
0.10184043
0.22225536
-0.27252698
0.1210549
0.13666686
0.08974459
0.075749613
-0.11301214
-0.18351968
-0.56738394
-0.20448337
-0.35720122
-0.039834954
0.019028276
-0.51294613
-0.0080767507
0.25549406
-0.55273288
0.19233818
0.13782957
0.52074814
0.26774138
-0.19490568
0.12330353
0.21306202
-0.029608931
0.26512331
0.24365135
0.26091912
-0.21180482
-0.39178798
0.79106915
-0.40100503
-0.1641033
-0.56339377
-0.0045386241
-0.32469451
0.020288143
-0.57892764
0.65625495
0.053818259
0.24094675
0.14706625
-0.23889633
0.42654923
0.027838893
0.21340646
0.2653321
0.26365164
0.64154381
-0.3204098
-0.74943471
-0.079046629
-0.18121189
-0.62920773
-0.086780623
-0.13965097
0.02068736
0.1580369
-0.32587251
0.65257078
0.41296634
0.026498642
-0.23121223
-0.048483204
0.42894864
