0.047245204
0.31395259
0.019180963
0.020550916
-0.052238032
-0.38633972
-0.002979229
0.38134649
-0.3053872
0.7140516
-0.13273135
0.078131348
0.15963799
-0.43542278
0.051520344
-0.22373246
0.078786545
0.65632135
0.16625084
0.01586975
-0.28533998
0.45111996
0.25225672
0.24774452
-0.42276192
0.014268163
0.27416247
0.025110628
-0.054820944
-0.18870389
-0.013761224
0.3185395
-0.40737966
0.19954522
-0.19086255
0.30442494
-0.6346845
0.33160976
0.095300443
-0.023236487
-0.058522921
-0.1468098
-0.025591785
-0.54530364
0.238821
-0.75218219
0.095331579
-0.099413268
0.31455758
0.14602742
0.28636652
0.0025911732
0.21376358
-0.10558484
0.52444839
-0.59231901
0.13687778
-0.14896296
0.17960794
0.11421601
-0.0064766048
0.22474264
-0.34346691
-0.017078495
-0.13609375
-0.42358461
0.24514343
0.44552255
0.072314173
-0.37725398
-0.25376707
-0.015239132
-0.39560875
-0.5885058
-0.50835055
0.3295843
-0.094156466
-0.36161554
-0.20215158
0.020823775
0.43965104
0.085813746
-0.12667443
-0.31912979
-0.20807047
0.11137327
-0.53958911
-0.17233995
0.16923733
-0.1390993
-0.10176992
0.13729817
-0.066478066
-0.22374392
0.16387913
0.64204419
-0.1734298
-0.13926961
0.3643001
-0.40772459
-0.11278392
-0.33443448
-0.21837799
-0.0073169144
0.14616802
0.27831838
0.024250446
0.12641819
-0.30742517
0.37056062
-0.39137909
-0.38728052
0.72624952
0.14903593
0.43605939
-0.020219309
0.10878045
-0.21382749
-0.54935229
-0.098002352
0.3555086
0.009721946
0.45333669
-0.65869445
-0.067547157
-0.21641852
-1.0846909
-0.39598283
0.042713147
0.0081417169
0.49713156
-0.38424212
-0.1961019
-0.030175308
-0.26552942
0.063916132
-1.0391089
-0.96992594
-0.25473791
-0.47697604
-0.28000164
0.12636773
-0.43383342
0.45628133
-0.34740096
-0.26641366
-0.094996668
0.54202199
-0.14888699
0.24821584
-0.10017766
-0.071954846
-0.37279764
-0.56783724
0.077399403
-0.068406723
-0.068799742
0.08874888
-0.028263107
-0.4866347
-0.59429091
0.46044362
-0.29814816
-0.093755998
0.22503099
-0.23977236
-0.018151183
-0.40138364
0.028679807
-0.17722194
-0.29528525
0.14382422
0.24960452
-0.23129359
0.33847064
-0.20105602
0.044763081
0.17292503
-0.52644396
-0.2126722
0.64614248
-0.34008184
0.061909851
-0.14634894
0.46701732
0.34931561
-0.57891113
0.23817614
0.41937351
1.9772154
-0.53875744
-0.53031915
-0.44910195
-0.041942067
0.082499944
-0.53711557
-0.19085151
0.10465115
-0.068255782
-0.28280288
-0.82800967
-0.36694759
-0.70151186
-0.48115173
0.84432864
0.11714926
-0.31261709
-0.23526463
-0.20079601
-0.22253539
-0.028160602
0.25554028
0.26112109
-0.29795501
0.013956056
0.61708355
-0.46477789
-0.576015
0.31854144
-0.043919586
-0.15603454
-0.10266186
0.064886041
-0.2399784
-0.60196799
-0.051659591
-0.29706109
0.49716797
-0.13095555
-0.49183789
0.013143331
0.40582141
-0.031460192
0.2541424
-0.17211597
0.44466883
-0.23854361
0.18125343
-0.29794538
0.17105143
-0.095048219
-0.22867537
-0.23305765
-0.012441861
-0.42751616
-0.15901349
-0.071265824
-0.46900126
0.072489187
0.28755531
0.19386189
-0.36485189
0.091712773
-0.29047891
0.23671897
0.28754959
0.53981704
-0.22797863
-0.5808183
-0.1385196
0.28808066
0.040677641
0.11627033
0.27335227
-0.046534657
-0.15148918
0.304472
-0.11706514
-0.043022454
0.094677188
-0.51925832
-0.12777147
-0.28783789
0.51225376
0.098913252
0.11025929
-0.074701719
0.35655352
-0.3155047
-0.37509447
0.095222026
0.43807486
-0.71018457
-0.27341425
-0.076612927
-0.066326044
0.16230544
-0.57354665
-0.091094881
-0.61512595
-0.11714055
-0.084443428
0.034006871
-0.5824008
0.39016193
-0.17964147
-0.084324352
-0.023594046
0.013095524
0.49836123
-0.091954753
0.055532318
0.30488467
-0.29779184
-0.46221486
-0.046628173
0.09701097
0.40661287
-0.14081122
-0.097355135
-0.34045991
0.073292986
-0.19419348
0.35751101
-0.40677321
-0.153558
0.17029999
-0.018017901
0.34714398
0.18374316
0.022155289
-0.17933951
-0.16076614
0.11374547
0.13444091
-0.11906226
-0.12178811
-0.14781134
-0.20205593
-0.12445858
-0.07048478
-0.27385473
0.17732698
-0.091321222
-0.18707155
-0.082502127
-0.25595313
-0.20431443
0.23493007
-0.064798608
0.15041259
0.16119389
0.37323084
0.38314456
-0.079116702
0.0058124801
0.10696302
0.48859864
0.098150812
-0.10795907
0.10383669
-0.045434706
-0.0094649512
0.052230708
0.095113449
-0.085882075
0.21572675
-0.25749663
-0.082340807
-0.071346693
0.42417234
-0.048473783
0.0022104422
-0.10865099
0.13347346
-0.20688812
-0.16023351
0.0024510745
0.41488412
0.11714926
0.28159302
0.070201121
0.010986497
0.090868942
0.056785461
0.097583301
-0.18713732
0.24160764
-0.50361031
-0.29018971
0.11170302
0.16732085
-0.34584883
0.11681515
-0.40322322
0.20161603
0.42907164
-0.20706426
-0.28440818
-0.62303191
0.11042646
0.09549398
0.44209459
-0.12500146
-0.13675453
-0.10400161
0.07380785
-0.29693794
-0.0051410194
-0.25112221
0.40240023
-0.32676482
0.51537859
0.025844255
-0.048751727
0.61972982
0.26590806
0.30087513
0.20088747
-0.42211434
-0.12548025
0.014036548
-0.24388178
0.18705869
-0.13790199
0.10622864
-0.10006566
0.028830426
-0.1045609
0.099069081
0.81655574
-0.13601269
0.32646459
1.1323324
0.23316015
0.016151974
0.3566435
0.27695778
-0.066771373
-0.81912655
0.37586626
0.19853804
0.089608945
-0.072558254
0.70956653
0.48499438
0.21311194
-0.083425745
-0.44503632
-0.81221986
-0.26143703
-0.95621151
0.079262041
-0.23271917
-0.57225633
-0.089683682
-0.19423229
-0.49382192
-0.67725587
0.01088304
-0.057288151
0.29760513
0.14109521
-0.55778641
-0.18705183
-0.18518028
-0.86158711
-0.51638043
0.47941619
-0.076770067
0.035559669
-0.05418941
0.92386699
0.29291865
0.71734816
0.043750174
0.29004434
0.23095384
0.013721425
0.019498417
0.22809173
-0.28673398
0.27081156
-0.26105273
0.36550608
-0.026088094
-0.35206911
0.19735341
-0.57332093
0.087836884
0.01732746
0.031341031
-0.18025339
-0.2554355
0.93320984
0.44201881
0.86092937
-0.87406737
1.1963476
0.9178918
-0.31914395
-0.29628864
-0.40034744
-0.054242272
0.82112706
0.14763013
-0.5745278
0.40409398
0.0035914974
-0.32657266
0.0030426765
-0.12925749
-0.856875
0.020974817
0.37063703
0.18322366
0.041782413
-0.18587911
0.46140993
0.72561431
-0.80522811
-0.25017956
-0.64382589
-0.14328046
-0.21085
0.2909326
0.021037914
0.015708707
-0.37149069
0.2444922
-0.49894455
0.066289037
0.12412439
0.079840057
0.42016259
-0.70406502
-0.23693699
-0.3807655
-0.077469647
0.31476656
0.36999926
-0.10661551
-0.11751264
-0.074343488
0.054669425
0.02246289
-0.13592587
0.2161334
0.32354695
0.43277398
-0.15081973
-0.05405879
-0.029368699
-0.053540811
-0.30456045
-0.21335337
-0.5699808
-0.25248471
-0.30401322
-0.11145253
-0.0010380308
0.13185704
0.11741824
0.61211443
0.099850968
-0.098560616
-0.45133895
0.040382124
-0.036008563
-0.074038677
0.34589618
-0.60365194
0.10829886
-0.064956538
-0.36508244
0.12034932
-0.39379394
-0.041424017
0.16367027
0.048285738
0.26203188
-0.14193746
-0.30286884
0.073881738
-0.18987738
-0.083381124
-0.33434859
-0.13384847
0.12819287
0.14743075
0.0069274828
-0.059002146
-0.18652688
0.097145401
0.73408681
-0.1691792
-0.07056471
0.01875907
-0.2008366
0.078830466
-0.63419896
0.22731897
-0.058404423
-0.033004493
-0.13802081
-0.11885778
-0.36525407
-0.079736643
-0.53315997
0.019562297
-0.14175709
0.20093666
0.29841492
0.19540386
-0.23407783
-0.0096601117
-0.130303
-0.20615277
-0.35798565
-0.11298045
-0.061374214
0.15836993
0.19297372
-0.36878979
-0.051053274
-0.39285922
-0.18388212
-0.26133952
-0.29686427
-0.24632283
-0.40673539
-0.088325709
-0.031455252
-0.018222271
-0.43149489
-0.02602368
-0.14949968
0.16170831
-0.0084348992
-0.26415676
0.38793626
-0.10982761
-0.062186018
-0.29839751
0.37752047
0.06453459
-0.24247974
-0.40246192
-0.0075157653
-0.067439079
0.24718556
0.019146234
-0.20315246
-0.2827796
-0.47043955
-0.21881898
-0.50274515
0.28762591
-0.51755852
-0.47850725
-1.0522883
0.36243615
0.12376753
0.19712614
-0.10672164
0.3990396
0.19907749
0.12788823
0.0039056998
-0.10342936
0.035115939
0.054970823
-0.1058294
0.365464
0.013228336
-0.19685425
-0.22262028
-0.019386606
0.6507504
-0.46620044
-0.31265303
-0.71398824
0.57009733
0.14792727
-0.15715076
0.025440117
-0.3053982
-0.23008712
0.26178828
-0.12173449
0.13719112
-0.19531502
-0.08000312
-0.0064786295
0.55263472
-0.083286762
-0.33403614
-0.52845544
0.36268583
0.43993196
-0.38534352
-0.16995417
-0.09834604
0.31778002
-0.18788083
-0.30095059
-0.0067962068
-0.09340705
0.19641988
0.0084517077
-0.79201072
0.39937556
0.08393202
0.38670352
-0.45349646
-0.16512533
-0.4104329
-0.5677126
-0.71964663
0.48398903
-0.02772662
0.11228992
-0.43488532
-0.34949875
0.044547576
-0.29645407
-0.81505555
-1.1319833
-0.17018686
0.70513886
0.73620278
-0.34429309
0.64056671
0.4193286
-0.53882915
-0.64507723
0.022335332
0.15825452
-0.35090476
0.14205612
0.026981376
0.27201691
-0.28339881
0.40636593
-0.11696184
0.50111359
0.15299156
-0.78857386
0.33613354
0.091306113
0.54454875
-0.035771228
-0.56714606
0.22980011
0.2419651
-0.65534782
0.10726895
0.62648064
0.10026705
-0.79813683
-0.26554734
-0.11626632
0.44930008
0.091863811
-0.083398916
-0.35878149
0.17316857
0.014049866
-0.63944846
-0.070351087
-0.16924302
0.39159051
0.46211243
-0.69686049
0.33620155
0.55178022
-0.48174509
0.47706881
-0.1205459
0.050278731
-1.3164054
-1.5219295
0.62027711
0.02088595
-0.43126863
-0.1476545
1.7287301
-0.9613862
-0.51754075
0.030453259
-0.27263787
0.28678215
-0.16259627
-0.49273571
-0.80568087
0.5036003
0.025130074
-0.7440474
0.237792
0.25491154
-0.37489083
-1.4942153
-1.3607138
1.0977092
-0.21391587
0.53802156
-0.13048555
-1.3124933
-0.37541723
-0.81177479
1.0428551
-0.2492471
0.23919061
0.02064399
-0.80753392
1.082319
0.30810004
-0.37956536
-0.98641378
-0.28470156
-0.027037309
0.15012601
-0.80526
-0.43437842
0.76840341
-0.0072787856
0.4007827
-0.24717204
-1.2720685
-1.9428596
-0.44192496
-0.13529313
-0.11283224
0.17420685
0.065886825
-0.46541852
1.0665127
-0.046459138
0.22106893
-1.3567911
0.14011024
-0.075757541
-0.2038817
0.97036445
-0.23152685
0.25031471
0.081213847
-0.78543437
0.29601508
0.22713891
-0.26996177
-0.15947992
-0.5789941
0.22309163
0.0327015
-0.24124095
0.50413126
-0.48177743
0.23659343
0.17071198
-0.37189466
0.36055082
-0.2487506
0.33298284
0.59542125
-0.19066274
0.80850476
-0.43830878
-0.33343372
-0.37788451
-0.051307309
0.28910643
-0.079208031
0.019765526
0.11732869
0.25059336
-0.14561632
-0.27119216
-0.50917143
-8.8587884e-05
-0.20301206
-0.15084204
-0.44302297
-0.028350011
-0.1026617
-0.079580672
-0.19257177
0.21641256
0.079849556
0.10604428
-0.042068802
0.1586113
-0.44536346
-0.08798255
0.31937754
-0.16790903
0.090197943
-0.21166354
-0.085060842
0.15212525
-0.051130157
0.19320674
-1.0396721
-0.34562305
0.12523639
0.28584689
0.20640397
0.11637697
0.09840095
0.52189183
-0.33564067
-0.14021194
-0.26065877
-0.15115288
-0.051927004
-0.12896949
0.21511666
-0.15192083
0.29684231
-0.46511355
0.18068017
-0.29288438
0.012110532
-0.44632369
-0.26267368
-0.051082179
-0.11615263
0.14639823
0.056467257
-0.038594462
0.3363198
-0.18163621
-0.057955135
-0.11084632
-0.24839959
-0.29136905
-0.041142054
-0.0039919061
-0.090699553
-0.099486381
0.23532395
-0.19467022
0.29651392
0.045671299
-0.27270716
-0.20118068
-0.33501306
0.28057972
0.046109259
-0.12083374
0.30625236
-0.060519863
-0.16148044
0.33144367
-0.27728131
-0.070272364
0.2049683
0.19675855
0.19238508
-0.13159823
0.039065801
-0.18924792
0.097932257
0.38703719
-0.22920944
0.16586438
-0.1838049
-0.52372837
0.22583705
0.42352331
-0.25122005
-0.3146477
-0.27015087
-0.3197622
0.34599099
0.6617434
-0.11845121
-0.29643753
0.40821221
-0.88347685
0.42218599
0.21809512
0.36440492
0.41545814
-0.056776643
0.15295199
-0.36395875
0.3513585
0.050157055
0.14207648
0.0892497
0.040532611
-0.23742369
0.046717141
0.049387459
0.072438799
0.58409768
-0.51739591
-0.28521225
0.29645419
-0.25208899
-0.2538003
0.16985588
-0.19185661
0.33512384
0.14608724
-0.25226068
-0.03474864
0.23511457
-0.12275659
0.30894852
0.2249067
-0.061278861
0.52461964
-0.51029593
-0.057819385
0.47990969
0.39597875
-0.045041062
-0.071375035
0.58986777
-0.16608904
-0.19996347
-0.17990667
0.088125698
0.69449484
0.15167364
0.49002308
0.21814813
0.43046039
-0.61057085
-0.36864799
-0.24325685
-0.15212138
0.62839168
-0.060412187
0.46577683
0.83089191
1.3619118
-0.27929285
-0.077066235
-0.17727746
0.27278012
0.28281596
-0.12609048
0.02770013
0.11421901
0.22190298
-0.31298068
-0.41256148
0.07007686
-0.17771839
-0.053290322
-0.44588107
-0.070101343
0.27996084
-0.11136976
0.46391085
0.81550944
0.23128308
-0.44445741
0.19132368
-0.21763687
-0.4962531
-0.43481961
0.38337427
0.23453079
-0.85994929
0.1338871
0.11556873
-0.97160977
0.10282806
-0.38986108
-0.62502497
0.7638647
-0.6319533
-0.45606989
-0.091523819
-0.14648327
1.0593964
0.95968503
-0.89062089
-0.071358062
-0.17744601
-0.50472653
0.29106537
-0.18645667
0.036087096
0.64077574
-0.18725735
0.4672184
-0.7680425
-0.61837804
-0.41588849
0.25880733
-0.71228057
-0.077372566
-0.68179452
-0.1299205
0.34457567
0.15808742
0.63259953
0.39844376
-0.41520318
-1.3881681
-0.49477017
0.11477598
0.26729468
-0.093224838
-2.3509562
-0.42842117
0.057647675
0.022722151
0.049253747
0.057991959
-0.65537262
2.2902005
0.25740331
0.21871242
-0.22961928
0.2086626
-0.074761808
-2.9790785
-0.62535262
0.25809053
1.4971362
1.1944234
-0.2565394
-0.074359879
-0.30527252
3.0403781
-0.13480394
-0.10408971
0.93311197
-0.53014505
0.12254838
0.69199628
-2.0319717
-0.11088329
0.345817
0.025518499
0.20540284
0.33844259
-1.3809358
-0.0061513223
0.024515281
0.39344206
-0.43607965
-0.13980043
0.76211447
-0.67528045
1.1102879
-0.094520092
0.79922152
-0.063593544
0.36534679
0.43473294
0.71894962
-1.6152554
0.46865153
0.10001585
-0.025793565
0.39444369
0.74540854
-0.97684824
-0.27000985
-0.24860646
0.33872211
0.74965876
0.12741025
0.055902991
-0.022305306
0.12282395
-0.17277905
0.13338292
0.1607206
0.30279711
-0.29686993
0.67677701
0.69100159
0.33012187
0.12246515
0.011121227
-0.55953258
0.35389286
-0.10982067
-0.63576704
-0.024435276
-0.34086925
0.64379752
-0.35024467
-0.18050748
0.22440332
0.27119914
0.022638209
0.37043458
-0.33468145
0.10473991
-0.18803301
0.042670596
-0.12754446
0.56911236
-0.075188629
0.32811543
0.14260297
0.76141244
0.43492144
-0.6030162
-0.32985845
-0.32949072
-0.28862542
0.11802544
-0.090736233
0.57387584
0.1790812
-0.2326109
0.091106109
-0.11066873
0.16537082
-0.18670636
0.19634111
-0.14114
-0.047101721
0.27339834
-0.20138076
-0.10812961
-0.010149131
0.030475525
-0.32426122
0.51429713
-0.22438753
0.19346237
-0.37343237
-0.023999695
0.23343514
0.54759818
-0.34389585
0.10253255
0.1671467
-0.18273158
0.050628766
0.036616072
0.06974718
0.27540541
0.23065947
-0.099368103
0.57489085
0.097668201
0.22505151
0.1250426
0.24114996
0.069630258
-0.28880042
-0.21227431
0.027177334
0.19021805
-0.033025224
0.16349992
0.011967307
0.0024544427
-0.070579439
-0.36279035
0.30979276
0.40130323
-0.24262209
0.012836971
0.013692111
-0.3262164
0.58270657
0.41038838
-0.26405832
-0.032219965
-0.29472214
0.022030098
0.042391066
0.061847836
-0.18306465
-0.012090553
-0.10608929
0.28142989
-0.38533941
0.10011204
-0.019030852
0.023795653
0.055518501
-0.091871388
-0.13180682
0.13838349
0.036214188
-0.14239888
-0.94885772
-0.31421655
-0.087547697
-0.0044963951
-0.073727071
-0.06938006
-0.04792032
-0.25010529
-0.093318194
0.16860394
-0.047834001
0.091575339
0.12517342
0.027267218
-0.26826349
-0.20795356
0.14629312
-0.26343533
-0.06087628
-0.10795064
0.22961918
-0.30164081
-0.030908968
-0.2633945
0.16182883
-0.08489304
0.29729936
0.081225783
0.18084408
-0.051326707
0.24777487
0.15742856
-0.13020629
0.15081799
-0.10206489
-0.065353259
0.15333284
-0.12663753
0.083977751
0.098090731
-0.033429053
-0.14182422
0.11952613
-0.016106619
0.066807121
-0.19404833
0.18638493
-0.094170019
0.067430221
-0.19331409
0.029438628
0.12863563
0.1234009
0.056458026
0.34679306
-0.14734629
0.033538546
0.091667831
-0.066853315
0.16031048
-0.15887003
-0.13326354
-0.092028007
0.62844694
-0.058375001
0.095748447
-0.041577466
-0.072059914
0.038971022
0.029230682
0.010396845
0.13620776
0.28559512
0.49556163
-0.39029777
0.20288511
0.33565083
0.1392882
0.26473299
0.085546486
0.16163896
-0.11152197
0.2488016
-0.29793414
1.2807572
-0.072253689
-0.069277391
-0.054799754
-0.46578294
0.3418158
0.0080052437
-0.5616467
-0.090560623
0.047814287
-0.34216967
-0.40594497
-0.13441755
-0.20110218
-0.33256093
0.23727745
-0.51076984
-0.0018259406
-0.042069227
-0.34767491
-0.18059592
0.14997147
0.053455066
-0.29475397
-0.41556272
-1.0052019
0.38335857
-0.067715436
-0.0048627714
-0.73507911
-0.10701486
-0.092009582
-0.14762655
-0.29046839
0.17839232
-0.053573359
0.44728091
-1.0480781
0.11759616
0.17867056
0.03953658
0.1785291
1.0558686
-1.2978053
-0.41290057
0.4319163
0.57021219
0.23293348
-0.12706925
-0.81770939
-0.85836816
0.068665951
-0.53972101
-0.48577309
-0.34185401
-0.011684028
-0.81458151
-0.0028444021
1.5303489
0.52385998
0.083613612
-0.43824872
-1.4575113
3.7113278
0.59607649
-0.091376781
-0.90817302
-0.024878958
-0.34443414
-0.24547267
0.57166719
-1.2306068
-0.38069472
0.29240301
-0.14714637
0.012167147
0.30838779
0.031203324
2.3926339
0.053819679
-0.92753428
0.69571126
-0.07580249
-0.68495274
-0.68678927
0.67516613
-0.18948092
0.36267838
0.8043707
-0.33569938
-0.10313947
1.1030591
0.039643645
0.39563572
-0.26835221
0.33882821
0.21300748
0.033495404
0.62966114
-0.39195758
0.20056069
-0.0863114
0.21819116
-0.23654769
-0.2789737
-0.34644908
0.7987324
-0.690723
0.021954088
0.3500478
-0.15102792
0.61786425
0.31608739
-0.25680718
0.00075047358
-0.73329908
0.17709334
-0.084051855
0.36178857
-0.15574333
-1.2604877
-0.55121988
0.028345397
0.072120473
0.063418567
-0.6068632
-0.84969574
0.5527547
0.32154283
-0.23979044
-0.32141039
0.14312485
0.46738613
-0.19974828
-1.2809272
-0.13090506
0.13166688
-0.060409155
-0.042267721
0.30136946
-0.10426762
-0.98942888
-0.021932073
-0.20958212
-0.10604868
-0.1532401
-0.53497118
-1.2318548
0.47507745
-0.03969295
0.50421101
-0.022040099
-0.024701523
-0.14600696
0.08199808
-0.21808389
-0.23001748
-0.22898208
0.48833698
0.41587144
0.32408935
-0.11898028
-0.24752918
-0.21634732
-0.32940203
-0.087523744
-0.016881714
-0.0039533209
-0.42029876
0.59356934
0.15101217
0.021426637
0.20133185
-0.11664538
0.32856023
0.1264578
-0.11161413
-0.012304296
0.31228992
0.57733959
0.62916386
0.63074082
-0.17268522
-0.27442241
0.43146467
-0.08001139
0.075641684
0.30108091
-0.70404166
0.086417608
0.64524943
-0.16470839
0.042979699
-0.19034377
0.25934944
0.40506092
-0.1111938
-0.20868923
0.27394894
0.31738651
0.37967443
-0.11772127
0.281398
0.0030615146
-0.39282233
-0.2685582
-0.49424359
0.40929964
-0.23993568
-0.57981259
-0.33326396
-0.082335785
0.1656636
0.018679809
-0.057408806
0.12198831
-0.048116986
0.25499305
0.2716181
-0.40093502
0.14709921
-0.22916105
-0.39224225
0.057231072
0.28065503
-0.10205428
-0.036048289
-0.10799543
-0.39128453
0.15954125
-0.12638447
-0.29899171
0.014503703
-0.069516361
-0.10176717
0.0094842091
0.1200543
0.1187118
0.065467
-0.081242383
0.15052056
-0.087943777
-0.07016664
-0.34194613
-0.23369151
0.18972065
-0.14761533
-0.022816924
0.087747976
-0.35529327
0.094465479
-0.17576885
-0.087901808
0.00088708359
-0.0077506243
0.010057611
-0.41194531
-0.20301765
-0.21950054
0.11991492
0.19536074
-0.19038074
-0.24125712
0.4710542
-0.0023386064
0.39600855
-0.10785059
0.29805824
0.27968824
-0.4252204
-0.11154582
-0.069231763
-0.01209951
-0.24945122
0.22442289
-0.084317647
-0.0038068488
-0.44640645
0.20353363
-0.18079241
-0.15439899
-0.21161409
0.021286469
0.18579853
0.10639586
-0.39362812
0.057204723
0.024689808
0.17394955
0.087300591
0.29430357
-0.014309102
0.022678787
-0.23471889
-0.36157751
0.50133759
-0.15705831
-0.39897612
-0.54156208
0.22023915
0.28804454
0.12086697
-0.1810455
-0.025053948
-0.016446918
0.088392079
-0.096133202
0.049953278
0.19067423
-0.044879247
-0.12346257
-0.21220353
0.058403224
0.22526185
0.20438626
0.034179572
0.51370424
0.20440653
0.14078203
0.2040325
-0.33913386
-0.28927845
0.62372875
-0.41374704
-0.02083499
-0.1187618
-0.043291688
-0.15476061
0.11342734
-0.49561143
0.55162251
0.42076373
0.14554422
-0.13610774
0.29057741
-0.0067954827
0.2062497
0.5685336
-0.31367263
-0.66904783
-0.43326378
0.084950268
0.15895717
-0.23917474
-0.47335237
-0.50740862
0.30281851
-0.51206547
-0.12781428
0.62508631
0.34301278
-1.0500164
-0.41467547
-0.36485994
-0.082916692
-0.17038493
-0.63984567
-0.37980431
0.074142627
1.0593894
1.0798186
1.3643746
-0.70054299
-0.15630612
1.3853387
-0.76172584
0.2735424
-0.61265981
1.2191763
1.0679746
-0.56428796
-0.23607683
1.8869573
1.996974
-0.19898558
0.25994039
-0.19160542
-0.99812508
0.04166963
0.47670019
-0.74220353
0.14989339
-0.67891747
-0.26934984
-0.31123418
-0.62369174
0.45238447
-0.37991646
0.010993914
0.11577147
-0.74673146
0.31488517
0.23652354
-0.62734908
-1.1437943
-1.1630963
-0.29733068
-0.92703533
-0.082143471
-0.48842233
0.22945808
0.75109267
0.60611999
0.59085637
-0.31685498
0.15140733
0.84812367
0.32514986
0.35260767
-0.08860518
0.70997369
0.52492595
-0.25676697
-0.2693387
0.14450176
1.1277775
0.64990759
0.32457057
0.44593498
-0.52131373
0.29082128
0.58450836
-0.095379561
-0.22093816
-0.74863774
0.1305162
0.29150215
0.18504822
-0.019866964
0.10971057
-0.24420205
0.39974958
-0.65984422
0.026860222
-0.10800542
-0.36595932
-0.74446213
-0.23241751
-0.10065863
-0.057490099
0.14992115
-0.5032196
0.25009963
0.089001007
0.37281913
-0.44951141
-0.024899069
0.54243547
-0.22354537
0.030024253
0.17634656
0.56544
0.32678354
0.053998467
-0.28889877
0.33176792
0.2692956
-0.010619838
-0.40340671
0.24622339
0.14420842
0.20896369
-0.1978565
0.26950753
0.31214705
0.028489193
-0.24581921
-0.18400696
-0.010200678
0.55962735
-0.21870185
0.16739324
0.37987831
0.42244741
0.13567398
-0.07631772
-0.060838725
0.23625322
0.055060729
-0.16422491
0.021914769
0.30797935
0.1514422
0.43145895
0.29193258
0.21466675
-0.020067003
-0.32354435
-0.050534666
-0.23402877
-0.44007048
0.055525541
-0.37376407
0.095374905
-0.013825987
0.08452969
0.17542422
0.23916517
0.076034375
-0.19378726
-0.29236004
-0.10359337
-0.29086694
-0.098857239
-0.27029392
0.28049976
0.1983293
-0.1091304
-0.15894359
-0.037897311
-0.23078561
0.21751301
0.19618289
0.21013917
0.17076163
0.25219893
0.21265264
0.065659814
0.058133598
0.1016063
-0.012001243
-0.02215118
-0.058453061
-0.14513077
-0.39923659
0.15388614
0.085133001
0.20387359
-0.25424498
0.25312176
-0.13610694
-0.10538251
-0.65693122
-0.11233817
0.26029289
0.36281857
-0.091099784
-0.19468762
-0.13086671
0.12001786
0.15110376
0.095237888
-0.59139174
-0.27155727
0.01959946
0.056523766
0.078526914
-0.020094465
-0.051874403
-0.14576501
0.14666507
0.23226553
-0.21548556
0.13753766
-0.089056969
-0.15537763
0.07556019
0.17739159
-0.168172
0.003373032
0.031619817
0.12412697
0.10459702
-0.30961436
-0.35687041
-0.054941438
-0.017737713
-0.089011379
-0.21761641
0.36701989
-0.27905297
0.92110807
-0.47079864
-0.12669718
0.10439175
0.22130986
0.014280686
-0.1998256
-0.2450738
0.30424324
-0.44381982
0.29783651
0.33971363
0.33443591
0.48421898
0.15084831
0.042032428
0.6244489
-0.035598323
0.020977939
-0.53461087
-0.08346989
0.1470432
-0.35169449
-0.49642006
-0.10550953
-0.37625223
0.0011184603
-0.0097076781
0.32797283
-0.25151414
-0.40861586
0.060742524
0.035321075
-0.060740847
-0.067055836
-0.075301029
-0.16996999
0.17119512
-0.22429305
0.28500718
-0.11132103
-0.20922989
-0.08061453
0.0093196323
-0.47374463
-0.013426928
0.10357418
-0.10533748
0.43837559
0.76509744
-0.79384494
-0.46601093
0.16502188
0.95106131
-0.5822745
-0.43887112
-0.099273771
-0.41030389
-0.039164048
-0.54354519
0.5408783
0.0046830098
-0.30100799
0.61499041
-0.68035048
0.047739901
0.4951362
0.71158373
-0.37346131
0.73179233
-0.33462861
0.7423408
0.015082481
0.042589951
1.4147544
0.42124671
-0.5410831
0.23497742
0.28839251
0.83727992
-0.15736105
0.95964795
0.43530086
-0.4178068
0.52570808
0.29975173
0.29504466
0.96166003
0.12955514
0.36425704
1.1856899
2.033735
-0.1081282
0.307679
0.7769649
-1.88615
0.94692767
1.4315388
0.022838164
0.89719069
1.2450405
-0.16724412
-1.1628348
-0.34372735
-0.49966556
0.71769452
-0.23823889
-0.21162963
0.55064386
0.27349451
0.17857948
-0.3039875
-1.104594
0.11000489
-0.31018263
-0.69882619
0.48595619
0.7508238
0.7499786
0.057741344
-0.31918573
-0.20722692
-1.0634176
0.021997664
-0.27183878
0.22146966
-0.059265058
-0.069048479
-0.18864125
0.49948847
-0.080781706
0.2135663
0.3777675
0.11945672
1.1543291
-0.0067852885
-0.30028683
0.21775915
0.59714061
-0.25410625
-0.081433401
0.18078594
-0.3927401
0.66413081
0.25395671
0.077628836
-0.20119697
-0.54379296
0.16613871
-0.10403682
-0.084943749
0.18044068
-0.23137216
0.45175415
0.55349559
-0.98738158
-0.4129478
0.34623432
-0.23639865
-0.87038052
-0.66763157
0.028349718
0.037652902
-0.43763781
-0.11468054
-0.39194158
0.14952943
-0.21154961
0.41682988
-0.029840762
-0.046799857
0.27121338
0.34728396
0.23488422
-0.063172221
0.050156061
0.22396676
-0.10797915
-0.18373315
0.12469208
0.33562681
0.4114247
-0.291646
0.54674965
-0.11525287
-0.19366235
-0.032409802
0.22212163
-0.63331258
-0.16405039
-0.17358971
-0.09161143
-0.27682588
-0.10203229
0.064465307
0.5278163
0.04696621
-0.28954753
-0.24953122
-0.23504139
0.34659037
-0.18957897
0.29635438
-0.19124192
-0.21727882
0.028942967
-0.044517916
0.049660645
0.42133212
0.39118898
-0.025815396
0.2574566
-0.29968905
-0.12322393
0.056318048
-0.27229047
0.034110889
0.039306909
0.36293977
-0.073884435
-0.18629126
-0.036985159
-0.31154388
0.18775922
0.14009354
0.37628302
0.34877926
0.028566217
-0.028911052
-0.079823069
-0.074424542
-0.31857151
-0.22781612
0.096046537
-0.02115114
-0.32281008
-0.091777921
0.038176939
0.018247411
0.15189539
-0.53437507
0.12426116
0.02515734
0.061751127
0.24872024
0.20512575
0.039498545
0.45004427
0.50550681
-0.260952
-0.49704379
-0.16560179
-0.11766595
-0.066556856
0.28308383
0.21091413
-0.46574065
-0.71988016
0.14908165
0.40808827
0.41563708
-0.15638787
-0.22024275
-0.072471678
-0.015161291
-0.079563886
0.40558779
0.20152272
0.22161219
0.0096030626
-0.33755726
-0.30884278
0.11731976
0.086644597
-0.31386083
-0.079840198
0.046600975
-0.13035277
0.22628833
-0.14258832
-0.33599123
0.10828694
-0.30191898
-0.027816055
-0.099281654
0.22928968
0.38017207
0.3588303
-0.13326272
0.46874294
-0.42617878
-0.15782444
-0.16480833
0.013731746
0.21313964
-0.05656673
0.062671885
-0.46997446
0.28297922
-0.28391969
0.37165436
-0.87076688
0.13385651
0.04591886
-0.13814691
-0.21124864
0.40737185
0.058814403
0.17200877
-0.034900542
-0.05252951
-0.22337846
-0.50632757
0.01362075
0.13688299
0.29494527
-0.058470219
0.38521856
0.023638628
0.50874865
-0.30129427
-0.60034919
-0.46386701
-0.19293986
0.40511823
0.49350733
-0.17821328
0.4451862
0.095973432
0.037573569
-0.10241783
-0.12387717
0.28388628
-0.048044026
-0.23685606
0.22426967
0.12723349
-0.57842344
-0.0081639746
-0.40550801
0.32048804
0.0019115597
-0.29715112
-0.069484249
-0.34841466
-0.031018985
-0.0729784
-0.13001995
-0.28654131
0.64530504
0.14254953
0.10060227
-0.56142169
-0.28051195
-0.51312745
-0.020211231
-0.22266668
0.15228058
-0.23945567
0.46420997
-0.42339981
0.66116369
0.067510709
-0.53130877
-0.54229033
0.20492333
0.44326022
-0.025571341
-0.16710968
0.2429091
0.71864265
-0.086038537
0.53947991
0.2868897
-0.19892627
-0.37796345
0.32357612
-0.024188209
-0.91880137
-0.13344447
0.064653955
0.1404182
-0.4519513
0.18798837
-0.034105912
-0.49644899
-0.31193271
-0.17996104
-0.096588045
0.29695213
0.016798075
0.44491655
-0.07877706
0.10155386
0.48540515
-0.44502053
-0.22892098
-0.34265548
0.20588201
-0.53092265
0.13147916
0.038134698
-0.59810746
-0.78245515
0.091920741
-0.31022874
-0.18909363
-0.26914167
0.13643824
-0.038196605
0.083954051
-0.048506074
0.19037315
0.44547138
0.38202623
0.35049048
-0.056149136
-0.42988932
0.36530906
-0.20216684
-0.8844226
-0.1648107
0.28654855
0.7214157
-0.80150485
0.18309912
0.46428689
-0.43621728
-0.091745824
0.052779201
0.038514148
-1.6346989
1.0543503
0.76495719
0.5796302
0.05991951
0.86046922
-0.48141938
0.19313283
-0.067466035
-0.75350666
-0.96367049
-0.0043208306
0.14327727
0.16023558
0.03229434
-0.35205135
0.44325027
-0.14216906
-0.78687221
-0.25677288
0.58380985
-0.48207429
-0.55014831
-0.31945252
0.42183918
0.20393778
0.88090128
-0.026707713
-0.80073863
0.62364215
0.18972854
-0.12904765
-0.14068817
0.35835063
0.48507252
-0.62439305
-0.33123866
0.17646937
-0.26409173
0.088027321
0.19254279
-0.37143999
-0.58278424
0.64088058
0.98372149
0.44991592
0.14443058
0.17296961
-0.38278532
0.68696928
-0.61888355
-0.3558003
-0.26140803
0.016007168
-0.26788333
-0.52522349
0.095870525
-0.24843408
-0.053938184
0.055531099
-0.16831526
0.21629995
0.44141331
-0.772533
-0.87140089
-0.081092387
-0.26934868
-0.023877323
0.69113249
-0.12797056
-0.27387241
0.045595527
0.51275957
0.35807812
-0.3028689
0.17814584
0.33621404
-0.22728872
0.22972105
-0.34230965
-0.03985301
0.51645589
0.15592456
-0.23555556
0.13983127
0.46803775
0.48845094
0.023892175
0.14005031
0.28475446
0.17817999
-0.11994971
-0.44845018
0.030084921
-0.38070044
-0.29482317
-0.30351171
-0.44012979
0.60017186
-0.23604429
-0.12858197
-0.18896756
-0.09545029
0.34485802
0.51801777
-0.56685799
0.22279038
-0.10428093
0.069202773
-0.14384326
0.30407625
-0.31336841
-0.46862599
-0.197705
0.36488348
-0.31256378
-0.20832162
0.17175071
-0.20579919
0.24119954
0.30694234
-0.045091279
-0.39399073
0.37064952
-0.052357856
-0.30365437
0.25453994
0.073080517
0.30498293
0.21226348
0.24218646
-0.1241139
0.29419819
-0.5008983
-0.035458431
-0.020554468
-0.014579826
-0.24485825
0.32623762
-0.43543404
0.070126414
0.037166927
-0.13376808
-0.18243961
-0.22402759
-0.078395307
0.22979282
-0.24383971
0.15039317
0.16884466
-0.026010577
-0.00020022289
0.10222895
-0.32668146
-0.19476196
0.17879465
0.15266681
-0.11974925
-0.0054884129
0.28428352
-0.034789298
-0.017486155
-0.18757139
-0.17368463
0.3588101
0.21147306
0.055098921
0.086931475
0.22766387
0.36583909
-0.13628238
0.063644595
-0.093202434
-0.38759646
-0.1287957
-0.34681624
0.040276103
-0.42991549
-0.1578114
-0.13730545
0.50575721
0.41805246
-0.038983244
0.11757159
-0.27290249
0.43864065
0.28421247
-0.25937265
-0.31432918
-0.052727927
0.11088306
0.18029933
0.034453847
-0.15703353
-0.02071893
0.1675933
-0.13957562
-0.044566426
-0.36184323
-0.21928667
-0.32613689
0.49349695
0.27663827
-0.097495593
-0.15495284
-0.4941296
0.074317083
-0.029510168
0.29555893
-0.3190884
-0.34997812
0.48595044
-0.16898379
-0.22504731
0.092495151
-0.14208385
-0.40123692
-0.20413643
0.31003469
-0.34714237
-0.26065663
-0.092363045
0.32180908
0.3916446
-0.30534431
-0.46269628
-0.50636613
0.133527
-0.067132257
0.48291367
-0.30497098
-0.2549074
0.22263584
-0.035345227
-0.5472604
-0.011289094
-0.22806501
-0.14526333
0.38219923
0.36842534
-0.30043307
-0.10850861
0.049033932
0.50522608
0.3396045
-0.10583053
0.060539767
-0.082928888
-0.24184503
0.13796608
0.51136321
-0.35614184
-0.25668538
0.21570358
0.13935271
-0.42049068
0.066811569
-0.18126109
-0.49107242
0.09002921
-0.22753532
-0.37378794
-0.10428236
-0.53308386
0.38798937
-0.22255763
-1.0551195
-0.10905092
0.11103926
0.46693292
0.050201073
-0.02485913
-0.37061059
-1.4619261
-0.058995724
0.094497666
-0.36320397
-0.380375
-0.77988958
-0.53312206
-0.43411624
-0.42688227
0.12555751
-0.56058925
0.1308827
0.1444924
0.017460033
-1.1825271
-0.17676589
-0.51230878
-0.045936238
-0.059099592
-0.1589548
-0.15532839
-1.2263423
-0.16790859
0.041798994
-0.67414439
-0.075054474
-0.3474451
-0.76810849
0.37563431
0.3843191
0.4704493
0.4447732
0.06860432
0.44898739
0.043182492
0.15988356
-0.32309914
-0.1001691
0.17103612
0.13347238
0.17292832
-0.24144328
0.11628493
-0.26676014
-0.26981515
0.091754474
-0.098249279
0.35882196
-0.58796668
0.64783007
0.23512144
-0.5094344
0.10859256
0.19068535
0.65313846
0.16924822
0.18970801
-0.22646961
0.33262163
-0.25202036
0.3867358
0.27687174
0.37130356
-0.075068995
-0.045348365
0.11801791
0.15887272
-0.53363931
0.23917545
-0.18141305
0.32729784
-0.5449785
-0.89053428
-0.5924899
-0.33991525
0.018925535
0.47703841
-1.2907256
0.17471868
-0.72657025
-0.086763114
-0.27652651
0.33718771
-0.34985042
-1.7458886
-0.29927978
-0.50818521
-0.31900829
-0.27857158
0.071981654
-0.23068307
0.79564017
-0.0015957979
0.082583837
-0.78779197
-0.31164369
0.50452662
-0.046874408
-1.0145625
0.2998665
-0.32218099
-0.067180082
-0.24304818
0.48925355
-0.49016607
-1.9141216
0.14023115
-0.49006984
-0.13919365
-0.064846873
-0.20724998
-0.94925785
0.89237803
0.44542375
0.36199746
-0.18181261
-0.23979835
0.18227129
0.55494535
-0.19349895
-0.24411488
-0.018687155
-0.13437194
-0.17655224
0.71160936
-0.57715547
-1.5019021
0.23509328
0.12706374
0.19088577
0.15958811
-0.36220923
-0.50562543
0.7734434
0.11961295
-0.12860091
-0.057263777
-0.033823464
0.10565875
0.06043965
-0.27274722
-0.44780698
-0.39144781
0.64651519
-0.24236171
0.46456179
0.0074522216
-1.0057284
0.054213624
-0.062523127
-0.14836277
-0.25396749
-0.46074864
0.10268639
0.37735882
-0.026324144
-0.20977853
-0.52922493
-0.082409792
-0.047439784
-0.22141357
-0.5175373
0.042477664
-0.31928587
0.69350022
-0.30682012
0.40366244
-0.33939138
-1.0733106
0.3438895
-0.56496108
-0.23062837
-0.069961086
-0.59398812
-0.36109769
0.33794099
0.34556791
0.3196499
-0.29497221
0.19775265
0.093361571
0.019252466
0.035011929
0.090661556
-0.46588215
0.067675352
-0.14170526
0.30594778
-0.71959746
-1.1678462
0.15341687
-0.17946851
0.10150267
0.11555126
-0.023327013
-0.76790029
0.1862354
0.56076938
0.028516833
-0.35334116
-0.071737111
0.15816179
0.057735711
0.17302743
-0.17231128
0.33755651
-0.10645394
0.015980937
-0.17690688
-0.19389924
-0.082465373
-0.19901565
-0.045370109
0.080840036
0.030949041
0.059626989
0.26463673
0.0036006426
-0.071122162
0.15727572
-0.5248698
-0.14296724
0.21496449
-0.02765449
0.25584003
-0.34634465
0.82986099
-0.28413323
0.12930633
-0.099806376
0.36527053
0.073788099
-0.09982238
0.30127776
-0.16740687
-0.21788733
-0.39433452
0.05757314
-0.25422889
-0.23803011
0.11556599
-0.19296683
-0.014050951
0.28012896
-0.40001494
0.41686621
-0.025841445
0.34036496
-0.45970431
0.14346749
-0.10405634
0.61787176
0.070989512
-0.027295554
0.39081594
0.012864949
-0.46556985
0.25834543
-0.03976969
-0.1806324
0.32826555
0.047113411
0.064217061
0.075666323
-0.13093205
0.23042993
0.15092526
-0.080061287
0.17605545
0.1802977
0.054785836
-0.49298266
-0.0092795547
-0.074353687
-0.15411589
-0.17774747
-0.21456511
0.493911
0.1539686
1.1399504
-0.26581961
0.016532896
-0.12548928
0.15574232
-0.048164394
-0.26358289
1.1552272
0.48658282
-0.22259925
-0.7935425
0.16280092
0.53989655
-0.17240965
0.47704139
0.37818608
0.39312068
-0.43941826
0.027584109
-0.18553528
0.6507231
0.28881982
-0.32374474
0.35854334
-0.85524952
-0.16342783
0.24399303
-0.43448684
-0.47388002
0.41845879
-0.37864134
0.13200988
-0.015729181
0.062708981
0.18066284
0.21928126
0.39582512
0.38091582
-0.31309435
-0.1757948
-0.09150739
-0.12960394
-0.45530802
-0.55623454
0.17669417
0.2144579
-0.55530393
0.37821686
-0.51786017
-0.40846759
0.41339076
0.16076177
-0.20391026
0.80391937
-0.40971282
-0.16325507
-0.1677662
-0.50635564
1.4249821
-0.30563203
-0.45437661
-0.48755977
0.010987896
-0.47808176
-0.64939231
0.51816082
0.61492133
1.5403862
-0.42981797
-0.44598323
0.58508557
0.43058169
0.21456684
-0.30410406
0.75595254
0.94713312
-0.62679863
-0.012428433
0.77603865
0.37006679
0.33708709
-0.18636636
0.24177854
0.6573329
1.9571061
-0.27519232
-0.39225146
0.027373884
0.89236611
-0.13049003
-0.75486267
-0.29789841
0.77977663
0.10291817
-0.14803533
0.13466781
0.098251104
-0.71129411
0.3634066
0.63162106
0.72330946
0.57118523
-0.55802429
0.002597193
-0.39962712
-0.5662688
-1.2262919
-0.87818009
-0.8542189
-0.43302476
-0.045324638
-0.63447511
-0.98981011
0.80871552
-0.015756957
-0.33039135
-0.55731416
-1.4005855
-0.3905603
0.23109293
1.7469755
0.2283784
-0.23324431
0.046886992
-0.027554043
0.50580144
-0.44969279
-0.8568064
-0.25372359
-0.8282094
0.60450894
-0.023083819
-0.38935786
-0.074555114
0.40102595
-0.56429118
-0.10620595
-0.29944208
-0.20925139
-0.56217074
0.2498246
1.2060531
-0.034406789
0.41041929
0.14651634
-0.12742811
0.68577135
-0.17658244
-0.10354339
0.10332381
-0.052797344
0.97751486
-0.015524544
0.066853225
0.62852639
0.028058648
-0.42836779
0.57876182
-0.10086718
0.22501314
-0.51018173
0.12523352
0.70179558
0.4285337
0.41408935
0.30261147
-0.17181994
0.87284911
0.5844577
-0.16676922
0.11150073
-0.2006235
0.015703732
-0.02645736
-0.21515353
0.33321789
-0.34251735
-0.078860134
0.16911861
-0.0027994821
-0.08370655
-0.11379535
0.34037179
0.10149258
0.58882558
0.44914037
0.010480845
0.023349913
0.13595736
0.75806898
-0.33786297
0.11564232
-0.13746296
-0.48458737
-0.037691314
0.080753945
-0.25965264
0.025604557
0.1096048
0.21337329
-0.44803423
-0.44809797
-0.36042371
0.25235611
-0.16554418
-0.17549296
-0.048877247
0.0057810894
-0.0078721233
0.083772473
0.49330068
0.32080087
-0.064046003
0.20187274
-0.16018286
-0.25747475
-0.043218143
0.15603554
-0.089376017
-0.08343567
-0.17421713
0.28071895
-0.37186569
0.17120157
-0.40977776
-0.48358625
-0.10812943
-0.11964189
0.22257231
0.17976771
0.15259069
-0.22006948
0.28031582
0.21204016
0.23682909
0.065268047
0.27443361
0.13159865
0.11071283
-0.23026514
-0.041312277
-0.078815788
0.096172318
-0.049651187
0.19564059
-0.37901115
-0.22534527
-0.3843005
-0.14441313
0.2167844
-0.041362476
-0.07815475
-0.26447472
0.29056987
0.14918472
0.064700954
-0.12031892
0.0012503869
0.17825648
-0.15167977
-0.24076515
0.041591264
0.10851312
-0.073487215
0.06322407
0.29101965
-0.17098601
0.009244306
-0.20807457
0.09601891
0.087282412
0.14374377
-0.14314321
0.1089679
0.28176939
-0.24883425
-0.33041951
-0.10182284
0.24632607
0.15691972
0.27145627
-0.050694872
0.13965163
0.048729818
0.33802149
0.082843624
0.20648076
0.078945532
-0.33398557
0.094371475
0.0061992207
-0.22213623
-0.31708997
-0.28982818
0.019134643
0.54924548
0.2112119
0.2038594
-0.02981746
0.072913706
0.027039718
0.17406343
-0.27939254
0.20899338
0.20605241
0.54502767
0.00034201567
0.077103704
-0.098680466
0.029172298
0.10137238
-0.15847141
0.094628029
0.11355193
-0.16700554
0.28054515
0.67292982
0.690036
0.12708811
-0.30058295
-0.067518219
0.1307209
0.26344171
0.065714404
-0.18580294
0.34715444
0.038484044
0.25850505
-0.3522307
0.073143691
0.35378718
0.12221612
-0.092099003
0.24656576
0.12412498
-0.23947166
0.059942372
0.26913974
0.41315353
-0.29231262
-0.22574529
-0.32483074
-0.036016189
-0.08191368
-0.012304618
0.23313254
0.076032162
0.037855588
0.21519722
0.018507978
-0.30729422
0.99634415
-0.0024871246
-0.063625723
0.087378912
0.18382446
-0.15093485
-0.039286841
-0.66169351
-0.20929442
0.72062105
0.2165505
0.41900721
-0.27284166
-0.33661985
0.70229214
0.26503953
0.10049211
-0.0010989484
0.2727949
-0.31550372
0.082407951
0.54039216
-0.77474576
-0.59154636
-0.32513842
0.0019036571
0.31392083
-0.84032333
0.82173705
-0.052743338
-0.91518772
-0.10563251
0.400141
-0.41934064
-0.24259244
-1.2945276
-0.57375401
0.87438822
-0.52951539
0.0033248621
-0.26750311
0.032871656
1.3624594
-0.71909165
-0.15542914
0.17542817
-0.12355088
0.41351438
1.8542784
-1.7264718
-0.35702688
0.55856866
1.49789
-0.2993677
-0.098677337
-1.1147083
-1.3792983
-0.1017589
-0.2265301
-0.37475115
0.033828512
0.15377794
-0.20543291
-0.82960582
1.4201262
1.4262197
-0.10981003
-1.0638703
-1.3247561
1.7230612
0.14395432
-0.62735504
-0.89119577
-0.27134246
-0.11733045
-0.42192087
-0.13042654
-1.2405936
-0.085876562
0.25957274
-0.23466823
-0.24596804
-0.34104297
-0.24562195
1.7359679
-0.35886994
-0.59082413
0.66597563
-0.22947985
-0.1668752
0.77305323
0.37314302
-0.10359832
-0.19103746
0.088964902
-0.3942906
-0.13815337
1.0846276
0.37788367
0.048875507
-0.46810982
0.23961553
0.019065
0.23700579
0.19051817
-0.11113457
-0.64815563
0.038368996
0.32320979
-0.33382082
0.098205358
1.3970443
0.25487915
-0.6077202
-0.13729079
0.83076555
-0.020679669
0.66102123
0.17664643
-1.3021761
0.24969976
-0.32919362
-0.65118295
-0.3061181
0.56465262
-0.10445422
-0.92113274
-0.4112356
-0.32729912
0.24811302
-0.45110902
0.19934954
0.22319397
0.089966789
0.40962398
-0.016306547
0.17349516
0.028286977
0.3237662
-0.17263611
-1.06437
-0.14517428
0.20231035
0.006857425
-0.29239476
0.39217389
-0.38905606
-0.19646184
-0.50740904
0.25247216
0.14525981
-0.39972463
0.1467223
0.073806137
0.081313036
0.13201337
-0.03182127
0.35384822
0.2102925
-0.25423902
-0.22142582
-0.57208598
-0.062092744
-0.44135338
-0.39463046
0.21900129
0.73214251
-0.28606942
-0.3217243
-0.38280025
-0.14594397
0.20277674
-0.15303257
0.33453187
-0.48670739
0.36336681
0.45010656
0.02042345
0.39418596
-0.1733062
0.30060846
-0.44003153
0.093556151
-0.10391261
0.059231922
-0.15699621
0.15862703
0.19078568
0.15261662
-0.15533251
-0.29248548
-0.17483033
0.16472714
-0.18781094
-0.38073596
-0.16053002
-0.2633158
-0.30486932
-0.10724749
-0.26074088
-0.070099466
0.31409261
0.042304393
0.23707481
-0.078327864
-0.072057776
0.077753797
0.42789352
0.11594937
-0.26436645
0.058230802
0.19561575
-0.11241627
-0.015126879
0.096581526
-0.16270185
-0.07013122
-0.50343633
-0.156978
-0.071211971
0.27778998
0.11210783
0.066104881
0.15132025
0.61544031
0.18328904
0.084441431
-0.72803599
0.14182939
-0.24135387
0.047286902
0.14185616
-0.31993815
0.20246719
0.0013335483
0.12840231
0.056403395
-0.099667147
-0.028074954
-0.17890735
-0.31497276
0.014252183
0.20184612
-0.09418676
-0.63831371
-0.20177025
-0.018418178
0.1125374
-0.3111212
-0.64198673
0.16384695
0.11603297
0.093160234
-0.54063731
-0.30417037
-0.1149971
-0.070480265
0.2741392
-0.54976583
-0.47604051
0.27412301
-0.068296865
-0.23622425
-0.24137425
0.24676201
0.12715112
-0.28506368
0.13879822
-0.16985618
0.19647568
0.60072827
0.0038801418
0.14838487
0.29246038
0.52014184
-0.038651992
0.34173793
0.072785236
0.37284967
-0.053633105
0.34694451
-0.47071031
-0.98340702
-1.2957038
0.081811003
-0.79233503
-0.95549428
0.049763091
-0.601542
0.62304366
-0.42597359
-0.86458343
-0.11479796
0.044287715
-0.38021606
-1.263966
-1.0977445
-0.21724828
0.068374239
1.0997895
-0.47589231
-0.42371881
-0.2192836
-0.59175313
0.10288269
-0.19260745
-0.010644986
-0.12077176
0.49539509
0.21038148
0.38958934
-0.031114323
-0.17119776
-0.32740128
-0.045492332
-1.4867944
-0.209043
0.43712735
0.39183754
0.020020077
0.5289185
0.47240466
0.38743371
0.094762303
-0.86261225
-0.2101423
0.097254828
-0.15939125
-0.34994492
-0.1170709
0.26309592
0.62690836
-0.33841789
0.063134722
0.083224475
0.29101241
-1.1213332
0.1350809
-0.24540165
0.456911
-0.099078044
0.66652781
-0.503304
-0.78313625
-0.15659985
-0.95504218
-0.026369266
0.012770207
0.53863859
-0.090992518
-0.9126066
0.048079945
0.32124677
-1.0527945
-0.20233442
0.057648398
0.14581388
-1.9541858
0.25805235
-0.011127473
0.21756168
0.15726042
1.1710277
-0.10976709
-0.31726339
0.57389092
0.45211947
0.11596171
-0.43941084
0.30442122
0.46787068
0.19633043
-0.088198125
0.094988093
-0.43270689
-0.11684092
0.1285046
-0.11821676
0.23799042
-0.079989538
0.21417089
0.18862793
0.30746573
0.29186568
-0.3810029
-0.64408302
0.024844589
0.090133727
0.14327757
0.42781597
-0.11168185
-0.26099688
0.39474133
-0.095465548
-0.2347787
-0.014493329
0.16387264
0.11505476
-0.21401958
-0.47607458
-0.10831141
0.43193087
0.026280213
0.20382719
0.24210007
0.14128336
-0.072969295
0.56821072
-0.22517768
0.1576373
-0.093161382
0.070483074
0.14664899
0.052761413
0.12548186
-0.11277946
-0.28758645
-0.10037608
0.20846596
-0.40873614
-0.2455934
0.18811324
0.45218199
-0.019317774
0.30377212
0.15660848
0.11591277
-0.45341048
-0.16070558
-0.077945098
0.25853607
0.28662214
-0.17118292
-0.13951413
-0.015693644
-0.0092091877
-0.16532288
-0.1433876
-0.088387378
0.18725288
0.075602591
0.060206544
0.39185929
-0.058841232
0.19639677
-0.043382026
-0.26714176
-0.23311672
0.016588416
-0.25880203
-0.11764678
0.055496693
0.1282859
-0.10024308
-0.06146219
0.16589415
0.30368027
0.33364949
-0.77373153
0.05381269
-0.079320483
-0.089058794
-0.39118075
-0.46510333
0.23985377
0.25493717
0.21355467
0.082878254
0.041437764
0.088755965
0.0035034714
-0.050707057
-0.17325653
-0.033813141
0.17205861
-0.034464132
0.35176003
-0.012406955
0.18726403
-0.42400217
-0.31295258
-0.13963367
-0.0047803652
-0.067439876
-0.10380562
-0.47462919
0.22130185
0.25219244
0.03351168
-0.021470707
-0.36240897
0.34099907
-0.058296055
-0.025284238
0.10101808
0.0052777207
-0.33286211
0.21211548
0.049946029
0.10987868
-0.15537192
-0.33246422
-0.48873985
0.083473712
0.12638497
-0.01105256
0.19155821
0.15595897
0.1166871
0.12388009
-0.28223112
0.037287161
0.1239893
0.11626655
-0.037233874
-0.082378104
0.22188438
0.29698551
-0.1193472
0.13632192
-0.046551786
0.32881996
-0.22837771
0.0021698968
-0.17414248
0.022319462
0.020232219
0.10412765
-0.038605068
-0.0070076804
-0.081327565
-0.37224251
-0.059902079
-0.12221734
0.1900501
-0.40570873
-0.20208697
0.096074544
0.46387336
0.18682612
-0.16910908
-0.23887916
0.30614007
-0.29824206
0.07825771
-0.33121237
-0.099438451
-0.23453748
-0.059088059
0.20047235
0.083381385
-0.085858427
-0.23822838
0.070426293
-0.086316936
-0.30551052
-0.057241533
-0.090087295
-0.0070302892
-0.19483422
0.035565209
0.059779078
0.096218877
0.13440581
0.11963934
0.24187116
-0.075651981
0.081233203
0.42694783
-0.26290944
-0.064080544
0.066327713
-0.53655219
-0.17632778
0.14571026
-0.065476701
0.076231241
-0.31188965
0.082289509
0.17665744
0.031048199
0.070771337
-0.011374194
-0.026086899
0.20922138
0.1910945
0.17035805
0.11967248
0.016171834
-0.18794659
0.32962486
-0.16369417
0.030045083
-0.43409401
-0.22051492
0.18230607
0.089871638
-0.0094597209
-0.0019923465
0.27970535
0.56132805
-0.1099619
-0.24653043
-0.069476001
0.55944002
-0.14511965
-0.12572965
-0.0012947068
-0.27516678
0.21915102
-0.016863206
0.11974774
0.098187171
0.36516571
-0.11196747
0.024739865
0.10461411
0.0074617895
-0.13893937
0.29079136
-0.27069122
0.099309988
0.048602883
0.058151789
0.29757413
0.0046265516
-0.47287282
0.45825818
0.19777666
0.010902822
-0.17707726
-0.20811206
0.18641163
0.095896833
0.053263571
0.047438122
-0.47466218
0.34475315
0.31293905
-0.13878123
0.18272911
0.26757085
-0.098001301
0.16019298
-1.0550765
0.14691852
0.063524328
0.39331716
-0.11086787
-0.04313786
0.15104061
0.56496793
0.48161671
-0.064527303
0.14576311
0.20007484
-0.41150773
-0.35981229
-1.7617348
-0.36814922
1.2389832
0.43985748
-0.487995
-0.63889933
-0.74268699
3.4759958
-0.064354338
-0.59206557
-0.85603374
-0.39742273
-0.071910501
-0.49472401
0.25246367
-1.8698534
-1.1150024
0.089446418
-0.8303405
-1.7964684
3.9542358
0.41297013
-0.17686372
0.10449957
-0.14816353
0.18466169
0.18578729
-0.15111914
0.088857286
-0.15520954
0.11983561
-0.031213045
0.076370731
0.15097181
0.12680137
-2.1878114
-0.23492903
-0.23254538
-0.21963009
-0.087416209
-0.3303366
-0.87873143
-0.34740815
0.54708278
0.51225191
-0.12651977
-0.047080923
0.24398462
0.21513349
0.31452301
-0.0080108708
-0.035259936
0.30110437
0.085570984
-0.013158318
0.15220654
0.28196397
0.34533435
0.80872154
0.14997745
0.084528498
0.44520742
-0.087499231
-0.18437968
0.29226843
-0.072984025
0.33631378
0.3309679
-0.19866401
-0.042373013
-0.54500842
-0.061329357
-0.081116855
-0.16654648
-0.11622554
0.022166204
-0.092988953
0.41605747
-0.039647024
0.059318379
0.096776955
-0.16541557
0.32178816
-0.16161132
0.25489175
0.12623811
0.043970428
0.13291681
0.1491455
0.013912636
0.30413103
-0.0026932068
0.17647667
-0.081539184
0.55510128
0.36728203
0.16083212
0.25003648
-0.10056323
-0.038703635
0.082265697
0.18701972
0.040260792
0.23299213
0.26234776
-0.15341955
-9.422718e-05
-0.30096599
0.38256925
-0.12400871
-0.038218841
-0.14618336
-0.50084996
-0.12253833
-0.047295813
0.054468505
-0.15879402
0.088916495
-0.049039029
-0.044747684
-0.18552169
0.24021772
-0.16418715
-0.059816875
-0.12321179
-0.22065647
0.078467108
0.12261298
0.034577291
0.28938812
0.10349833
-0.19523622
-0.14383566
-0.20157315
-0.075306796
-0.24518365
-0.084596418
-0.10124014
0.46425474
-0.13718516
0.033972673
0.16280848
0.025797833
-0.081388742
-0.13163225
0.088957228
-0.29213881
-0.072944306
0.29198015
0.077911794
-0.0047551412
0.14498161
0.076300792
-0.089285702
0.037490018
-0.080836385
-0.031619135
-0.038758758
-0.28794008
-0.082302734
0.059444528
-0.051742576
0.051338315
-0.23610136
0.063139193
-0.15186518
0.27476162
0.011696388
-0.18122581
-0.33589816
0.069520541
0.16221473
-0.33081716
0.12748098
0.10074096
0.098787919
0.16317677
-0.14504676
0.21887566
-0.0077477205
-0.18624169
0.34862432
0.036731657
0.021546055
0.17280217
0.10461272
-0.077818587
0.12613077
-0.42805877
0.47959265
0.12373012
-0.13183768
0.068548098
0.026768746
-0.67976278
0.57922184
-0.31134054
-0.27012569
0.36088112
-0.58272821
0.051265888
-0.26078069
-0.51263887
-0.18445984
0.057373263
-0.012459502
0.3478846
0.32338092
-0.12564707
-0.4011389
0.1662513
-0.14159416
-0.27048469
0.091327839
-0.27643523
0.36164197
-0.36218438
-0.5003202
0.059770424
-0.3309598
0.52115905
-0.51061654
-0.06070891
-0.3223621
0.072865903
0.014756279
-0.15877426
0.4846561
-0.066548102
-0.15106162
-0.21655089
-0.2722052
0.076301314
-0.13621727
-0.191874
0.30214232
-0.25779197
-0.29292539
-0.2713801
-0.13490269
-0.59473586
0.40494516
0.068687983
-0.1088184
-0.033911407
-0.20575748
-0.23104651
-0.3932246
0.40181461
0.11742774
0.28970191
-0.28307998
0.66437578
0.021487644
-0.046087541
-0.11881464
0.40616235
-0.41128179
-0.49832955
-0.33142582
0.31175959
-0.75148296
-0.19019917
-0.0076865461
0.38135412
-0.25097764
-0.37502295
-0.73686546
0.013003928
0.38178045
0.21084391
-0.15861644
0.60669887
0.4677681
0.19154401
0.25955635
-0.0044327104
-0.13576715
-0.2824778
-0.63790607
-0.047158442
0.4935185
-0.33131239
-0.63161111
-0.35619101
0.20458202
0.23021403
0.33770522
-0.50474566
-0.33021587
0.21497208
0.41850778
0.18708295
0.3480131
0.80290508
-0.37999627
0.19762573
-0.65959901
0.31154433
-0.7185204
-1.1468626
0.44127205
0.10406429
-0.25924683
-0.024685055
-0.53083479
0.16832505
-0.10705403
0.39861771
0.10637763
-0.21433938
0.31565061
-0.010068535
0.36470574
-0.32900673
-0.45618236
0.40652624
0.26592717
0.25488809
-0.45242995
-0.0082055731
-0.051703013
-0.95179361
0.64002401
-0.35575172
0.33276853
0.041552495
-0.27860001
-0.3153531
-0.45168665
-0.31872293
0.27636075
0.16477914
0.15821268
-0.4761233
-0.18174218
-0.52627343
0.68532032
1.6986302
-0.11596446
-0.5067988
0.3396489
-0.41751924
-0.16570884
0.082820266
-0.34631571
0.53073746
0.86268407
-0.10683475
-0.39650962
-0.05249377
-0.54762971
-0.25428915
-0.31908512
-0.92190963
-0.24663916
-0.4049992
-0.35696632
-0.38671705
0.17540097
0.057219639
-0.47758752
0.2426368
-0.38240275
-0.23378694
-0.043013062
0.19103579
-0.64699996
-0.57565117
0.22564322
0.1283378
-1.0100721
0.062867939
0.184305
0.41144109
0.42480341
0.24406438
0.39220539
0.27177531
-0.066949338
-0.18471362
-0.10975981
-0.29314083
-0.43086863
0.086036555
1.1444134
-0.063743941
-0.21346252
-0.64144045
1.1161407
-0.10935149
0.0056464504
0.38678208
-0.75211543
0.37375742
0.52094632
0.10247108
0.089539453
0.38167408
-0.18067726
-0.21548118
-0.1497788
-0.27940881
-0.30997753
-0.65036231
-0.63501644
-0.37513518
-0.248514
-0.015790783
-0.036842421
-0.40078709
-0.16463339
0.2488883
0.31421354
-0.17233241
0.34330365
0.4446058
0.21371308
0.82194257
0.094395027
0.18392095
-0.11398592
0.085802205
0.3754116
-0.14983328
0.56116259
0.0089085335
0.45490673
0.024379088
0.71336925
-0.38486251
-0.13944499
0.13749799
0.16502559
0.088081181
-0.25392547
0.30135068
0.045645639
0.065070756
-0.090218611
-0.36553431
-0.0013286181
-0.16128121
-0.041560721
0.26969272
-0.46453971
-0.11693515
-0.37734854
-0.5668149
-0.33466336
0.25408038
-0.14922787
0.1462799
-0.097833119
0.25360191
-0.43026817
-0.42686152
0.4111551
-0.072231308
0.067311533
-0.77616435
-0.22178443
0.30564317
0.13853966
0.078765526
0.77633566
0.070304215
-0.16189329
-0.067362562
0.047666557
-0.1299075
-0.085638031
-0.63574004
-0.51007181
0.024157656
0.057480078
0.020970035
-0.48470709
0.33820492
0.19986419
-0.081277467
0.22468069
-0.23364343
0.45904908
0.45381036
0.54520166
0.32857481
0.14260852
-0.10756248
0.07868813
0.067987308
-0.045126788
-0.063812003
0.56466568
0.36487368
0.057268091
-0.44131675
0.22642154
-0.0027957626
-0.23825507
0.29472202
-0.59791189
-0.33102614
1.0973127
0.56397998
0.35569939
-0.17784719
0.29886273
0.17018211
0.021028288
-0.3666757
0.28934607
-0.11617924
-0.040686477
-0.079357982
-0.15978514
0.21513294
-0.28824723
0.15189786
0.48710608
-0.0097361645
-0.14286497
0.44737452
-0.16525471
0.65575445
-0.044999421
-0.47145781
-0.39182708
-0.41611752
0.22927918
0.46215907
-0.13051163
0.32010067
0.18965203
-0.23222843
0.30682951
0.48543814
-0.49481356
-0.0047367732
-0.060416274
0.14968389
-0.6884141
-0.35171965
-0.26613313
-0.27335253
0.33838484
-0.41111913
0.46646291
0.18677673
-0.36130825
-0.012451734
-0.41037861
-0.2272891
0.20967475
-0.17146732
-0.083903074
0.22563548
-0.33275971
-0.0036634211
-0.12587237
-0.12401605
-0.54963744
0.574727
-0.10564214
0.18049851
0.09412127
-0.11935972
0.53522325
0.28782007
-1.0513363
-0.41108131
0.24227442
0.022870116
0.0080437316
-1.3749653
-0.22737145
0.42630956
0.095981553
-0.10478243
-0.23880938
0.2003915
0.11723948
-0.071386002
-0.48279822
-0.029877366
0.23077399
0.85040671
0.05833412
-0.05392598
0.25706524
0.041737311
-0.023911888
-0.72599632
-0.4457216
0.83625382
-1.5395952
-0.19394358
0.4231343
0.47029164
0.24925131
-0.42874897
-0.12843773
1.7578112
1.1536967
-0.082099989
0.13435119
0.22984906
-0.057770543
0.62176704
1.3466266
-0.27959904
-0.21338765
0.38755757
0.19327147
-0.56766492
-1.3983109
0.97026581
-0.17534764
0.21628758
0.1574543
-0.87986636
-0.23700799
-0.13200143
-0.063407347
-0.58736342
-1.3118451
-0.51307237
0.091096684
-0.58478665
0.18844274
0.31269214
0.15318282
0.88476712
1.1739777
-0.096575126
0.27652946
4.9752376e-05
0.26538515
-0.12852658
0.16526821
0.46150908
0.25453562
-0.38903797
0.17777929
0.82613832
0.91539991
0.34846058
-0.052303784
-0.23849748
-1.2359527
0.5011909
-0.01138021
-0.35604456
-0.040378716
0.22744933
-0.32951522
0.14288519
-0.59555048
-0.065277345
-0.29287422
-0.72659856
-0.069604039
-0.33067206
-0.41803381
-0.24985024
0.46103498
0.38631144
-0.11079868
-0.2271494
-0.48741344
-0.66744971
0.19076416
0.35112432
-0.092958018
0.26100245
0.80806035
0.1400575
0.19728552
-0.12074067
0.49467358
0.010321106
-0.045060974
-0.058071755
0.20690534
0.080122165
-0.45486373
0.087582916
-0.34340826
0.39252397
-0.070588537
0.28863895
-0.014133518
-0.18697447
-0.22644936
-0.21194507
0.0010169863
0.53152186
-0.16557169
-0.10161861
0.07426513
-0.059696786
-0.12187848
-0.44316182
0.43683422
0.73520219
-0.25561392
0.034352805
0.56857598
0.21488413
0.37743837
-0.23330866
0.1025912
-0.9790951
-0.18822515
0.81170547
-0.24243359
0.35840997
-0.064612158
-0.15794401
0.4199557
0.13699777
0.090956777
0.10010898
0.33042365
0.69004405
0.30621538
0.078493685
0.075322926
0.1214601
-0.37877494
0.023358915
0.071522169
-0.11180134
0.32931167
0.92878163
0.21643893
0.062449779
0.11982696
0.22248857
-0.32614529
0.016119095
0.20988064
0.38291723
-0.28136557
0.45639008
0.33631343
-0.012741177
-0.28190184
-0.086692043
0.014203709
-0.1442315
0.18499006
-0.029930629
0.11058211
-0.51580387
1.1169943
0.14056221
0.0030863823
0.24927805
0.10553201
0.27325392
0.21955864
0.065147027
0.068893619
0.25386545
0.14300139
0.42819783
-0.32501522
-0.09488108
-0.034241416
0.25690043
-0.059597354
0.1175945
0.64866936
-0.095370792
-0.079271436
0.610304
0.14654091
0.32506856
0.13210617
-0.039278258
-0.018168017
-0.015062677
-0.26309711
-0.22003745
0.00016120489
0.33434737
0.18015854
-0.11256224
0.045475077
0.32836545
-0.34841511
0.042734932
-0.02360582
0.17494608
-0.15842709
-0.0679662
0.49409255
-0.024451341
0.090651475
-0.37657803
-0.24325523
0.1770106
-0.026222944
0.0942038
-0.38695416
-0.44881466
-0.20378506
-0.13194717
-0.38383389
0.22886565
-0.19537508
0.0060448414
0.057981584
0.045499608
-0.093746513
-0.050428819
0.0038405086
-1.2225354
0.42136115
-0.12665187
-0.13426882
-0.23676577
0.13208394
-0.32522598
0.81435555
-0.60854155
-0.44282091
0.297214
-0.11989316
-0.29204124
0.60789734
-0.14250781
-0.30422491
0.12486877
-0.05110316
0.047181737
0.24940923
-0.33114606
-0.19294354
0.56305069
-0.16159993
-0.029321475
-0.066847242
0.096426517
0.20528127
0.48336723
-0.73577714
0.015469798
0.27625236
-0.11208382
-0.41665483
0.77008933
0.099786445
-0.15978813
0.2622436
-0.094651856
-0.40007111
0.34214172
-1.0725063
-0.12075514
0.88858128
0.035126086
0.4654794
0.29676628
-0.411394
0.045175139
0.30266201
-0.24616775
-0.26382914
0.011815728
0.56501794
-0.14296122
0.36727884
-0.005167048
0.38585669
0.38117272
-0.44697374
0.12601916
-0.045401994
-1.1372694
0.45530465
0.7245304
0.19975856
0.59160876
1.0608284
-0.39886016
-0.34242997
-0.15928596
0.6136784
0.057915434
-0.35507008
0.59466141
0.16654177
0.35693708
-0.19150138
0.33739838
0.29366913
-0.44694677
-0.20991464
0.071685448
-1.3892689
0.047518227
0.79344314
-0.45577404
1.1560507
1.318351
-0.17505981
0.069575295
-0.4443644
1.4462606
-0.3343949
-0.72771424
1.1194685
0.091681249
0.09673132
-0.31820053
0.52628732
0.13943844
-0.8806079
-0.19985366
-0.41424027
-1.8835869
0.12342627
0.85216689
-0.60979611
0.68956465
0.69187772
-0.042793635
-0.35234797
-0.61599618
0.88093978
0.19117241
-0.819534
0.94719207
0.066277623
0.14860442
-0.42120805
0.79864722
-0.10437083
-0.86016917
-0.28561822
-0.77350408
-1.5494968
-0.458718
0.72619885
-0.19885163
0.37923637
-0.62650013
0.24920379
0.38656366
0.67664719
0.66838211
-0.014675952
0.14345409
0.64275849
0.69087815
0.12319072
0.027125917
-0.083048038
-0.2775414
-0.28483126
0.21947512
-0.16743015
-0.66550738
-0.040760476
0.64916772
0.13890861
-0.32125676
-0.6356746
0.075677
0.33796203
0.39882809
-0.28750119
0.097562432
-0.19026473
0.88673377
-0.13093069
0.20025912
-0.31744605
-0.91889858
0.29388398
-0.41128343
0.022632968
0.15114561
0.12863332
0.40043193
0.56252307
-0.092001356
-0.81552392
-0.74338686
0.33363754
0.092416972
0.47346029
-0.10441154
0.15511815
0.39369416
0.33031088
0.041371394
0.31785327
-0.069400847
-0.56526428
-0.6646648
-0.90903896
0.17368148
0.029385559
0.43361557
0.41480976
0.66041332
0.036812112
-0.26530832
-0.063311398
-0.1557631
0.10257396
0.64462048
-0.67968976
-0.1768475
0.32365677
0.54212397
0.54032195
0.19926013
0.20988521
0.082254067
0.0015855544
-0.40441063
0.12268026
0.10711768
-0.029696712
0.22070006
0.11539559
0.11137448
-0.70041049
-0.29917687
0.37460047
-0.020328335
0.39907318
-0.70816267
-0.4366267
0.18209612
0.14846581
-0.18040524
-0.046787344
0.30379045
0.10581704
-0.18223055
-0.27108404
0.17163032
-0.215266
-0.013431465
-0.53645331
0.36176649
-0.14206572
-0.046705253
-0.37043205
-0.11593993
-0.11241028
-0.00067325396
-0.32197502
-0.045581769
0.30996606
-0.17511208
0.63203341
-0.0076273591
0.14349234
-0.025302855
-0.41269261
0.1271861
-0.092487194
-0.14340243
-0.15951233
-0.22365505
-0.12849307
-0.24305429
-0.34474623
-0.32491812
-0.13774903
0.02701314
-0.23402576
-0.22210574
0.13204972
0.25489187
-0.057289749
-0.069624409
0.03011743
-0.10345667
0.48608735
-0.29533604
0.31344518
-0.14669162
-0.21488166
-0.31857482
-0.26507208
-0.0031223539
-0.015158457
-0.060324296
-0.11704652
0.023022635
0.17529175
-0.29878926
-0.42849833
-0.013593911
0.31464505
0.08010374
0.050299559
-0.081672475
0.14741184
0.15077722
-0.039492011
-0.049977634
-0.39673796
0.076796964
-0.3111257
-0.043643132
-0.71601826
0.10130639
-0.22637446
0.1098853
0.067463487
-0.1930373
-0.093151063
0.032641411
-0.16295023
0.080409877
-0.50333697
-0.14991912
0.017359164
0.10048255
-0.17354897
0.1325085
0.23577707
0.069480658
0.049424734
0.19886817
-0.37638986
-0.40141493
-0.25541982
-0.10194284
-0.33392122
0.1329793
0.18857491
0.2515322
-0.23771513
-0.14888494
-0.232976
-0.45820129
0.16496851
-0.10901801
0.009308733
0.028657367
0.28574494
0.033901833
0.25560093
0.21292602
0.42795619
-0.29337814
-0.40769172
-0.013260412
-0.42452452
0.40768602
-0.22674017
0.19568534
-0.18077238
-0.042216297
-0.024044929
-0.22665326
-0.34100735
0.10895365
0.063318729
-0.03004411
0.0066873636
0.40093532
0.04753362
0.27929813
0.026707802
0.17237099
0.027277997
-0.44677952
0.081308737
-0.42254058
-0.10740255
-0.24559399
-0.22651097
-0.21428293
0.1382888
-0.085408241
-0.077502489
-0.01395363
0.030456219
0.07222911
-0.22019014
-0.063863218
-0.010191002
0.17819574
0.30109909
0.093412586
0.042925678
-0.35816953
-0.43891382
0.053186741
0.067358099
0.0061825891
-0.47438166
0.031821799
0.10080966
-0.14056173
0.29348201
-0.17012544
-0.1197913
0.4729788
-0.29194129
-0.089244291
0.22089179
0.034947835
0.77454621
0.19371757
0.037016537
-0.0097495848
0.017023098
-0.69332778
0.27303982
0.034121592
-0.65031731
-0.27621406
0.28137073
-0.12441133
0.73408616
0.17967212
-0.037891254
-0.97810692
-0.24343765
-0.1161835
-0.17548595
-0.7785753
0.081718728
0.51490694
0.12586354
0.47896388
0.45745715
-0.17978337
-0.15804791
-0.071410045
-0.029696925
0.2847167
-0.049383711
-0.023167424
0.38110015
-0.41220054
0.31334785
-0.17633434
-0.20895015
0.23365322
0.16272917
0.27421832
-0.2412959
-0.12144138
0.74415559
0.3729082
0.16922285
0.27906278
-0.13626023
-1.0459613
0.091348708
0.069812007
0.089367375
-0.047485974
-0.068655588
-0.80920601
0.015473706
0.0033611525
-0.59613514
-0.22842632
0.07070186
-0.01146624
-0.18966766
-0.081253663
1.3948518
0.52578545
-0.043269802
0.042363822
-0.55954212
0.58655196
0.15459861
0.082959272
0.14830053
0.39356589
0.017539298
0.067593962
0.068954684
0.22852072
-0.086766116
-0.21627367
0.25980335
-0.1743232
0.16758955
0.45211241
-0.12347261
0.26662359
-0.032758933
0.29115078
-0.18339813
0.31628823
-0.0019697996
-0.050057095
-0.41596165
-0.10867318
-0.5054456
0.12816222
0.66609704
-0.35198593
1.5381379
-0.22016186
-0.66382951
-0.18643817
-0.24542698
0.31731972
0.28477719
-2.0298266
-0.75883693
0.026894711
-0.053290989
0.11038089
0.18682279
0.11315817
-0.46086216
0.032734454
-0.45420986
-0.61562359
-0.036013152
0.4462074
0.194297
-1.0376284
0.040522587
-0.46775478
0.0075474298
-0.15048505
-0.030456524
-0.057904907
-0.14223903
0.70676345
0.77641606
-0.022017697
0.01810978
0.18261331
0.023920542
0.16350858
-0.0060714697
-0.48364937
-0.49159691
0.63777405
-0.030858651
-0.87125295
-0.086473659
0.27361503
0.25718269
0.20286778
-0.77181101
0.093418688
0.14201047
-1.0649091
-0.76592952
-0.96781552
0.20154533
0.22468562
1.234593
-0.48064268
-0.74965984
0.14549507
-0.064203054
-0.27441332
-0.047522821
-0.037874073
0.61140966
-0.82832563
0.075034134
-0.11406454
-0.37648126
-0.12187158
-0.24895129
-0.21743062
0.35863209
0.71897632
0.46194577
0.54841322
0.66853124
0.40417096
-0.38397929
-0.16262537
-0.33732674
-0.22707921
0.077465519
0.19643167
-0.42922696
-0.68400609
-0.22798799
-0.24443252
0.063766129
-0.087377332
-0.24435785
-0.24938758
0.28285816
-0.014205786
-0.18121275
-0.71805435
0.17949599
-0.19621108
0.24476135
-0.86781901
-0.42225721
0.61387169
0.56861347
0.14495422
0.10042129
-0.088207595
-0.35451764
0.064974017
0.22866496
-0.044761006
-0.63493448
0.15403377
-0.24106508
0.18330878
0.25611755
0.45758852
0.15564972
0.050079439
-0.16813755
0.65624368
0.045582209
-0.22031264
0.28968444
-0.13353206
0.11422907
-0.001128584
-0.37173444
0.079485923
-0.16254903
0.2229114
-0.047372088
-0.31615832
-0.3108395
-0.042382192
0.0060043493
0.1391829
-0.39414331
0.23284851
-0.095477477
0.036874298
0.23719519
-0.093163408
0.12399574
0.22694759
0.081445009
0.074746199
0.097035632
-0.21174705
-0.12703861
-0.2448723
-0.072447397
-0.24131122
-0.14177004
-0.37196133
0.028768444
-0.092744432
0.00047406749
-0.20167676
-0.15518305
0.24288785
-0.028322032
-0.04357513
-0.15965894
0.17946406
-0.20088129
0.027590629
-0.12402281
0.24290739
0.28677699
0.069476947
0.12767586
-0.082664557
0.090890989
-0.38039342
-0.11565501
0.21157745
-0.19175714
0.26994026
0.19406624
-0.12019374
-0.15180889
-0.26230407
-0.1212712
0.1477022
-0.25055322
-0.12299754
0.26775813
0.09645474
-0.044602145
-0.088291056
0.24085158
0.73006678
0.028289055
-0.35760608
-0.24942738
-0.21934831
-0.0039635813
-0.25929821
-0.12904537
0.015452001
0.2504462
0.0036539296
-0.089337334
-0.015745517
0.58062893
-0.68798584
0.018029818
-0.16000874
0.00023871911
0.4509719
0.16676453
-0.011320213
0.98175365
0.13332587
0.061717398
-0.50033486
-0.29890737
-0.11476965
0.10749276
-0.24969098
-0.50941449
0.65229189
-0.13554509
-0.30046371
0.02865961
0.064312227
-1.0696032
0.70951378
-0.18337408
-0.44187126
0.12092316
0.67941195
1.3582226
-0.52838886
0.26648724
-0.17425434
-0.40725452
0.55462921
0.075231872
-0.44203222
0.83277011
0.39986062
1.7415131
0.61072719
0.15890087
0.88026506
0.6906482
-1.0527068
0.20623179
-1.3308829
-1.5955619
0.22932716
-0.20165236
0.3176783
-0.98885214
-0.0790857
0.24319389
-0.70870286
-0.34542882
0.29908952
-0.17123803
-0.13768706
-0.22427158
0.48426935
0.094958209
0.36514115
1.782831
-0.19523993
-1.0761772
1.178827
-0.94255811
-0.58167058
0.085145593
0.2540507
1.3597567
-0.79474962
0.48303151
1.1163136
-0.34129897
0.63050157
0.13439324
0.2282315
-0.48374641
-0.72534519
0.92941684
0.15526953
0.81541735
1.112141
-0.18552797
-0.83371419
0.38953683
-0.39238185
-0.49824551
-0.022928599
-0.24992962
-0.15194851
-1.2213633
-0.20445624
0.044836015
0.018125044
-0.42754292
-0.44145265
-0.14073826
0.77710479
-0.1007651
-0.05934583
-0.14823255
0.092233069
0.55874795
-0.73198211
-0.24901119
0.062038932
-0.49369204
-0.053397883
0.20087174
-0.47703305
-0.32150084
0.30748266
-0.11437544
0.36839584
-0.70740056
-0.14816101
0.015958618
-0.30696255
-0.69994122
-0.28688326
-0.025525454
-0.045557477
0.17609355
1.0210072
0.12895131
-0.34112969
0.45533735
0.22193784
0.21231619
-0.23266631
-0.34234399
0.29487208
0.47891992
0.13238785
-0.48906633
-0.52940112
0.052357797
0.08171957
-0.059606902
0.5811078
0.13575377
0.35937688
-0.22653531
0.33491915
-0.21329337
0.082428209
-0.18345264
-0.3080793
0.12046339
0.3466492
0.31745467
-0.17534576
-0.45312154
0.023646954
-0.065784611
-0.19612649
-0.14031366
-0.22901291
0.0105973
0.046880227
0.18992639
-0.55393714
-0.11185195
-0.1130392
-0.43120775
0.17654231
-0.37472886
-0.10987978
-0.23716891
0.2855365
-0.26126537
0.058977876
0.067582242
0.17086647
0.36353925
0.074639618
-0.19155428
-0.28461137
0.049737126
-0.014666291
-0.0098363999
-0.039898016
-0.45063564
0.19577593
0.18692869
-0.14903359
0.15759011
0.34979081
-0.15916812
-0.27246359
-0.1498926
-0.23105818
0.022063216
0.16856755
0.35112104
0.051810142
-0.14684199
-0.16026583
0.1633348
0.13965626
-0.09019912
0.13565297
0.30357134
-0.099164516
0.09446463
0.16955055
-0.26385349
0.21018143
-0.22199742
-0.31360155
0.14574279
-0.032911394
-0.32894215
0.28518263
-0.11980994
0.080585808
-0.06207579
-0.027276233
0.031466439
-0.22779715
-0.038335398
-0.022983514
0.032894928
0.033318236
-0.16217214
-0.16786762
-0.065264732
0.21582355
0.035449047
0.11251575
1.1451395
0.34577182
-0.11824048
-0.24608262
0.23207965
-0.06024706
0.055376377
-0.55999339
0.021951919
-0.26580611
0.082432315
-0.45694989
0.55285978
-0.35609934
-0.33785436
-0.26199061
-0.54010594
0.22145885
-0.016900675
-0.69484794
0.50239706
0.83949065
0.1615804
-0.10647091
-0.061086603
0.10202069
0.18966283
0.45582247
-0.22009945
0.069639072
-0.026151722
0.55854219
0.23463099
0.015144216
-0.21953724
0.37161967
-0.39984131
-0.57989591
-0.015016942
0.065342925
-0.57373744
0.60822099
0.54405427
0.037053574
0.086420491
0.27944073
0.28489962
0.19622783
-0.20474109
0.30637234
0.40209961
-0.31347233
1.0144011
0.51960284
0.16781169
-0.34600914
0.44777104
-0.41914675
-0.59365565
-0.059492413
-0.0066551142
-0.29931185
0.74233675
0.13409162
0.062017273
0.0080987206
0.035762545
0.082981504
0.035747904
-0.51539683
0.67825478
0.078332067
-0.56902188
0.44185641
0.64973325
-0.1470385
-0.12897281
1.0315313
-0.65059602
-0.43711171
-0.4120456
-0.10628818
-0.51349586
-0.089883231
0.11761113
0.40953019
-0.11100262
0.16443294
0.32940283
-0.32582927
-0.010366451
0.096237421
0.18475048
-0.039946917
-0.47395545
0.32864377
-0.42301431
-0.42668238
0.71302229
-0.83354527
0.033150904
-0.1151484
0.0047661699
-0.18269719
0.010681526
0.21026316
-0.2196952
-0.0065997825
0.36940503
0.48505425
-0.12193684
-0.58148021
-0.63573372
-0.0043716296
0.48489711
-0.68489051
0.024993474
-0.62886024
-0.20145178
0.15313278
-0.40689242
-0.5171445
-0.078669623
-0.10426117
0.35806766
-0.55465156
-0.0017575281
0.31662235
-0.37934697
0.63914913
0.35408384
-0.2136333
-1.1095333
-0.50906831
0.13316941
0.26958239
-0.22109868
-0.18312997
-0.36206838
0.099557288
-0.66160554
-0.73003632
0.17393757
0.35863811
-0.16871259
0.19658768
-1.2501445
0.19652925
0.39249992
-0.54564571
-0.91577208
0.42013961
-0.27800828
-0.14343944
0.87747341
0.46323937
0.7870419
0.010467272
-0.34593514
0.012173938
0.27260455
-1.4216131
0.045850717
-0.3521708
0.12292968
0.27379233
0.99500746
-1.0019889
0.26742065
-0.62661773
-0.43314371
-0.4253549
0.59658802
-0.24019957
-0.25680327
0.8709774
-0.073983014
0.93013841
-0.42576578
-0.92897373
0.13792221
0.67264605
-1.2042744
-0.61060804
-0.38722551
0.0030416937
-0.080953121
1.3154255
1.2058339
-0.29293597
-0.20896956
-0.27706197
-0.17670809
0.27612215
-0.12814207
0.15021293
0.076509722
0.24495736
0.8276301
-0.75812322
-0.9122541
0.37974605
0.089391671
-0.36314347
-0.13279343
0.031086357
-0.28476575
0.35630664
0.20589167
0.27407056
0.064849913
-0.28203681
-0.22020917
0.32193583
0.47934014
-0.29703516
-0.67828655
-0.12805921
-0.34935713
-0.20876552
0.12771194
-0.70080036
0.56595093
0.34935763
-0.080811657
-0.11975956
0.20034164
-0.37955722
0.16631158
0.095257521
-0.38123879
-0.52793497
-0.0061062127
0.095037177
-0.11662337
0.0069574723
-0.22986695
-0.41428918
0.031025581
0.061903749
0.041728258
-0.51195771
-0.25914162
-0.098957501
-0.33055615
0.0093834614
-0.063423887
-0.044660192
-0.16642585
0.27245075
-0.25968644
-0.91000068
-0.092302695
0.31678799
0.13636041
0.45535648
0.35901263
-0.15076293
-0.052323069
0.025469434
-0.19037902
0.24997507
-0.050817113
-0.33573669
-0.22538038
-0.11014172
-0.18437508
0.05017573
-0.053636763
0.15147585
0.010524972
-0.16479383
-0.85774666
-0.06154101
0.36019188
0.0025581245
0.19257192
0.26840597
0.053451519
-0.18512315
-0.22525531
0.15638086
-0.035094734
0.10195889
-0.16834986
-0.4337683
-0.0003382375
0.20689987
0.22419095
-0.16796635
0.15429023
0.083713025
-0.091449827
-0.45270145
-0.024860615
0.1121806
-0.0011517693
0.084029183
0.32985899
-0.16533211
-0.076608635
-0.090253733
0.13864416
-0.038610931
0.25734749
0.13376275
-0.0014968521
-0.23697509
0.3685782
-0.31455112
-0.10446219
0.16413264
-0.075384289
0.046866059
-0.37860221
-0.22682838
-0.19896631
-0.17120457
-0.083588205
-0.046086241
-0.15734226
0.33530831
0.45798698
0.2344605
-0.41526124
0.30045205
0.037192278
-0.071190193
0.20102032
0.38021398
0.44859955
0.42448261
0.012196085
0.18169495
0.47804031
0.7146951
-0.32581106
0.056737032
0.1338371
0.012780615
-0.0041049169
-0.19105946
-0.17922255
0.38207221
-0.20251173
0.46250382
0.16637434
-0.36178792
-0.28036624
0.060592629
0.35557893
0.14992161
0.21214923
-0.36148736
0.319408
0.36190867
0.64647675
-0.90513277
0.0952539
0.37651211
-0.049389623
-0.067223929
-0.28359127
-0.19646931
0.70207989
0.079483993
0.010922963
-0.30126926
0.068033412
-0.16125335
0.25929785
0.16697779
0.22108234
0.22102469
-0.29149342
-0.43488672
0.17214902
0.11759887
-0.77444285
0.43197769
-0.27640572
-0.35326502
-0.38785613
0.30860388
0.34158486
0.77226704
-0.024854356
0.31319061
-0.88057083
0.22075596
-0.3870039
0.39407167
0.52144367
0.092440449
0.7114951
-0.28668511
0.10219658
0.95607764
0.26484171
-0.99334395
-0.68201262
-0.054565374
-0.18850935
-0.084251463
0.016174568
-0.37950784
0.49316937
-0.2036873
-0.13395238
0.26219293
-0.26894617
-0.48818254
0.46391556
0.010198549
-0.14783362
0.5034582
-0.32671773
0.11316542
0.6829766
-0.50612968
-0.76110983
-0.31108624
-0.79482812
-0.41974175
-0.069135547
-0.39641356
-0.29977709
0.31032801
-0.18923536
-0.10596064
-0.6141659
-0.36726496
-0.31489339
0.02550441
1.1454043
-0.43420705
0.35131812
0.066086657
-0.064186536
0.4058665
-0.23428087
0.5407055
0.80610454
-0.99814814
0.35592589
-0.52399021
-0.27128765
0.49778545
-1.4696639
-0.041389376
0.59972197
-0.20947513
-0.15214658
0.082775086
-0.24662058
1.2505891
1.1998811
0.46327257
0.0008384909
0.76923627
0.068490006
0.61466044
0.61257046
0.66989326
-0.21578047
-0.42713192
-0.19184825
-0.37994623
1.4581048
-0.60510677
-0.25646824
0.83347154
0.93730378
-1.031096
-0.0055617448
0.94650722
0.60068893
0.19534546
0.17914821
-0.20290247
0.48726457
-0.37989968
-4.3093619
-0.36186233
-0.61109316
0.45570594
0.26684511
-0.40295598
-0.44024605
-0.077670857
0.88819116
-0.53046912
-0.77331084
-0.17606434
-0.38569877
-0.19126692
-0.56725305
0.67646813
0.26920384
-0.73956007
-0.19118328
-0.37761277
-1.5255722
-0.19646867
0.19611105
0.17438827
0.021366905
-0.50011319
-0.25816718
0.41432184
0.64867127
0.6007843
0.49572638
-0.48716313
0.95612419
-0.068296507
0.076663844
0.14046593
-0.72057039
0.42383969
0.54230821
0.2394527
0.37704724
-1.067355
0.70633644
-0.47031879
0.13151969
-0.141408
-0.12887181
0.096607171
-0.28936628
-0.052718438
0.62164301
0.043366347
-0.542283
0.32228565
-0.58222687
-0.023268549
0.080379218
-0.25125694
-0.12014418
0.17100701
-0.31584153
-0.39761537
-0.46091723
-0.1335257
-0.035232086
0.13174462
0.22943099
0.028705994
-0.38933656
0.55376679
0.60632026
0.46167243
-0.13480894
-0.88012481
0.41018325
0.22016376
0.3074652
-0.10231001
-0.0048716334
-0.00097983377
0.71052301
-0.04893725
0.33276173
-0.32064766
0.21532232
-0.19081296
0.029526837
-0.050829273
-0.11034284
-0.33648261
-0.27720171
0.3209289
-0.10603281
0.091952726
0.17150591
0.39330277
-0.027991273
-0.027610019
-0.62243789
0.25855261
-0.013541155
-0.12906797
0.40875924
-0.035684098
-0.18889645
0.092055231
0.317415
0.019664574
0.026786327
-0.36627743
-0.027033994
0.10362372
0.36131606
-0.29718864
0.20862758
0.084427088
0.385867
0.0087681776
0.10718121
-0.11420407
0.45692956
0.217296
-0.14670165
0.040556267
-0.36788896
-0.16827945
0.30573443
0.12798198
0.047270034
-0.16040145
0.028471492
-0.11265356
0.080254488
-0.091564409
0.044816431
0.0699417
-0.0012331547
0.33111173
0.43318892
0.18231137
0.10479335
0.098835178
0.18036003
-0.0035198708
0.025338219
-0.12260646
-0.012991712
0.71952599
0.38558549
0.60633826
0.36949712
-1.0601833
0.44322729
-0.39568493
-0.29593259
0.36323765
0.16227555
-0.089448169
-0.12798215
-0.34136519
0.023475993
0.16593209
0.037243124
-0.42594194
-0.71865201
0.079256557
-0.35768884
0.2857779
-0.32800293
-0.72499043
0.0030689123
0.44171751
-0.49949044
0.084481865
-0.02096983
-0.19429901
0.79044276
0.26166233
-0.19777067
-0.18596412
-0.36968493
0.11903322
0.37429193
0.063859589
0.15475662
0.45555589
0.17460057
-0.99186248
0.075535804
-0.18454285
0.031619396
-0.66525513
0.44304952
0.64482236
0.25677827
-0.48711443
-0.30527407
0.71766549
0.10490628
-0.18574218
0.024545627
-0.79157239
-0.064136826
-0.14493304
0.30482331
-0.67380697
0.89423656
0.085085474
0.42376938
0.45708621
-0.17673226
-0.075209253
-1.2029518
-0.37934583
-0.59962273
-0.34801301
-0.71411836
-0.67082077
0.53890949
0.11093771
-0.2589713
0.6294933
-0.64558941
-0.11937042
0.41566038
0.71196777
0.088066816
-0.012775122
0.29619259
-0.18190724
0.21426578
0.1994383
-0.80563474
-0.1734712
-0.36387971
-0.47805917
-0.048430383
-0.14863494
-0.5985443
0.94645709
0.045365516
-0.23786709
-0.01596682
0.0046222983
0.33250386
-0.36347985
-0.19371244
0.41159207
0.29431435
0.20231737
-0.056237772
-0.22688313
0.38187745
-0.94759065
0.15574469
-0.38929269
-0.20906866
-0.27629256
-0.29141751
-0.12104441
0.76796836
-0.1159251
0.038444705
-0.63502175
-0.01932705
0.28333893
-0.1145155
-0.57564491
0.31407875
0.63822424
0.47021142
0.31561288
0.021944752
0.67135864
-0.064221218
-0.29755545
-1.2865776
-0.91328621
-0.30986401
-0.069160886
-0.1196419
-0.4326334
0.3655642
0.60223186
0.45318389
-0.44487014
0.10710117
0.28236666
-1.355395
-0.11464705
0.69807661
0.76933217
0.23743592
-0.080646425
1.0891129
0.12747733
-0.3102276
-1.3271435
-1.0997636
0.27639577
-0.091020882
0.051336579
-0.61244369
0.10834105
-0.22964461
0.62229365
-0.67089707
0.21052805
0.64854985
-0.47189081
-0.12699455
-0.17871237
0.3056685
-0.32403794
0.65429121
0.74362212
-0.0082718842
0.35043207
-0.40807462
-0.57411456
-0.08528886
0.14918777
-0.7904861
-0.13408272
0.054200314
0.012351357
-0.27420607
-0.019805698
0.33432174
-0.023127563
-0.45283002
-0.052875895
-0.11161387
0.31323829
0.020376123
0.37250638
-0.01230548
-0.56510645
0.12184826
0.29618061
-0.17969586
-0.52406502
-0.22049062
0.25982857
0.42575306
0.094791621
0.078542069
-0.60281885
-0.47247678
0.61727858
0.1524563
-0.3113673
0.38406152
0.17050906
0.12390237
0.6055305
0.31758705
0.08260376
-0.4863458
-0.46913263
0.16748703
-0.31706902
-0.078985453
0.19273935
0.1406133
-0.010639832
0.21941845
-0.46946555
-0.20548014
-0.24403192
0.23079686
0.34901813
0.18607451
-0.37539127
0.38916716
-0.15747188
0.27360973
0.28144768
-0.34369597
-0.5197531
-0.96049857
0.095216073
-0.15556346
-0.27113479
-0.4246507
-0.084148325
0.47176743
0.090976268
0.23714124
-0.41532969
0.094976418
0.22290315
-0.10492279
0.19303046
-0.42796448
-0.24071199
0.026496537
-0.31213322
-0.28930271
-0.37188074
-0.54319918
-0.49802831
0.028089987
0.086903915
-0.19734466
-0.06855008
-0.26713273
0.064978823
-0.25106084
-0.085123919
-0.56787652
-0.052565806
-0.054142237
-0.15925856
0.58135611
-0.11886705
0.038716722
0.20998131
0.26422596
-0.014116188
-0.35977679
-0.27172756
-0.15034872
-0.62151605
0.18205212
-0.20843887
-0.37225354
0.45164502
-0.030833188
-0.029635029
-0.61138934
-0.27991661
0.26255614
0.11192796
0.1134676
0.38231051
0.13575962
0.1209429
0.58893466
0.030590137
-0.014742065
-0.12787254
0.22714514
0.1925509
0.27977398
-0.26284128
0.031706404
0.0051679164
0.27877912
0.094552226
-0.055191495
-0.31185064
-0.20017666
-0.12735465
-0.085890524
0.32160956
-0.043050785
-0.47571445
0.20354459
0.012335214
0.090785719
0.03017772
-0.41456631
0.025199354
-0.10497268
0.08985097
-0.18385559
-0.27294999
-0.087188445
0.089769714
-0.096610084
0.038621351
0.018501827
-0.11106524
0.26033264
-0.11597971
-0.11796728
0.0099375462
-0.12791929
-0.017245438
0.073113017
0.039166205
-0.07523004
0.25145978
-0.38984925
0.036825679
-0.075298809
0.088525593
0.25385666
0.10880118
-0.11974168
0.20118016
0.049917083
-0.098639883
0.19677407
0.24119638
0.016423896
0.051967148
0.040778153
-0.018001588
0.054063898
-0.0146627
0.081999041
-0.060609125
0.087163128
-0.16284813
-0.28363958
0.22418003
0.02527565
-0.052356068
0.25149414
0.15455064
0.48187977
-0.0093926266
0.092219479
-0.70586836
0.078558475
0.23083742
0.33404002
0.57197446
-0.14903933
-0.079593182
0.084785126
-0.070697077
0.25680757
-0.069891036
-0.10688628
0.33775586
-0.38460514
0.1767595
0.21158561
-0.50535578
-0.36329308
-0.23763198
-0.20305605
-0.12286422
-0.14046769
-0.092532054
0.11003497
-0.42745367
-0.070090286
-0.27984831
0.27610031
-0.11380713
0.18795231
-0.059130367
-0.3944833
-0.89572698
-0.27674285
0.38753173
0.92873901
0.16914439
-0.3914018
-1.3112265
-0.36854234
0.037225407
-0.64083022
0.088894755
-0.27073652
0.22237717
0.027693834
0.56135738
0.72767204
0.35029465
-0.54230624
-0.20415291
-0.31380585
-1.4662614
-0.10635333
0.37466145
-0.12611549
-0.1207921
-0.020728404
-0.4279182
0.23215711
-0.8961938
-0.26066318
-0.17481415
0.2499081
0.15754494
0.16691366
-0.18858492
0.92148328
-0.13683821
-0.16847758
0.30875272
-0.077687182
0.016216237
-0.50723964
1.1449908
0.10376099
0.020814823
0.41142598
-0.28103527
-0.032571714
1.3333951
-0.11874503
0.15793495
-0.26661143
-0.44911131
0.096516132
-0.0165646
-0.05032837
0.22550559
1.4330544
-0.81145751
0.16801417
0.051220056
-0.24708444
-0.41881686
0.49841335
-0.63912886
-0.68045896
1.0312243
-0.16521615
0.91073
0.49122989
-0.46612337
0.28320938
-0.014703769
-0.4216181
0.36391544
0.022719126
-0.093805693
-0.31811002
-0.66446453
-0.31345421
0.19888991
0.25394672
0.36911827
-1.6594907
0.10216495
-0.15765244
-1.0325437
-0.62928009
0.40207636
-0.39074022
-1.1822997
-0.51392007
-0.34028825
0.065213442
0.019928861
-0.75129783
0.56622696
0.26204056
-0.58719122
-0.70297968
0.18520042
0.14732465
-0.31797072
-0.2077969
-0.56106377
0.47293058
0.37013212
0.22510813
-0.57193768
0.0060892706
0.76108527
0.025874984
-0.53765827
-0.13250501
-0.058296666
-0.070682317
-0.042537179
0.48653233
0.0039987606
-0.33331895
0.11256857
-0.55819672
0.098938748
-0.19315891
0.23651339
-0.33414593
0.42575118
0.82160795
0.78607476
0.31414109
-0.37257433
0.44283959
0.41169763
0.024833012
-0.21040761
0.30660874
-0.28309643
0.54662019
0.19507682
-0.2150532
-0.081948675
0.0076730354
0.23224999
0.14810616
0.10667767
-0.073884331
0.32153809
0.45724085
-0.56773525
0.1679174
-0.48917833
-0.059576426
0.075920627
-0.002530402
-0.32314879
0.1212467
0.21401812
0.19030693
0.17974129
0.37516358
-0.069677524
-0.53308421
-0.14956713
0.072653912
-0.036177054
0.076317124
-0.61335516
0.88753343
-0.10354243
-0.028028019
-0.17694311
-0.61904263
0.26010683
-0.1088765
-0.35662639
-0.12137213
-0.18072385
-0.17752334
0.25037169
-0.38386881
0.36633697
-0.084244266
-0.17118065
0.015067504
-0.40336603
0.019346135
-0.32501167
-0.080279902
-0.26603064
-0.47407499
-0.0015740874
0.24928419
-0.079111919
0.34622738
0.31110138
-0.04265492
0.36693957
-0.1139701
-0.15637168
0.002015033
0.50807977
0.16006885
-0.34114575
-0.059154924
-0.013576362
-0.10696088
0.11934358
0.018275401
-0.048174605
-0.83611774
0.19467962
0.18709183
0.26649597
0.17495446
-0.17382029
0.058811288
0.16995956
-0.2160878
-0.027458197
0.068091303
-0.49906975
-0.025870176
0.26697937
-0.23208044
-0.14963062
0.13896644
0.15302864
0.22191443
0.19146743
0.0098598609
0.61754072
0.20729858
-0.075343564
-0.49629194
-0.38006005
0.13994899
0.087446004
0.080791734
-0.033433203
-0.22620699
0.03553817
-0.30810842
0.059787028
-0.25838137
0.16810295
-0.23826136
-0.062788911
0.72457027
0.29873258
-0.17241263
0.083611377
-0.70436126
-0.12227912
-0.024367876
-0.11921576
-0.45503396
-0.12445716
0.32975152
0.18681104
0.16573438
0.15103254
0.062321179
-0.37280133
-0.16234018
0.19550733
0.44566685
0.13271032
0.031548355
0.33215204
-0.03919204
-0.082182668
0.12249784
-0.3841106
0.65262979
0.003599368
0.059381634
-0.5125345
0.41206148
0.035488285
-0.061480373
-0.13243076
-0.15793756
0.1099816
-0.13560134
-0.011684057
0.22772469
0.15478745
-0.49330375
-0.64362091
-0.0064435275
-0.15055558
-0.2406822
-0.87678212
0.053162996
0.38069791
-0.17842807
0.28226608
-0.22585098
0.51983786
-0.20116958
-0.29806179
0.07452409
0.15242438
0.80500448
0.070923612
0.046923388
0.16401437
-0.14612167
-0.21148558
-0.26723656
0.13566872
-0.3108905
0.029107079
-0.44752827
-0.11670922
-0.012419146
0.021811217
-0.32814527
-0.28919366
0.005507736
-0.22440003
-0.3863956
-0.13576129
0.13383059
0.22550569
-0.14908659
0.24861343
-0.26175585
-0.28206095
-0.39246252
0.43404976
-0.38892305
-0.19277801
-0.085835516
0.34068114
-0.54469275
-0.98301423
0.016719192
-0.39945522
0.46887916
0.3498061
-0.61906034
-1.0247021
-0.49227431
0.060945489
-0.28540915
0.13233225
0.32534596
0.0003881868
-0.60603815
0.11843764
0.15081805
0.28581771
-0.060680009
0.55130309
-0.51307708
-0.17548507
0.66030419
0.26647446
-0.67829144
-0.051776271
0.11554039
-0.52904493
-6.4334505e-05
-0.16288234
-0.0057674539
0.15844485
0.72500718
0.089236118
-0.29916304
-0.43983498
1.1922051
-0.33560508
-0.21993867
0.58885652
-0.13083015
-0.35035452
-0.18063889
1.6958821
0.16079399
-1.4352943
0.53253359
-0.037829887
-0.7457062
0.40536618
0.6277914
0.23275678
0.57238555
0.53469861
-0.76259691
-0.00058243726
-0.37362429
0.13471545
1.174504
-0.080274917
-0.3092154
0.19442803
-0.17436238
-0.38423654
-0.31193075
-0.3664169
-0.92541713
0.84239984
0.49265951
0.49996519
-0.35801169
-0.42099032
0.54115087
-0.68792707
0.28225121
-0.57080716
0.17980719
-0.059071328
-0.58360744
0.52643532
-0.31799257
0.18093506
-0.16693006
-0.10901123
-0.11622074
-1.1373624
0.17344554
-0.19199735
0.28940636
0.32233173
0.17761558
-0.92392302
-1.9198229
0.31533089
0.028617384
0.35036322
0.07541015
-0.15347101
-0.50004971
-1.0519831
-0.88224882
-0.49127474
0.17697713
0.1584765
-0.70160705
-0.20968556
-0.13438417
-0.32855269
0.1226386
-0.11826224
-0.0081520341
-0.26334959
0.56441379
-0.055996757
0.31986836
0.077718496
0.3592988
-0.016273515
0.019026628
-0.072110683
-0.53983516
-0.17039375
-0.086532921
0.041554574
0.012509461
-0.26277873
-0.51713187
-0.19730008
-0.16938388
-0.4756462
-0.32599688
0.10574079
0.24557899
-0.45608914
-0.23204552
0.22099814
-0.20278884
-0.11515424
-0.13853778
0.099892206
0.13990456
-0.061381605
0.48051327
-0.25716302
-0.23934166
-0.26571524
0.11601573
0.12471927
-0.46919569
-0.20077009
0.26499051
0.0052669896
0.24941637
0.41902366
-0.66144526
0.29761532
-0.071202174
0.57508886
-0.32778582
0.069868751
0.06984932
0.10325567
0.55454957
0.28475514
-0.49072269
-0.23625197
-0.25846991
-0.18578428
-0.63873035
-0.47679019
0.044066466
0.18726584
-0.18918455
0.17466116
0.085847683
0.028802985
-0.07609918
0.049342155
0.12132412
-0.5075177
0.33519003
-0.07043197
-0.38986498
0.46969524
-0.12403008
-0.30469567
0.06373471
0.17369172
0.091553189
-0.67896992
0.46513984
0.28802383
-0.14118022
0.58407712
-0.075418748
-0.071937218
-0.44813836
0.15102097
0.28060809
-0.27803755
0.26690412
-0.29195467
-0.061436255
0.13705552
-0.055732016
-0.20578741
0.37052861
0.065086462
-0.094478324
0.3837443
-0.28083131
0.31510442
0.0071303691
0.16255793
0.18905199
0.012709913
0.18001547
-0.01392961
-0.36342409
-0.10713407
-0.051732644
0.27652869
0.14421192
0.3015483
0.11679894
0.22828241
-0.0099810949
-0.026396971
0.27328539
-0.20420754
-0.088248186
-0.15458763
-0.20633651
-0.081902958
0.097307265
0.012937594
-0.12079196
0.11867391
0.12243368
0.21618718
0.16728804
-0.14180745
-0.069421336
0.037590768
-0.013270516
-0.35464883
0.19456567
-0.11738927
0.27157262
0.18819676
0.14857973
-0.11457998
0.1780026
0.05993674
-0.092136227
0.12255961
-0.04211669
-0.2249684
-0.013313586
-0.13924266
0.13846087
-0.16878419
-0.10829629
0.18549116
0.20094955
-0.20292741
-0.23628612
0.13883634
0.091388598
-0.15486382
0.14047988
-0.036503982
-0.10266873
0.46307015
-0.21841404
0.23124523
0.63306463
0.14375815
-0.15198517
0.64502281
-0.035440341
0.58472037
0.26040664
-0.22319211
0.12292835
0.26730365
-0.11856705
-0.10226861
-0.042478859
0.17224936
0.20003074
-0.12282334
-0.20247449
-0.45592153
0.76821947
0.11245262
-0.16355681
0.49281573
0.19256811
0.16599916
0.17964399
-0.17040592
0.78166753
-0.15730929
-0.38322896
-0.14298508
0.26565191
0.080032326
-0.12246161
0.37926644
-0.27236545
-0.1793053
-0.049431931
-0.31685713
-0.1211461
0.53179985
-0.57599813
-0.10819837
0.59371644
0.70157874
-0.16825624
0.22251302
-0.66234326
1.4886543
0.18163398
-0.27818671
0.2109746
0.26903957
-0.22082518
-0.23060407
0.22672462
-0.52527952
0.40539572
0.035158955
-0.23518246
0.068635829
0.41785255
-0.21644215
0.12117747
-0.29425958
-0.79611212
0.18841256
0.51531547
-0.57120144
1.2921085
0.30071631
0.38026419
-0.40732971
-0.045948222
-0.047438908
0.17457449
-0.89482975
-1.5087681
-0.13210411
-0.17602666
0.14427483
0.33445117
-0.31245467
-0.59433466
0.10284033
-0.7522127
-0.64993018
0.018605709
0.056037206
0.26668307
-1.0005683
0.042487819
0.24876584
0.078421503
0.24594581
-0.24877416
-0.48278794
1.3270802
0.41618824
0.55277002
0.12086425
0.19527203
1.0886289
-0.37571558
-0.016067673
-0.25967222
-0.85404545
-1.5376341
0.24071386
0.17986034
-0.22382236
-1.3979411
-0.1297702
0.48538849
-1.1204742
-0.90847933
0.29675442
-0.014899256
-1.677737
-0.96577078
-0.19327334
0.089226551
0.26097673
1.0201098
-0.24545705
-0.24192017
0.64556938
-0.27077821
-0.040844046
0.22701983
0.355093
0.63218057
-0.51487613
0.23179844
0.4548102
-0.054069139
0.15404861
0.055619784
0.053589009
0.17904553
0.65674704
0.85470748
0.30398047
0.36342058
1.026714
0.34332064
-0.60201532
-0.16550304
-0.39895293
-0.45682815
0.25922215
-0.34559545
-0.19465007
-1.1799971
-0.53089559
-0.063323908
-0.57197154
-0.46148902
-0.25795045
-0.21165122
0.24165735
-0.240568
-0.10114525
-0.079792231
0.04337693
0.80543476
-1.566186
-0.34313393
0.38706559
-0.23886256
0.29065654
0.10760524
0.15042455
0.088869564
-0.0033562542
-0.075935528
0.23894157
-0.42242104
-0.11335799
0.039319549
0.51102233
0.1956598
0.1702038
0.26375353
0.1531122
0.24604429
0.86746949
-0.051168457
-0.39606506
0.09813185
-0.10572414
0.85843253
-0.45143509
-0.021309456
-0.19443858
-0.066306323
-0.062657751
0.10289669
-0.2320732
0.019017734
-0.4005346
-0.20164776
0.5911392
0.079668432
0.23047394
0.0088112624
0.1657569
0.22228691
-0.41806817
-0.67527419
-0.12511858
0.090233304
0.7165668
-0.0012209688
-0.12596034
-0.31983235
0.13322502
-0.25019884
-0.016004208
-0.23156349
-0.47360623
0.16016531
-0.15341796
-0.051987663
0.35070893
-0.16957405
0.032184821
0.044175308
0.37336114
-0.1811513
-0.3677671
-0.024569787
0.07794407
0.47216722
-0.1265666
0.044471562
-0.2153068
0.48153132
0.12549858
-0.18130887
-0.19135165
-0.060181815
-0.19498736
-0.25765499
-0.021376884
0.11834618
0.23981443
0.42674792
-0.053199455
0.17036866
0.038962334
-0.47714761
0.10629939
0.089348219
-0.22038171
-0.16360864
0.1855907
-0.24870749
-0.1335198
0.026897905
-0.16477895
-0.50394607
0.19641218
0.67957562
0.084637046
0.047328033
0.068852961
0.15097739
0.11076814
0.17019942
0.15581785
-0.20360959
-0.62170726
0.26372412
0.04305857
0.15987676
0.24407984
0.14480793
-0.1810645
0.089326762
-0.042177223
-0.033482652
-0.28428787
-0.042172056
0.28528669
-0.26189941
-0.21021353
0.24437879
-0.011110936
0.17490277
0.19635597
0.16850749
-0.18904974
-0.4516305
0.29699552
0.10470626
0.008425856
-0.00026414153
0.027658336
-0.26114124
0.16317581
-0.1501071
-0.45867574
-0.12118415
0.032293729
0.19734481
0.18795715
0.20257165
0.32191247
-0.04831183
0.1648837
0.24679354
0.28321826
-0.44354743
-0.42240843
0.2213072
0.11572838
0.13963318
0.065422103
-0.043179996
-0.56611747
-0.053427663
0.002413888
-0.30633262
-0.25386667
-0.21218623
0.16458647
-0.015203855
0.46629983
0.15811124
0.33715719
0.38514659
0.13167275
0.28028032
-0.44601867
-0.88503546
0.57259655
0.097230554
-0.27432588
-0.12229268
0.047645539
-0.25482213
-0.22920404
-0.23348024
0.019535284
-0.21627642
-0.17611921
0.1716484
-0.14364877
-0.066738829
-0.073866807
0.28602964
-0.0077500981
0.077239901
0.045198973
-0.42988366
-0.37589502
0.29819322
0.17344399
-0.13867289
-0.24017173
-0.31705827
-0.023310708
-0.55388546
-0.52181715
-0.48507369
0.060321655
-0.69818687
-0.35642496
-0.01666067
-0.50283068
0.17266671
0.15184835
0.18443917
-0.12293767
0.011805386
-0.30443984
0.089934774
-0.46300498
-0.62051159
-0.30316067
0.080290928
0.11916515
-0.0053317286
-0.23694015
-0.70377606
0.2639398
0.039005637
0.28892502
0.048245035
0.28877568
0.021787575
0.1490752
0.61815578
0.15921381
-0.14333925
-0.04145547
-0.17643
0.23149571
-0.14995907
-0.53557366
-0.0040084776
0.32808542
0.10904372
-0.06304729
-0.37814921
0.025114723
0.020826716
-0.17099288
-0.28661296
0.15281761
0.26975799
-0.25499746
-0.16783771
0.34020558
0.2502158
-0.21892673
0.20594449
-0.055462379
-0.52407354
0.080751032
-0.61840975
-0.12212611
0.24503127
0.15448672
0.19197267
-0.72857815
-0.05641026
-0.18488047
-0.23308417
-0.5409919
0.10387442
-0.32800981
-0.67910129
-0.48457822
0.12205395
0.32117057
-0.0027340678
0.13073023
-0.28802395
0.2421317
-0.37276021
-0.47351834
-0.42603403
0.11469179
0.036727302
-0.55623561
-0.2816489
-0.45569801
0.32990074
-0.17774402
0.23331402
0.25447103
0.064968377
-0.568959
-0.14637505
0.32522589
0.43778864
-0.26792753
0.10317212
-0.15398777
0.65680271
-0.56550473
-0.84115958
0.24043785
0.021299249
-0.34331352
-0.27133444
-0.71588659
-1.2962651
0.29167262
-0.16618019
-0.58937407
0.00085779466
0.53070867
-0.41694251
0.20646209
0.68274003
0.47183779
-0.12529446
0.27972531
0.015839089
0.12406289
-0.33842364
-0.74850643
0.0517404
0.1331291
-0.30828691
-0.16203266
-0.40328151
0.024365006
0.050231092
-0.21895446
0.10790211
-0.43625632
0.2686913
0.10584353
-0.067410827
0.6056596
0.41914657
0.15959157
0.57141924
-0.025656838
-0.20628732
0.14976223
-0.33247158
0.31486779
0.087684922
-0.49318603
-0.0038507082
-0.33370784
0.27114794
0.2675797
-0.19378541
-0.17142314
-0.3290973
-0.19380346
0.10034169
-0.22519422
0.36442688
0.63898808
0.35927886
0.25411093
-0.17190683
0.25186738
-0.74748582
-0.9997896
-0.36223149
0.072908774
-0.079104163
0.080697589
0.13420612
-0.28508112
0.25229594
0.24579406
-0.96593732
-0.038445294
0.22889656
-0.2766785
0.055129915
0.55829477
-0.051962528
0.22628108
-0.082986519
-0.62861478
0.18585743
-0.40863958
-0.81869197
-1.0010782
0.1944533
-0.27505222
-0.8401857
0.035070457
-0.65148234
-0.13342914
0.31558579
-0.822465
0.082025923
0.089691482
-0.75684607
0.14104028
0.1175561
-0.28443331
-0.26315406
-0.4143064
-0.71279144
0.27020621
-0.32377988
-0.025084073
0.23285854
-0.097610153
-0.063323215
0.064669453
0.040000252
0.25127441
0.27022088
-0.23191895
-0.33392277
-0.022300543
0.0082723014
0.32820344
-0.052897457
-0.23215058
-0.072738402
0.19443826
-0.21004951
-0.52513212
0.071482979
-0.19852343
0.0055217156
-0.079284251
-0.25135979
0.14839272
-0.41514331
0.18040615
0.22272387
-0.37866396
0.11555821
-0.3030059
-0.055936716
-0.18913445
0.18297003
-0.2171481
0.12904693
-0.29230428
-0.22426715
-0.21122594
-0.47306055
-0.2325519
0.25859413
-0.049667835
-0.33437413
0.093529366
-0.29492283
0.15110095
0.19275236
0.11247986
0.15109865
-0.52334619
-0.32456902
-0.078081511
-0.15293814
-0.21908896
-0.52684605
-0.12362582
0.031463027
-0.29911765
-0.063752621
0.015460982
-0.099629462
0.20753121
0.037482612
-0.22681233
0.55300099
-0.10477734
0.1079916
0.10810209
-0.34648237
-0.21058078
-0.12619221
-0.038873933
0.1580912
-0.20424657
0.18399826
-0.35085052
-0.092472136
-0.17348705
0.36244869
0.11665826
-0.35990444
-0.24193151
-0.14669824
0.22542471
0.27567863
0.065659039
-0.29688835
-0.59845746
-0.31439769
0.078273647
-0.52087921
-0.34029341
-0.29164845
0.26695308
-0.19621614
-0.00053322985
0.63358432
0.21615762
-0.029699991
0.34843498
-0.22175322
-0.58458287
0.18807124
-0.44589105
0.42624822
-0.40234947
-0.030186374
-0.19070803
-0.55898273
-0.50157547
0.098275214
-0.041163489
-0.055631626
0.10083011
-0.85188186
-0.14503321
0.10952317
-0.079740837
-0.1568093
0.37091011
-0.23931304
0.20465961
-0.90386873
0.33808872
-0.61529821
-0.7249797
-0.14817487
-0.27047405
-0.19601585
-0.33604032
-0.40794757
0.11074399
0.088644467
0.14250299
-0.90574765
-0.011555262
0.26656398
-0.65793937
-0.39516333
-0.30207026
0.093958281
-0.28182286
-0.06707488
-0.55531245
0.29278126
0.27869549
0.25740615
-0.10163731
-0.39533383
0.53819442
-0.29790974
0.49346727
-0.66847187
0.25723705
0.52563244
0.090812415
-0.074154958
0.150832
-0.17421731
-0.38585883
0.60288346
0.043458987
0.60177529
0.20998818
-0.43864751
-0.24725538
0.26893857
0.32708135
-0.033500459
0.085890561
0.3477419
-0.45826542
0.05594629
0.37295732
0.30099007
-0.71723163
-0.28181595
-0.027122734
-0.19828515
0.71526772
0.17523408
0.44970238
0.37940866
0.46241802
0.39165354
0.62261468
0.4358952
-1.0375828
-1.1248302
-0.7462793
0.25628144
-0.046329763
0.57571524
-0.54234797
0.32913798
0.24999714
0.0050681233
-0.41956496
-0.032851253
0.24687096
-0.64711559
-0.89753526
0.42938644
-0.08174783
0.085032664
-0.14417966
-0.18297653
0.3091816
-0.12534404
-1.1160113
-0.68423963
0.59761506
-0.63146424
-0.18851653
-0.6734727
-0.75333518
0.19231132
0.71120471
-0.8797673
0.90630889
0.23238026
-0.67259336
-0.26356578
0.15635185
-0.61310667
-0.266938
-0.24226148
0.11686642
-0.16215418
0.18298662
0.70617014
-0.10028937
0.071119644
0.49912578
0.10554147
-0.20612407
0.095650397
-0.6550715
0.522062
0.36301842
0.60016
-0.12679972
-0.48325142
0.19141464
-0.049012665
0.18891318
-0.032695659
0.097852759
0.26571462
0.057552602
0.73424447
0.40622175
-0.19838274
0.049540292
0.38379675
-0.27383316
0.14389271
-0.038463719
-0.04651548
-0.39931434
0.14243983
0.26278397
-0.37069991
-0.46626788
0.25378561
-0.30224827
-0.0037136201
0.46062878
-0.079878323
-0.2676653
0.9080947
-0.37715754
-0.10827309
-0.12433256
-0.22998048
-0.20690124
-0.52650994
-0.29187697
0.36816943
-0.24494626
0.33320487
-0.0025749954
0.12657394
-0.17797601
-0.7267729
-0.23485738
-0.24636649
-0.053124368
-0.029317351
0.13262013
-0.0010000509
0.17295431
0.21613143
0.28337994
0.10600867
0.42958835
-0.056843523
-0.27457419
-0.023161728
0.017941369
0.62916535
-0.088577278
-0.12256337
0.36080983
0.51667768
0.11792746
-0.060255367
-0.5502789
-0.38089654
-0.081086896
-0.24662416
-0.50015938
-0.49238542
0.13007987
0.032905851
-0.26783246
0.22469756
-0.05502069
-0.30077368
0.28139946
0.29421929
-0.034667101
-0.29891935
-0.0077420981
-0.52738011
0.23402941
0.26465631
0.16264287
-0.14313342
0.15726735
-0.43303141
0.68156272
0.61985934
-0.75687051
0.042659417
0.48253071
-0.76873964
0.49045268
-0.25230449
-0.1552816
0.4516131
0.24763544
0.18635751
-0.7857945
0.12061496
0.081445724
0.080130398
0.32732147
0.29260528
-0.17590028
0.25166559
-0.12693746
0.55975229
0.8120774
-0.76556289
0.49283466
0.20279491
-0.33538449
-0.08172863
0.19235612
-0.20621426
0.96024674
0.24961966
-0.13155179
-0.51262414
0.060912281
-1.1544625
-0.16146621
0.81995845
0.089525707
-0.083083302
-0.050633766
-0.14914969
0.95668811
0.7928018
-1.4373938
0.24559854
-0.078790531
0.52300841
-0.080385499
-0.84320432
-0.99816227
0.78942144
1.066648
-0.31673703
-0.33728403
0.26186919
-1.1504537
-0.077002011
0.39327881
0.4357802
0.38722345
-0.42662296
-0.2289713
0.24045263
-0.01214189
-1.2708648
-0.19451076
-0.18694596
0.6775521
0.13039984
-0.68296576
-0.4531197
0.73147815
0.13063379
0.11314739
-0.1374044
0.20285542
-0.88270354
0.28657705
1.4290489
0.2296197
-0.49763042
0.08898434
-0.15228321
0.73656607
0.28959584
-1.47277
-0.35734987
-0.0851679
0.68032825
0.38200706
-0.8282252
-0.8925392
-0.065836661
0.50568181
0.24316284
-1.0500768
-0.43000454
-1.0476578
0.30217594
1.579133
0.071604297
0.4226782
0.23969825
-0.081977889
0.16823107
0.057074238
-1.2278104
-0.48654017
1.1323497
1.2482551
-0.5349732
-0.95601618
-0.3594138
1.0878099
0.20225532
-0.33406156
-0.83180481
-0.18718326
-0.81912541
-0.036378261
2.3224678
0.36630598
-0.39617541
-0.038404945
0.1515546
-0.049608901
0.010782572
-0.1273814
-0.51445407
0.96725494
1.1925118
-0.63445866
-0.78832662
-0.22486359
0.39299077
-0.10401627
-0.74844652
0.31518447
-0.65707499
-0.67680997
-0.66798717
2.0034001
-0.17080836
-0.16569337
0.2362791
-0.36377278
-1.0832465
1.5149106
-0.10598805
-0.32535088
0.35464469
0.90573412
-0.24390949
-0.12942116
0.019729834
-0.086841621
0.046942785
0.10279998
0.12544753
-0.085026927
-0.28826642
-0.01920883
1.5674809
0.64698994
-0.26198691
0.13891208
-0.50840467
-0.95840889
-0.81276178
-0.10615184
-0.13532738
0.21669351
0.84904277
0.10564177
0.60195804
-0.20332402
-0.010742205
-0.14970277
0.036747713
-0.28035837
0.45229873
0.032565769
0.26413065
0.32132173
0.011332158
0.59087443
0.010383991
-0.11150156
0.16821177
-0.37981549
0.26899278
0.27693936
0.18120944
-0.21221432
-0.075702794
-0.28078917
0.37303773
0.074165523
-0.10978301
-0.3063727
0.04499479
0.07338161
0.11093826
-0.1776461
0.46930277
0.08354219
-0.3830125
-0.083754703
-0.23992327
0.4601019
-0.28012621
-0.66469997
0.14517526
0.093306102
0.19909926
-0.086710215
-0.43505967
-0.19533268
-0.33306089
-0.0039729034
-0.21969981
-0.39257735
0.30702287
0.24760492
0.013888801
0.083572209
0.019432176
0.057961978
-0.15593284
-0.30438423
0.3318567
-0.20313968
-0.32377583
0.08683417
-0.38186359
0.22411279
-0.015311329
0.33826619
0.075990207
0.080369458
-0.47686997
-0.55891633
-0.0054172603
0.23727174
-0.32562327
-0.1816929
0.28540713
-0.22616315
0.21735428
0.14103903
0.36539787
0.25281733
-0.55263227
-0.031895876
-0.34537414
0.21448328
0.18571746
-0.022735033
0.40930629
0.093483202
0.22917171
0.032814417
-0.42728254
-0.1240073
0.12036429
-0.46414572
0.17182142
0.1915253
0.047389738
-0.64202535
0.5493511
0.34940824
0.58517641
-0.0068465774
0.50564301
0.27132139
-0.64144886
0.71676689
0.034705542
-0.43685246
-0.040715903
-0.10154683
-0.30262002
-0.34712467
-0.75997031
0.24749771
0.19757052
0.021147065
0.02648719
-0.16658118
-0.52945477
-0.36656547
0.12494829
0.33023146
-0.32152501
0.19016249
-0.0012403826
-0.12932308
-0.045698043
-0.013610405
0.039087981
0.14172864
-0.16740872
-0.043514501
0.064163975
0.071193665
-0.063307643
0.030991625
-0.10400105
-0.077989161
0.0090297004
-0.16426529
-0.055234719
-0.052966002
-0.092989393
-0.17176943
0.30774856
0.019553639
-0.063457958
0.076986358
-0.011378381
-0.053905141
0.060729891
-0.37522528
-0.079060033
0.17714012
0.20447528
-0.14037132
0.094887093
-0.05240728
-0.14446802
0.14086995
-0.13831873
0.064346477
-0.13039026
-0.21810442
-0.09271352
0.30597574
0.033376198
-0.017431147
-0.096109301
0.031344607
-0.0090126423
0.027917249
-0.11697219
0.023183515
0.11933906
0.23855944
-0.027605016
0.1106768
-0.015514958
-0.16738948
-0.11502711
-0.21004292
-0.048976291
-0.039770097
-0.21346186
0.01747831
0.37542343
0.175336
0.076708466
-0.1579387
-0.084566064
0.062289972
0.01290844
-0.17619438
-0.04494264
0.17197673
0.32832962
