0.22216579
0.44693094
-0.059706084
0.019667177
-0.10401276
0.13625497
0.68190551
0.059382863
0.73841941
0.53754652
0.33987421
0.32354927
0.58173227
1.150689
0.3362239
1.0472062
0.6821388
0.78260249
0.71243614
0.20478286
0.4758884
-0.52033377
0.68598908
-0.024384927
-0.84237081
-2.818253
0.64423108
0.59044838
2.8903379
-6.448276
-0.65731084
-0.0042430959
-0.28386235
-1.8742932
0.11946893
1.2581956
0.036695279
-0.16632748
-0.075306661
-0.61783183
0.27465111
0.57531714
0.44402006
0.01403401
0.21302953
0.053396005
-0.49267685
0.26824141
-0.021778807
-0.11121919
-0.14889902
-0.21291086
-0.071561567
0.10692149
0.29227287
-0.61033446
-0.18000066
-0.34789422
-0.38861609
0.35729176
-0.47137874
0.50133455
-1.5519797
-0.65180433
0.068457037
-0.1029624
0.13636878
0.39158908
0.19195227
0.44627851
-0.2431525
0.17415142
-0.074006706
1.2002529
-0.0520905
0.22664419
0.54892433
0.31197596
-0.030893371
-0.26287392
-0.27810436
-0.072117411
-0.70576042
-0.095520027
-1.2561367
2.0737901
-1.1801324
-0.43149805
-0.013865414
1.381053
0.20639235
-0.18335931
0.99650419
0.83320665
0.48702723
0.0034962306
0.95180231
0.2970933
0.48310611
-0.022286961
0.51396972
1.0069413
-0.30191907
0.30534345
0.37059885
0.69232291
0.25844711
-0.034996513
0.2139754
0.10212139
-0.15234691
-0.075814232
0.13980727
-0.12365384
-0.28870919
-0.10401706
-0.48719308
-0.40206882
0.31014884
-0.43149334
-0.56756687
-0.11558598
-0.67713636
-0.55425262
0.028632322
3.3256242
-3.2874863
-1.1879849
-0.35001653
0.29532629
-0.53035384
-0.024424434
-0.37286165
-0.098735318
-0.25041562
-0.22656529
0.019476915
-0.13012773
-0.43287292
-0.4844031
-0.40843803
-0.2424219
-0.46738237
-0.49142852
-1.3046194
0.24932306
-0.12667158
-0.43224752
0.075689271
0.92752033
-1.1912057
0.040491153
-1.325811
1.3463289
0.42803743
0.57914633
1.5603285
-1.9769299
-2.2002547
-0.013624405
-0.31163231
-0.72395837
-2.0333033
0.8346141
-0.69078332
-2.3839898
1.9269727
-0.71109235
0.42560962
-0.97557795
1.3443964
-0.59632856
0.14470111
0.24413757
0.3465699
0.1048834
-0.053171925
0.21467364
-0.58108515
-0.24113078
-0.14786197
0.44876152
-0.43532297
0.47990546
0.071805261
-0.27617759
0.84803027
0.10273177
-0.18959247
-0.51251459
0.28113088
0.34608653
-0.12366416
0.0022082576
0.15826896
-0.0044320645
0.070345461
-0.10376208
-0.23979315
-0.24964842
-0.019605998
0.32211569
-0.0069455914
-0.30454394
0.076457702
0.15838115
0.52946323
-0.60772955
0.44134203
0.45417348
0.32674626
-0.60919744
-1.1691093
-0.17534815
0.10092146
-0.74002385
3.4734759
-3.9762964
-3.9883544
-0.13376938
6.6434112
-3.986011
-3.9978502
-0.0029500637
0.36765844
-3.3325744
-3.6274233
1.0964551
-0.43842074
-1.075621
-1.897427
-0.28211114
-0.34663084
-0.57274413
-0.70174026
-0.11169721
0.088223659
-0.20664071
-0.45347351
-0.25310299
-0.019075522
-0.44349307
-0.18405546
-0.51392776
-0.44181398
-0.3304193
-0.27975449
-0.33442578
-0.49438673
-0.39467785
-0.58664984
-0.6301266
-2.4442806
-1.7190313
-1.8300989
0.014326457
-0.48903048
-1.1111219
0.7004925
-0.36805475
-0.35843119
-0.063645877
0.87373728
-0.38979217
-0.48081478
0.16659969
0.97561127
-0.4151943
-0.32056788
0.61105323
0.4886674
-0.26381037
0.099502623
0.54592431
-0.089635707
-0.26206377
-0.39541739
0.33744368
-0.348445
-0.15633647
-0.91186017
-0.14763847
-0.17592388
0.099590607
-1.0248772
-0.70043212
-0.24291945
-0.0026297201
-0.98571807
0.34986994
0.28491196
-0.13699068
0.089592278
0.01027679
-0.42729303
0.32409847
-0.19624387
-0.35525054
0.25621283
0.056612119
-0.36375204
-0.006175275
0.22517206
-0.085170478
0.068583012
-0.086263478
-0.37763894
0.11574094
-0.42493224
-0.56454909
0.19018705
0.6015681
-0.52131099
-0.91469479
0.11231446
0.89660561
-0.5878976
-0.33323652
-0.12695187
-0.43006805
0.012641341
-0.045024756
-0.10757783
-0.36926198
0.072560653
-0.22879556
-0.10349566
-0.38235137
0.13209006
-0.26103365
-0.26597923
-0.22451951
0.2811352
-0.25801754
-0.32227188
-0.2126587
0.55267525
-0.83920038
-0.15588894
-0.097535767
0.52891958
-0.88801759
-0.33937207
-0.0097321589
0.12163558
-0.23961973
-0.42991289
0.099300496
0.062796891
0.29852906
-0.75458091
0.011382297
-0.76019651
0.36861494
-0.40005246
0.077650212
0.41946906
-1.2861103
-0.55113262
0.019527839
-0.008376305
-0.69957364
-0.43930092
-0.11815639
-0.025185529
0.16538082
-0.65845019
-0.11485011
0.042298533
0.15475607
-0.35524806
-0.19409417
-0.021626497
0.23744085
-0.33093116
-0.41724378
-0.019282844
0.21326503
-0.37869671
-0.36462438
-0.48105916
0.23661545
-0.49699932
-0.848068
0.60914075
0.92923248
0.259547
-0.53061312
-0.098852396
0.030699147
0.013965559
0.10196156
-0.31440929
-0.19203359
-0.43650916
0.51165211
0.038023978
0.1169956
-0.5053103
0.46936405
1.1382551
-0.53770077
-0.5580672
0.60714877
0.82752365
0.39741945
-0.95915407
0.2142323
-1.2287724
3.2219484
-1.1326644
-0.39674065
-2.2443566
2.325861
0.33669651
-0.0067907488
0.24518183
-0.13296087
-0.25698146
-0.59853548
0.54681146
-0.033702213
-0.1941561
1.0927107
0.29145601
0.19287251
-0.032245819
0.71583158
-0.3461836
-0.19450043
0.12951462
0.41323099
0.24360316
0.2856164
-0.50949079
-0.2721777
-0.17517664
0.026629264
0.06084957
-0.14384803
0.29869521
0.28171188
-0.28737879
-0.71276319
-0.17480236
0.27580631
0.38016713
-0.63851547
0.39550197
-0.12220661
0.65095931
0.091214061
0.22253221
0.30284232
0.34711027
0.29209289
0.54694474
0.28658134
0.38434538
-0.054728165
-0.16632958
0.40972635
-0.21420349
-0.075178154
-0.42254561
0.85043454
-0.46627566
0.012980182
-0.8240546
0.35614794
-0.17209765
0.26107469
-0.88349473
0.0073351739
0.75126177
-0.09909527
-1.6028562
0.88699549
-0.37006319
0.01270688
-1.5216954
0.26132247
0.36302602
-0.0073631592
-1.1681421
0.39742854
-0.62493706
0.68801236
-0.39032692
0.60506308
-0.56484783
0.093358077
0.58507508
-0.27704293
-0.37552825
0.30712709
-0.18009213
0.022301776
0.037500069
0.22594519
-0.22086486
-0.060084321
-0.59486043
0.1925901
-0.15023884
0.34942257
-0.82793659
0.57005882
-0.16486615
3.2604201
-2.2523825
-0.034354221
-0.32874155
0.82096624
0.056714628
-0.18776749
-0.44929466
-0.16401999
0.11437344
-0.40485039
-0.35984862
-0.49604172
-0.49106199
-0.11017578
-0.82780802
0.46518916
-0.089861423
-0.33463505
-0.43671045
-0.54650337
0.49055111
-0.37578309
-0.5221287
-0.2861155
0.61862379
-0.47568214
-1.8137895
-0.34219259
1.0801659
-0.018713241
-0.58783549
0.6895867
0.48913056
-0.0039762328
1.3070154
-1.5702577
0.58615744
0.20513044
-0.33471897
-0.36076626
0.18306847
-0.53518647
-0.86975598
0.15523924
-0.20938304
-0.6327877
-0.24540518
-0.29189461
-0.22384147
-0.48537123
0.076749913
-0.65008992
0.420836
-0.26232848
-0.3579891
0.21251795
-0.02548792
-0.57548553
-0.28228563
-0.10653968
-0.2582978
0.087360717
0.47800902
2.816211
-2.3347626
-1.4959768
-0.11833687
-0.089349814
-0.36076233
0.11384165
-0.14445318
-0.20153312
-0.28477186
0.1033753
-0.16019873
-0.30258414
-0.22063798
0.14433926
-0.011915831
-0.27349243
-0.22992302
0.10294078
0.30505174
-0.59419411
-0.22256623
0.10554211
0.26570928
-0.68237287
-0.33010921
0.13531071
0.08932282
-0.39063734
-0.29145557
0.11234214
-0.029268378
0.15002123
-0.36061087
-0.010134302
-0.43189463
0.14473934
-0.48683411
0.15566555
0.21432643
-0.68792564
-0.56135851
0.090974122
0.11528524
-0.75358135
-0.23130789
0.0016387234
0.10450964
-0.34886685
-0.26846126
0.042629085
0.097289354
-0.27654484
-0.11066822
0.044472154
0.12149544
-0.12289635
-0.25221393
-0.074446589
-0.30247939
0.12438932
-0.30698475
0.031752758
-0.22392502
0.17674099
-0.45904654
-0.076909855
-0.1349206
-0.0061830957
-0.28833398
0.04358888
-0.2430159
-0.20296971
-0.084405459
0.073550284
-0.21153779
-0.3964549
0.13345593
0.027275378
-0.11186758
-0.18609282
0.059500583
-0.00050517847
0.28095603
-0.28439888
-0.45309272
-0.022604384
0.44361508
-0.43570784
-0.63354385
-0.091958985
0.056187861
-0.4912276
-0.43008062
0.13374729
-0.38523963
0.29103523
-0.38025436
0.0019485981
-0.36193419
0.36388326
-0.87547654
0.22386223
-0.90951681
0.06697166
0.12417667
0.19870198
-0.75400573
-0.64472955
0.80346155
0.10013743
-0.56070232
-0.48967907
0.53620529
0.16161713
-0.18397248
-0.48385841
0.16321293
0.21015176
0.1348812
-0.59998465
-0.014574715
0.16686678
-0.075736359
-0.43618935
-0.12850958
0.1581461
-0.11078864
-0.41669092
-0.10731632
0.17156111
0.20250039
-0.69809222
-0.07054548
-0.36011872
-0.7582891
-0.48242202
0.22478123
-0.11599818
0.092531152
-0.27956137
-0.93588603
-0.27206853
-0.90473032
0.50935471
-0.38778162
-0.67757362
1.0738958
0.35925603
-1.8368572
-0.4975844
2.2019808
-0.46022534
-2.8032732
0.15438336
-0.15438035
-0.77884048
0.074536361
-0.15599002
-2.3846037
-0.76486588
1.3590195
0.0037581637
0.35066918
0.0046437262
-0.34804535
-0.18603009
0.84018505
0.41804218
-0.70550269
0.5317502
0.31866381
0.14987105
0.32204321
0.21390639
-0.4160932
0.40046275
-0.0053796563
-0.30741006
-0.70136338
0.62722415
-0.91009194
-0.31281525
0.29468763
-0.43109509
-0.63660997
-0.10140406
-0.50432622
-0.58836818
0.18774563
-0.055006411
0.20264757
-1.189377
-0.58408141
-1.1306001
-0.39881596
-0.014257194
-0.54777014
-0.29365814
0.19687484
-0.56371993
-0.019650303
-0.1166108
-0.14106672
-0.17455362
-0.20999748
-0.079659969
-0.69731075
-0.38461941
-0.19650255
-0.64170659
-0.24815756
-0.43159202
-0.21796273
-0.46832827
-0.33578604
-1.5334352
0.077066943
-0.28587621
0.46403733
-2.4614007
0.1454532
-0.23323223
1.8518622
-2.9305229
4.7972641
-0.0029686447
0.17406864
-1.6271582
0.92512798
-0.29887724
0.25508189
-0.3150658
0.054383446
0.08131355
-0.1393836
0.15080659
-0.069124252
-0.094243623
-0.13382675
0.1674027
0.20829843
-0.18099278
-0.12803017
0.15547153
-0.13429049
0.16025209
0.111415
-0.18454257
-0.064659938
-0.069291957
-0.021134283
-0.46941394
-0.016245851
-0.10823929
-1.5491768
-3.0371728
2.2453525
0.8561247
0.28441083
-0.57299036
0.081193663
0.093372181
0.22270487
-0.12301303
0.058020819
-0.093717456
0.28787169
-0.20933637
-0.33122504
0.14444382
0.12849322
0.22251821
-0.35683981
0.0517991
0.13476114
-0.031102583
-0.37958816
-0.23309205
-0.40162537
-0.048596971
-0.47347024
-0.32418671
-0.7443105
-0.10430714
-0.54186523
-0.30503097
1.3051983
-0.47140992
-1.1515218
0.006215435
1.6886878
-2.0470726
-0.14498363
-0.17117859
0.35928223
-0.69446111
0.28261945
-0.20763129
-0.50233251
-0.23972753
0.11351148
-0.2356264
-0.4207435
-0.45390868
-0.17935346
-0.1193221
-0.33947679
-0.2606442
-0.035896227
0.034321405
-0.3040199
0.01844018
0.12257048
-0.03338711
-0.15283452
0.084063783
-0.27713513
0.11993096
0.01992549
-0.12429548
-0.58788222
0.22421539
-0.0024726244
-0.3074933
0.043219566
-0.41445637
-0.39116433
-0.4709028
-0.31868505
0.2168722
-0.39283511
-0.35289851
-0.78938478
-0.18392922
-0.28921121
-0.08345145
-0.023834506
-0.65266979
-0.21818542
0.14749794
-0.35918537
-0.66060591
0.25791702
-0.56757724
0.9910664
0.0094369492
0.41142565
-0.19551298
0.40906593
-0.18292058
-1.9938321
-1.8602788
1.5355793
-0.0004711345
2.7869954
1.9111414
-7.1067071
-0.21746951
0.40900844
0.96940309
-3.3624158
-0.03875266
-1.6372418
-0.38123614
1.1216123
-0.31815118
0.48811173
-0.46881437
-0.90685862
-0.31760749
0.10021746
-0.43737948
0.17875598
-0.40655276
-0.87286955
-0.13108735
0.2867915
-0.39534041
0.47844002
0.48208538
-0.065257542
-0.69753617
-1.3138248
0.31509084
-0.74413472
0.0013199684
0.070929073
0.5927459
-0.21049349
-0.23222546
0.254069
-0.049166743
-0.44590819
0.18384032
0.37386546
0.16266517
-0.55268335
0.16364975
0.0079765441
-0.52722067
-0.95158476
-0.0010484601
-0.80972654
-0.77668434
-0.39860982
-0.1648201
-1.4126084
0.17449372
0.16785862
-0.48449376
-0.363538
-0.54244143
0.24965951
0.28326523
0.41724512
-1.5982349
0.014342519
-0.012643517
-0.63858837
0.34105501
-1.3966435
0.4403533
-0.66313082
1.7522379
-0.1625884
0.25212541
0.23867123
1.6820954
-0.10601973
-0.0064915493
-0.40446457
0.19208589
1.0304561
-0.21519098
-1.0136522
-0.75432724
1.0089614
-0.60163468
-0.40187728
-0.93084723
0.21536505
-0.56246114
-0.0046005445
-0.85604811
-0.037699401
-0.13224228
-0.35657209
-0.87093908
0.40734938
-0.81354237
-0.74802071
-0.79854518
-0.8568266
-0.85696512
-0.57204717
-0.6298089
-0.77326119
-0.58095807
-0.50689656
-0.50349814
-0.53370363
-0.93216228
-0.45832354
-0.45593572
-0.47777432
-0.76787674
-0.50806069
-0.58592957
-0.59616077
-0.97740155
-0.63142931
-1.2293668
-1.2949451
-0.20982198
4.9105949
-6.3938713
-3.1543331
1.0510943
5.8813767
-6.4625149
-6.6978951
0.0045265919
4.9138174
-5.1578665
-5.1841903
-0.31947437
-0.6764338
-1.3208773
-1.0910355
-0.40832949
-0.17753033
-0.44598645
-0.39048991
-0.92505616
-0.5394271
-0.50748301
-0.15002488
-0.83018625
-0.57206035
-0.52048993
-0.69864172
-0.39713591
-0.50445926
-0.5269503
-0.73592639
-0.66745168
-0.84749025
-1.1305743
-0.85866207
-0.95696568
-2.836252
-1.276409
-0.4229542
-0.10862543
-0.26005384
-0.86337739
0.80106378
-0.79078126
-0.68317568
-0.44588348
0.01602901
-0.429867
-1.0108342
-0.47346476
-0.035205744
-0.41846794
0.26376659
0.54497659
0.21137322
-0.98079014
0.54076225
0.46490476
-0.68685561
-0.53890967
0.057171836
-0.086983524
0.23037386
-0.36784762
0.075366922
0.26168469
-1.0265496
0.35786113
1.2996399
0.30918041
-2.1918011
-0.0043237619
-0.69898057
0.62649512
-0.94459206
0.883277
-0.43253484
-0.98216176
-0.47556221
-0.091402464
-0.33301777
-0.65110147
-0.44752198
0.029397467
-0.2569046
-0.34814009
0.18392582
0.27364358
0.12633076
0.66793495
0.10494155
0.36333084
0.22633627
0.20726559
0.74353677
0.1149753
-0.015125024
0.5738005
1.2354398
-0.52089667
0.54291415
-2.2216184
1.2287493
-1.474241
-0.79312932
-0.22087942
-0.45611879
-1.0546294
-0.44294018
-1.2393473
-0.26659289
-0.43068832
0.10706753
-0.53097361
-1.1911482
0.14623797
0.57236224
-0.62620348
-0.72075582
-0.49736682
-1.1160401
-0.32685819
1.2970352
-0.69136065
-0.87538737
1.1060987
0.81714034
-0.52743447
0.45336759
1.3841797
0.051887307
-0.18577984
0.75648969
-1.1030171
1.8838431
0.0097820954
-0.3890405
-0.63206214
0.87911743
-0.15523633
-0.97953266
0.03654635
-0.4990983
-0.19310017
0.6847809
0.24293904
-1.8417186
-0.35615823
0.4323802
0.69323742
-1.627468
-0.32217661
-0.082214378
0.25859404
-0.63488692
-0.47737288
0.1463173
-0.16232124
0.10505121
-0.774975
-0.068552047
0.028661419
0.63115358
-1.0014942
-0.38364756
-1.0835781
-0.26334381
-1.4315957
-0.25619808
-0.66142946
-0.48807153
-0.49089354
-0.45015192
-0.54823905
0.051538911
-0.19155754
-0.25346681
-0.47239232
0.039496217
0.095423453
-0.21670143
-0.044125959
0.51670933
-0.26939934
-0.20944481
0.28446066
0.44567111
-0.1645133
0.089410447
-0.15739764
-0.21615648
-0.11821941
-0.10741697
0.11486575
-0.51639891
0.038895249
-2.1053851
0.27374083
0.17694643
0.0095152752
-0.91337466
0.26611942
0.34891328
-0.053422615
-0.3875846
-0.4256008
0.77251363
-0.19345936
0.14830406
-1.0607367
0.27814296
-0.068616763
0.46892452
-0.21712814
-0.50762254
0.057553235
0.060087677
0.16688153
-0.77330112
0.073693104
0.20724657
0.92185348
-0.92949182
-0.03596421
0.074183911
0.47629908
-0.28391173
-0.24729933
-1.0825193
-0.15202454
0.19616202
-0.43150043
0.44695556
-0.42989632
0.62519604
-0.49058038
-0.43058816
-0.070647851
-0.5091418
-0.50695395
-0.47758177
0.070993692
-1.0206985
-0.53932643
0.080523618
0.49145833
-2.4596529
-0.41902122
0.64124739
1.4227468
-3.8025293
-0.37452814
-0.61447376
1.5123448
-3.4887779
0.041993078
-1.1191264
-0.12365104
-1.2788944
0.21650714
1.4257617
-3.5444245
-0.34078747
0.008079851
-1.1201535
-0.30115768
0.090940595
0.010304318
0.14812267
0.018243279
-1.6995922
-0.048839986
0.21923651
1.0176617
-0.49854738
-0.51709968
-0.021077882
0.26027289
0.1722756
0.54014951
0.16380003
0.023032295
0.31333524
-0.20024863
-0.051791694
-0.38228089
0.5004878
0.20627475
0.23545481
0.77243513
-0.47086778
-0.42979297
-2.9965503
2.6545906
-1.4192246
0.11345585
0.04408171
-0.1003842
0.10322363
-0.14741451
-0.26937702
-0.35620099
0.038664039
0.15208353
-0.39873806
-0.3766776
-0.023878807
0.062201783
-0.50818932
-0.049742021
0.30092236
-0.37938964
-0.29283944
-0.05924473
0.17983469
-0.4830111
0.0017565311
0.31454965
-1.0438391
-0.39037567
-0.18787061
0.59228605
-1.8270347
0.19350401
-0.82507157
1.2460487
-3.0586798
0.012039973
-0.9790805
0.52196836
-0.90235204
0.57434654
-0.16080002
-0.37348688
-0.041000158
0.27769071
-0.55773103
-0.43161151
0.2942571
-0.040847458
-0.4305391
-0.33612958
-0.016780971
-0.18286408
-0.38473266
-0.38490221
-0.00044404774
-0.087166198
-0.39191273
-0.64037663
0.10105135
-0.0011938214
-0.24557073
-0.47118422
-0.15226054
-0.003734828
-0.096690908
0.14704134
0.066362724
0.19055569
0.67534482
1.041362
0.0034696632
0.37067088
0.088822961
-0.21335015
0.18532422
0.14921062
0.53100234
0.54754919
0.41888088
0.095243476
0.067562908
0.44301134
0.75711292
0.13190699
0.010052408
0.48297364
-0.53561866
-0.29374108
-0.31610316
-0.37061056
-0.28004304
-0.0031779185
-0.072151273
-0.39840725
0.17378488
0.29599732
0.72198904
-0.12256433
1.1004173
0.0050305221
1.420154
-0.39613575
0.23055728
0.14327653
1.6041329
0.32825598
-0.50955856
0.14843985
1.2445091
-0.34759566
-0.53797716
0.103436
0.79136759
-1.5599133
-0.82423067
0.1475134
-0.97898173
-0.65613562
-0.33727813
0.12257772
-0.30859745
-0.60281676
-0.07256455
-0.23283222
-0.12252319
-0.56556249
0.0028353843
-0.30996376
0.79039741
-2.8818905
2.4414299
0.9910925
-0.5948875
0.2497784
-0.067041382
-0.22947642
-0.2683166
0.18143062
-0.080941446
-0.31843591
-0.11329379
-0.12640294
-0.061344486
-0.2421544
-0.157766
-0.251167
-0.077424861
-0.11745352
-0.11964452
-0.36372438
-0.040147714
-0.17638062
-0.2333896
0.083275095
-0.46898034
-0.095971927
0.11607625
0.49844331
-1.2019682
-0.12332338
-0.58570153
1.02711
-0.64279491
-0.0060006646
0.6998027
-0.60199946
-0.24346505
-0.17265481
0.13451929
-0.80435801
0.53799051
-0.13723268
0.14052607
-1.2390199
0.36331579
-0.14200383
-0.53187376
-0.99339998
0.30528647
-0.25457817
-0.48646078
-0.77222407
0.1536475
-0.21407819
-0.40814716
-0.49776286
0.080622099
-0.24179879
-0.67526978
-0.31809756
-0.043171689
-0.22456707
0.10022346
-0.78034741
-0.21955094
-0.52621883
0.070157863
0.16502057
0.0035513649
0.067056857
0.0047977045
-0.0063157137
0.4131943
-0.24258108
0.17446038
0.41027108
0.049228188
0.14335376
-0.050288901
-0.026707042
0.13681154
0.41445503
-0.36371076
0.15049733
-0.28424188
0.52482456
-0.36659136
0.28530803
0.055350453
-0.21470247
0.028654784
-0.062115792
0.2219056
0.26074782
-0.60766762
-1.7850904
0.11708336
0.0088499449
-2.1689968
-0.063333347
-0.2353069
0.33535254
-1.3698207
-0.7342664
-2.5743604
0.41779134
-0.77441388
0.54746282
-2.9691021
0.30258146
-0.32552001
0.48362935
-2.7808878
0.32415774
0.26152998
0.15082988
-1.9984984
0.057458963
0.39522782
0.8894003
-1.2003968
-0.23562758
0.33900204
0.85274214
-0.26811531
-0.26089785
-1.4637301
2.2228572
-1.6210798
-1.0900849
-0.34328526
-0.46654311
-0.10944322
-0.25795853
-0.41960895
-0.75767201
0.14638636
-0.30356139
-0.11966414
-1.1488751
-0.36685285
0.14597148
-1.035018
-0.54568046
0.96353906
0.2509934
-1.5471398
0.073217943
1.5361605
0.21249506
-2.3058734
0.94366187
0.65103155
0.073990904
-2.3942897
1.3195864
0.44163206
0.51587152
-1.3861623
-0.20430963
-0.82943982
-0.014538278
-0.88575131
-0.5225451
-0.74301207
0.45196524
-0.52736914
-0.028475247
0.45433271
-0.12935679
-0.16856439
0.1340338
-0.055759579
-0.078282923
-0.13901787
-0.56494224
-0.11557682
-0.070719413
-0.033797309
-0.51680416
0.20625332
-0.055228233
-0.1953261
0.004589424
-0.10768662
-0.12998532
-0.14271145
-0.12817091
-0.25988239
-0.67342263
0.035488427
0.28013599
-1.3593181
0.089723982
-0.2506822
-0.61339396
-0.155745
-0.2440841
-0.46142009
-0.38700813
-0.52194226
-0.24029803
-0.078798242
-0.088673808
-0.34129846
-0.19749331
-0.096932769
-0.1455982
-0.13816208
-0.058075592
0.31382146
-0.32130566
0.32061929
0.012286491
-1.1893606
-0.95267946
-1.158772
-0.79749608
-2.817493
-0.3428275
-1.6627356
-3.061718
19.195915
-5.745481
-8.0004168
-0.011510449
-2.5962932
-2.1814864
-0.9736802
-1.7426388
-0.98567665
-0.3154881
-1.3131584
-1.599009
-0.31166273
-0.73350912
-0.088848799
-0.47624928
0.094462864
-0.031613901
-0.34330994
0.070063509
-0.12102348
-0.206627
-0.41327721
-0.077111505
-0.16502978
-0.21119474
-0.23322752
-0.14813349
-0.57222486
-0.59334546
-0.40951413
-0.38131449
-2.2029705
-2.4376454
-3.0142956
-0.36132514
0.28952831
0.25538278
-0.45258307
-0.073314808
-0.17062928
-0.40908131
0.45794848
0.065715879
-0.21312784
-0.34425798
-0.28865469
-0.12143514
0.053259056
0.52974921
0.15097047
-0.029462473
0.26628721
0.66591525
0.18151169
-0.16611466
1.0093135
-0.085080743
1.1146829
0.058722004
0.32187927
-0.43907571
0.98205203
-0.23948184
2.993926
-2.5926914
0.46196032
-0.0096315779
-4.9198217
6.2362494
-2.1325424
-0.26628923
-0.039294727
0.18541583
-0.5467279
-0.32534581
0.86147159
0.24838783
0.71640581
0.57547545
0.2471586
0.14372993
0.29189175
0.9290995
0.1043933
0.38640746
0.33156458
0.6144042
0.24109073
0.21453789
0.39639693
0.22642332
0.60880136
0.41110167
0.20013312
0.27896073
0.057237159
1.349839
-1.0945057
-0.57326531
-0.6183393
0.64812183
-0.76584917
-0.0018430992
0.0068276087
-0.080854878
-0.26544476
-0.30298042
-0.046037223
0.039431453
0.053329445
-0.18376894
-0.009262207
0.26806283
0.084820069
-0.016703535
0.40884438
-0.90761977
0.70832837
-0.1309682
0.52826589
-0.29784387
0.39201429
0.045338839
0.021584298
0.25917035
-0.45765132
-0.16672447
0.021354945
0.20116706
-0.89123648
-0.0050499309
-0.84508282
1.2869284
-0.46520156
-0.27188349
-0.099066719
-0.0067734378
0.24185103
-0.28965506
0.78658921
-3.1190898
1.1654803
-0.034533646
0.32491341
-3.0803969
0.59513152
-0.072220311
-0.3420862
-2.241545
-0.1180889
-0.49466267
-0.40989479
-1.6621594
-0.39407498
-0.34350106
-0.64308178
-0.84219497
-0.7755785
-0.19050877
0.58889204
-1.3331867
0.24014561
0.086648941
0.34786388
-0.25868994
-0.68282813
0.029599203
-0.17307365
-0.55256391
-0.55166274
-0.29910931
0.028052766
-0.46808186
-0.15666755
-0.69070482
-0.50546539
-0.36255267
-0.00051207811
-0.65139484
-0.68185002
1.3379534
1.5154777
-0.62885815
-0.30047834
0.73887306
0.40431491
-0.26867759
-0.3165198
-0.21433799
-0.63061053
-0.12107592
-1.7246933
-1.0300219
0.76863176
-0.010984905
-1.4073713
0.30984327
0.10382831
-0.60392076
-1.3835031
0.53984255
-0.043917358
-0.32747459
-0.13369131
-0.28127855
-0.30470449
0.22270526
0.41267422
-1.1363591
0.59257096
0.41862035
-0.61587977
0.17762949
-0.064396158
-0.54094166
-0.77873868
-0.19314714
-0.26776707
-0.58891046
-0.35015929
-1.1066809
-0.12479966
-0.17779046
-1.620029
-0.17946467
0.44159904
0.072947368
-0.058949452
-0.29972437
-0.72235203
-0.03726374
-0.51577944
-0.07130222
-0.24526489
-0.34922501
-0.31917834
-0.010455482
-0.32367119
-0.28917316
-0.047618672
0.41188303
-0.15195964
-0.38325456
0.17392525
0.33316559
-0.0066489978
-0.2481351
-0.65346974
-0.39313975
0.38122934
-0.1276225
0.51638144
-0.86379558
-0.16935985
0.15017106
-0.40502912
-0.34208548
0.1104431
-0.0032277196
-0.508789
1.3800921
-0.74889058
0.012560992
0.43093503
-0.0036583361
0.150436
-0.15747997
-0.7128244
-0.66917109
0.69504619
-0.19788422
-0.49104342
-1.0215691
0.48233584
-0.17543349
0.57725608
-0.86475188
-0.33577654
-0.20992589
0.41174179
0.49293572
-1.1152695
-0.13309398
0.096140869
1.0294147
-1.2315661
-0.33882499
-0.32103449
-0.95282632
0.14954144
-1.0161512
-0.17258698
-0.47313273
-0.34131762
-0.52474481
-0.10246533
-0.85511082
-0.32040066
0.064604431
-0.63624203
0.25477284
-0.24628082
-0.46514776
-0.31852403
-0.46763593
0.0077370782
-0.21700835
0.35081613
-2.075496
0.9904303
-0.26361763
3.2015829
-4.934382
2.5661581
0.23468597
-0.053050511
0.7907486
-1.1610163
-0.056887075
-1.2566584
2.5361207
-1.4236004
0.0012611672
-0.62207353
1.5226271
-1.2119087
-0.22481476
-0.60736537
0.75597429
-0.40119445
-0.41715014
1.2346236
-1.4042023
0.37644291
-0.034417264
0.10830844
-0.58074796
0.56571144
0.27340487
-0.089983217
0.018727407
-0.03275653
-0.18178716
-0.026545029
-0.0032334393
-1.0116991
0.19253291
-0.058553472
0.26648238
-0.57196134
0.11975281
-0.46192035
-0.19296725
-0.4741345
-0.057359297
0.052390724
0.35486901
-0.61306924
-0.10892252
0.075433932
-0.48952448
-0.022236938
-0.078700267
-0.28950521
-0.47272727
0.0058365194
0.083444528
-0.22067069
-0.48666906
0.39292344
-0.062470164
0.26963779
-1.0700716
0.42783532
-0.14861071
0.26543677
-1.4538529
0.15287849
-0.047176961
0.88898689
-0.94780213
-0.98943257
0.45136541
0.34830669
-0.039286967
-1.1668962
-0.005685986
-1.3081727
1.2506783
-0.80753464
0.40468094
0.60021877
-0.81985599
-0.11802089
0.031657394
0.33933157
-0.53184307
0.19242136
-0.081867397
-0.058812723
-0.35561696
0.34603858
-0.047299251
0.0055022789
-0.12613264
0.033795089
0.14514826
0.05919148
-0.21918684
-0.27590218
0.11391792
-0.3092607
-0.38385013
-0.30504751
0.19130197
-0.73488337
-0.37090617
-0.1203397
1.0665387
-0.36450318
-0.17571554
-0.14245398
-0.48189211
-0.50207198
-0.14804198
-0.14903454
-0.42913347
-0.2059074
-1.4768618
0.3649517
-0.20368458
0.67951554
-3.6263435
1.2825933
0.064516261
1.6838727
-3.2727795
1.5502747
-0.14779936
-1.247782
1.6964173
-1.5950043
-0.20266877
-1.3392097
0.92689383
-1.1360347
-0.027323073
-0.16503878
0.21933882
-0.63311523
-0.013315698
0.11780072
-0.6186384
0.6187973
0.066608801
0.12373158
-0.5795911
0.27594164
-0.26084927
-0.50697166
0.061785098
0.042182133
0.13016978
0.12857805
-0.33661962
-0.32747981
0.19599652
0.12365662
-0.061799746
-0.57951593
-0.3364445
0.18793222
0.0082281083
0.083491951
-0.0024166396
-0.22961104
-0.20016356
-0.012276318
0.45269012
0.026410617
-0.1076883
0.61979687
0.089858331
0.18846022
-0.37035352
-0.58843547
-0.93974704
-0.47022003
0.050754845
-0.11306266
-0.50571024
-0.56655574
-0.73993194
0.42957649
0.0082732923
0.56001318
-1.0631722
-0.76534539
-0.28133896
0.038572092
-0.34733659
-0.50812757
-0.5219335
-0.19146995
0.079322577
-0.41916502
-0.26231757
1.2731425
-0.081928998
-2.0430036
-0.18277347
-1.8157593
-0.3321999
1.2108783
0.0014695799
0.18800019
-0.39525312
-0.11507985
-0.15866634
0.99188179
0.32513145
-1.7211347
0.077898033
0.5728479
-0.53096449
-0.96615726
0.34737647
-0.41673434
-0.89751279
-0.12280789
0.20624661
0.55379564
-1.2622335
-0.32168791
-0.22001563
0.3861734
-1.4053223
0.43196443
-0.039039943
-0.28674892
0.12626484
-0.051836867
-0.37749201
0.22022809
-2.5081024
0.75900102
-1.0746514
0.29434553
-0.12178375
0.30775982
-0.12494341
0.11458635
0.55773044
0.61414182
-0.19249766
0.61745948
0.86529917
0.24815978
-0.17372118
0.32180554
-0.38864639
0.31149402
-0.087325253
-0.15633801
0.43567771
-0.46209034
-0.041287262
-0.23807371
-0.12209067
0.04431938
-0.0065093422
-0.60366046
0.10730308
-0.3588466
-0.17396706
-1.2189149
1.1189817
-0.37687114
0.0088244826
-1.6377343
0.73978537
-0.83881927
-0.19547129
3.5001392
-5.0931058
1.7635747
0.073079973
-0.14843945
-1.7612314
0.65935087
0.044233557
-1.1436651
-0.52599257
-0.93894821
-0.8305614
-0.63908625
-0.76206613
-1.0250077
-0.99680984
-0.34815916
-0.027162276
-0.73812526
-0.64187568
-0.5532757
-0.15759404
0.050860766
-0.92386258
-0.02416998
-0.84631521
-0.04423897
0.5526467
-0.58730572
0.064280927
0.011483478
-0.99268568
0.23157187
-0.74764562
-0.25914311
-0.39246473
-0.29418314
-0.90975726
0.03263855
0.033568181
-0.80827564
-0.93160367
0.47883505
0.11630706
-1.0395844
-0.87070221
0.59389859
0.13477056
-0.46766353
-1.666983
1.3237855
0.14465144
0.068767257
-1.3841972
-0.088995479
0.38847986
0.39276949
-1.0632137
-1.3083631
0.0032559419
0.78212303
-1.8872797
-0.45242226
0.7102043
-0.43139815
-0.14579
0.37325007
-0.092275798
0.17561102
0.32426393
0.6525268
0.14552633
-0.51134443
-0.756446
0.65488613
0.10143395
-0.76238918
-0.041438658
0.24828072
-0.35884815
-0.82228261
0.31300092
-0.24924329
-0.11335662
-0.92256778
0.2924124
-0.92326665
-0.36235979
0.34967467
-0.8205291
-0.78109658
0.96982712
0.25230017
-0.1865105
0.34049869
0.08128383
-0.1297773
-0.20662765
-0.72150785
0.28677443
-0.41978279
-0.27398574
0.24212877
-0.21654394
-0.21410257
-0.48026323
-0.47691542
-0.36696014
-0.19097112
-0.15716191
-0.015176616
-0.43136498
-0.36784872
-1.2180345
-0.43183255
-0.67547578
-0.12072034
-0.61570626
-0.84644699
0.3141453
-0.81561309
1.1746966
-2.9387379
0.0087181916
0.00031080199
-0.6144923
-3.421751
0.20998894
-0.42683509
2.2052627
-6.0488701
0.11685526
0.10679062
0.13043696
-4.836226
0.025876455
0.38596296
0.51173162
-4.177495
0.026785562
0.072010912
-0.27104023
-2.7176042
-0.046400379
-0.44374734
-0.45274779
-0.33156702
-0.45468897
0.16925468
0.31035176
0.16659744
-0.44145483
-1.4639555
1.0314866
-1.4880068
0.65385568
-0.022968661
0.10354237
-0.15383227
-0.24401122
-0.18807194
-0.29168403
0.01361092
0.26136562
-0.16074538
-0.39523613
-0.4176178
-0.18618107
-0.21737953
-0.1658645
-0.34358662
-0.51662409
-0.29097688
0.31267759
-0.46144146
-0.484476
0.057969343
-0.76111966
-0.51450717
-0.28768179
0.49510291
0.0078963451
-0.14652346
0.5541746
1.6224734
1.9083135
-3.3962216
0.0054180273
0.87116992
0.39724949
-0.71887565
0.3970179
0.024234967
0.64671957
-0.9694736
-0.48106927
-0.44752225
-0.039059799
-0.7314415
-0.57248873
-0.35166854
0.04738969
-0.014119247
-0.15641044
0.23656783
-0.14248054
0.0062227668
0.18610547
0.070599787
-0.10247976
0.013104443
0.056489818
0.23279457
0.28770864
0.25113672
0.015754817
-0.73865497
-0.29488817
1.5682579
0.59323877
-0.037533421
-0.10209481
-0.061876398
-0.14975232
-0.41000754
-0.36165404
-0.36252436
-0.22472295
-0.6853708
-0.78806716
-0.3704325
-0.360439
0.19500299
-0.15584573
-0.072496548
-0.17186195
-0.052876621
-1.2691493
-0.5448128
-0.025648719
-0.41616452
0.032547053
-0.14870474
-0.24864985
-4.1385593
-0.093742386
4.6902046
0.17032099
2.0517318
1.1223565
-0.44246799
-0.0053777331
-0.27970728
0.43895259
0.31403932
-0.23819716
0.20616783
-1.013359
0.50206178
0.50233209
-0.46488345
0.014639719
0.19719781
-0.3811774
-0.077454992
-0.26395842
-0.54231232
-0.21545072
-0.21690099
-0.27835429
0.28754467
-0.1182208
-0.28875527
-0.16924512
0.05643614
-0.19207479
-0.10390428
-0.49263781
-0.23596537
-0.041892067
-1.8468779
-1.1718599
1.3352425
-0.23390469
-0.0099573378
-0.13461965
0.30176577
0.027240418
-0.016338244
0.18514712
0.15254804
0.07097055
0.071588166
0.56604809
-0.22495335
-0.025889847
-0.80360407
-1.0476179
-0.72511041
-0.3508603
-0.85091609
-0.08685974
0.52820551
-0.44617265
0.66108
0.035276216
-3.3418584
-0.088677667
1.6719428
-0.035111248
-4.0910025
0.11279035
-1.9529752
-0.62211311
2.1320798
-0.0091074342
-1.2840703
0.99918687
0.1957515
-0.13654394
-0.66554689
-0.4289085
0.91153407
0.077492252
0.47386414
-0.47605765
0.24139804
0.46393642
0.4731223
-0.029391071
0.00084018562
0.23255379
-0.24877881
-0.065953173
0.34894943
0.066206455
-0.55673045
0.1656217
-0.029439442
-0.5181511
-0.14606459
-0.7021209
0.028949281
-0.5762893
-0.29452288
-1.3027971
-0.93930364
-0.013334981
0.081484273
0.072835848
0.17472312
0.084256008
0.064036153
-0.025912993
-0.1937343
0.17209239
-0.090778783
-0.16723736
0.29418811
0.0043638274
0.070903271
0.34066442
0.17158702
-0.089655101
0.21751195
0.090136595
0.22479706
0.02374764
-0.32840595
-0.02419962
-0.61206609
-0.15062994
0.19984913
0.48851821
-1.6543003
-0.20471254
2.2650335
2.7824519
-3.3248649
-0.0052029127
-0.18996491
0.30793622
-0.86075503
-0.029376812
-0.17259833
-0.10040452
-0.45008522
-0.16723195
-0.18670219
0.0078710783
0.0023904801
0.092084773
-0.0078197485
0.054766849
0.26308018
-0.20954843
-0.016373282
0.094699442
0.09603744
0.30582857
0.34260848
0.069123983
0.042813361
0.51322788
-0.055117331
0.26954347
0.11946496
0.3179943
-1.1244526
0.5455212
-2.1459591
0.34130341
-0.32530102
-0.34377056
-0.35758528
-0.49777326
-0.13519688
-0.098576114
-0.22206688
-0.16947341
-0.18316971
-0.45386913
0.088190347
-0.10209125
-0.36464325
-0.46061075
-0.79172701
-0.449065
-0.5788973
-0.81032717
-0.66812223
-0.60576236
-0.95697129
-1.8587528
-1.7761114
-0.88284677
2.3656816
-3.7364306
-3.8257003
-0.17632937
8.6131973
-4.619616
-3.9999914
0.011078495
4.260941
-3.83728
-3.0536604
0.064736344
-0.59932262
-0.86270344
-0.23428731
-0.60033417
0.21078368
0.15502563
0.12925056
-0.46458662
-0.16533099
-0.073296502
0.35184976
-0.33935496
-0.29329282
0.033658504
-0.2439542
-0.064732388
0.023149893
-0.14502305
-0.29482421
0.011108823
-0.05054418
-0.093506396
0.028327024
-0.21806528
-3.7051308
-2.5004971
-2.0543594
-0.0060187192
-0.051805891
0.13745335
-0.0060384995
-0.37076667
-0.17234862
-0.22744045
-0.49635559
0.38444173
0.0027151075
-0.54668379
0.18048236
-0.53355473
-0.67133349
-0.55238897
-0.28673202
-0.35378328
-0.54827696
0.0073726205
-0.72028059
-0.71364498
-0.6610629
-0.12395932
0.304144
-0.42490554
5.112309
-6.4270425
1.7869599
-0.22947444
-2.2436736
1.1253151
-0.98247325
-0.0011510181
-0.41017371
0.29484281
-0.38143706
-0.22783126
-0.57082468
-0.014927962
-0.96599424
0.19605739
-0.33831996
0.30836472
0.4161652
-0.18237269
0.3782312
-0.014123932
-0.12035093
-0.62935823
-0.49760342
-0.62668449
0.25334224
-0.18757011
0.16131179
0.015643135
-0.29087079
-0.20371854
-0.18955849
0.34776893
-0.31609145
0.38851371
0.082557648
0.062924698
-0.7922883
-0.18398511
0.42235368
-1.48268
0.51868033
-0.16040361
-0.31823808
-0.24389961
0.3957071
-0.18644731
0.054217078
-0.22607934
0.17425528
0.13285136
0.29260013
-0.40058672
-0.29758373
0.2348827
-0.56537509
0.52810997
-0.44547814
0.080147296
-0.63575709
0.67273426
-0.6982711
0.091897748
-0.29943505
-0.33448166
0.22953153
-0.16191235
-0.57350773
-0.1030343
-0.86523139
-0.011886194
-0.76933402
0.94640476
-0.17930667
-0.13917544
-0.88799334
1.4322801
-0.61553818
0.20998856
0.54097646
-1.8529525
0.34013397
0.098600112
0.54941493
-2.763344
0.83338094
-0.29126081
-0.16550955
-2.2104025
0.33388603
-0.47393677
-0.089150824
-1.3963197
0.060754597
-0.14440772
-0.092704125
-1.6071059
0.346784
-0.1724938
-0.34924552
-2.2126632
2.2835977
0.096560627
-0.077419572
0.87934273
-0.69994706
-0.16828679
0.011236132
0.36998698
-0.43536201
-0.037379853
-0.36076462
0.16940038
-0.15289962
0.23151524
-0.38463622
0.44291848
-0.51390368
0.34612167
0.086771749
-1.0054977
0.14727831
0.090082183
0.51415628
-0.8234157
0.14195426
-0.057196539
0.21413946
-1.1672437
-0.025394194
0.40021095
-0.4809145
-0.85481799
-1.0250809
-0.00025855575
-0.61104691
0.87003922
-1.2096157
0.67244363
-0.018950917
-0.51413417
-0.15967962
0.069953121
-0.67560357
-0.76928312
0.47163832
0.18066122
-0.31068096
-0.52840739
0.280543
0.15556909
-0.14187418
-0.15261522
0.081797138
0.036498167
-0.16951205
0.45095348
-0.21786943
0.024178138
0.11009998
0.24762082
-0.4929297
0.045125864
-0.080237441
1.5115855
-1.2019943
-0.57691509
-0.015749898
0.42274448
-0.37995371
0.18088646
0.39964303
0.021133751
0.44309866
0.064665571
-0.063236721
-0.039387688
0.43572143
-0.22711833
-0.22688837
-0.088301092
0.045081757
-0.2322697
-0.48947209
0.028991155
-0.14144468
-0.55068064
-0.1917882
-0.59820229
0.12958893
0.34604397
-0.20069562
0.06618695
-0.74630833
-0.19272275
-3.3874846
2.3056045
0.63121027
0.0097653382
0.75651181
-0.56914866
1.0063715
-0.24907693
-0.2843765
1.1176007
-0.012749947
0.061514102
0.38091633
0.55133528
-0.83684397
-0.01869067
-0.97691643
0.20912282
0.14419845
-0.050840713
0.023230273
-0.43164235
-0.51435149
-0.18211482
0.069408737
-0.48310187
-0.36715099
-0.19642363
-0.26711032
0.21465451
-0.30379626
-0.43720809
0.1476377
-2.8331263
0.93778813
1.1588535
-0.13249086
-0.52020758
-0.52694809
-0.51862246
-0.27154335
-0.50308388
0.65477908
-0.51446241
-0.42206079
-0.60277957
-0.5177139
-0.24251719
0.06637156
0.15096557
-0.072291754
0.038801666
-0.54143935
-0.096246406
-0.29759958
-0.61515403
-0.24567197
-0.64591372
0.20981094
-0.41569906
-0.43600172
-0.89595169
-1.2976193
-0.091629207
0.9002524
-0.27758607
-1.2752105
-0.012522966
-6.4809389
1.950188
2.8772876
1.3745222
-1.3740839
0.050260141
0.50676167
0.66347647
-0.14625394
-1.0689555
-0.20378305
0.70377624
-0.13171372
-0.6381554
-0.11442722
0.57040781
-0.22003792
-0.4357301
-0.50188226
0.21398123
-0.21286356
-0.31757563
0.3547439
-0.28309894
-0.21430179
-0.18812014
0.10631574
-0.34495991
1.1077756
-1.2558361
0.53943199
-0.30546767
-0.28813666
-0.97876799
0.072820663
-0.17082702
-0.13830377
-0.1533414
-0.6937508
-0.042565241
-0.41353965
-0.61989683
-0.2703726
-0.64059538
-0.44375354
-0.60904646
-0.12726386
-0.67558151
-0.28752428
-0.25122303
0.056973457
-1.11625
-1.4934287
0.78197533
-0.2871033
-0.57076758
0.085288271
1.1312253
-2.3338697
1.0477432
6.6150169
-5.2261386
-3.3559759
0.0072948458
-1.1883141
0.43358588
-0.20838179
1.0834335
-0.30019355
-0.066974901
-0.55546093
-0.55412066
-0.93539095
0.020301567
-0.073730752
-0.61532116
0.38102072
-0.36555687
-0.32652906
-0.47449231
-0.15786538
-0.28749517
-0.33556992
-0.028048083
-0.30650446
-0.85171962
-0.23533174
0.38841042
-0.33715987
0.092121802
-0.47384533
-0.4990449
-0.4499945
-0.020637406
-1.1730025
-0.45632976
0.69524497
-0.64899594
0.32388091
0.28766981
-0.047692567
0.092006259
-0.086632624
0.56818014
0.23364572
-0.33207831
-0.048278477
0.26718995
0.29713303
-0.58702874
0.16463083
0.13680033
-0.80805475
-1.0092381
0.81258696
0.023736384
-1.7305852
-2.3439147
1.8829943
-0.18435453
-0.52841467
-3.3868878
1.0840042
0.94170362
-0.60911083
-0.76863587
-2.5635719
0.0043644141
-1.0122029
-0.26872304
-1.0730803
0.8547073
-0.58920872
1.3539349
0.31517509
-0.28883538
0.42608574
0.95945805
-0.061820954
0.35611621
0.53131139
-0.31561536
-0.47535816
0.21214175
0.21995428
-0.36513093
-0.15913042
-0.57044917
0.070628688
0.14238912
0.13093011
-0.67026597
-0.1018429
-0.98834038
0.1044549
-0.60684711
0.71866685
-2.5898082
1.6442606
-0.76009047
-0.38066775
-0.48993039
-0.27501816
-0.15681733
-0.22175594
-0.37760818
-0.32157117
-0.20500579
-0.21120536
0.21653081
-0.45545688
0.062412523
0.48881787
-0.35322931
-0.5669449
0.042104121
0.60953426
-0.69528121
-0.29754013
0.47806892
-0.96891028
-0.21427844
-1.6211534
0.64654922
-4.2606511
0.38388509
2.6708732
0.2068965
1.252055
-0.93753028
-1.6928232
0.010547946
-0.21654683
-0.59318477
-1.5381473
0.43406916
0.30038685
-0.41070265
-0.82312948
-0.24074389
-0.065016344
0.0093324631
0.24802488
-0.17610925
0.53124589
0.35052046
-0.49408868
0.10191859
-0.3186363
-0.4880383
0.23600264
-0.13157879
0.057693232
-0.18133132
-0.24083297
-0.12208668
-0.48446691
-0.33986735
-0.10329066
0.16398454
-1.1946274
0.82042974
0.43175274
0.57346553
-0.31369817
-0.10754073
0.57901186
-0.08795812
-0.23024033
0.28566238
-0.021841323
-0.1561835
0.15560916
0.24278653
-0.53972602
-0.21118979
0.29139605
0.055122484
-0.69958454
-0.14714439
0.21990499
-0.22413412
-0.23341119
-0.20900032
-0.32789612
-0.31234884
0.32529444
-0.21734774
-0.070438519
-0.042478103
-0.83405262
0.067170821
-0.79815871
0.38407636
-0.79366374
0.0027650227
-1.316787
1.7823956
-0.40792984
-0.05137784
-0.41482377
0.65881336
0.28096619
-0.054559462
-0.014100228
0.016714914
0.36346054
0.00071793003
-0.27114937
-0.44384521
0.50005257
0.038179241
-0.11934861
-0.71846908
0.24489297
0.12933639
-0.082865022
-0.77335972
0.0035270534
-0.023934333
-0.4771865
-0.15732732
-0.24206603
-0.13183595
-0.38328004
0.029049218
-0.64098817
-0.57400024
-0.3881349
-0.88982165
0.19471118
-0.096105978
-0.51672202
-0.31825474
-0.34464386
-0.32969797
-0.5652281
-0.33874255
-0.65097302
-0.31125441
-0.55398333
-0.68524587
-0.50893754
-0.31846771
0.029357605
-0.66060328
-1.4799669
-0.085987248
-0.69074088
-0.29694697
0.73823601
-0.21806602
-1.1352717
0.22466514
1.5573293
-0.149101
-4.0046773
3.3549809
1.755758
-0.007587513
-1.4079098
-0.29956385
1.388697
-0.18878436
0.64754736
-0.22746477
0.025399325
-0.15111206
-0.74067914
-0.075933009
0.26856554
-0.22951041
-0.2462437
-0.33689737
-0.38401616
-0.3041645
-0.11272131
-0.52057457
-0.11768068
-0.088162355
-0.033990599
-0.37929335
0.37395051
-0.23313332
-0.65551293
-0.035865594
-0.87851268
-0.48257214
-0.24432603
-0.75348276
-0.69092113
-0.1765902
0.54619414
0.39189157
0.64099103
-0.0042968732
0.13988464
0.26138049
0.43219265
0.15418255
-0.15334615
-0.035173219
0.10250001
0.43309832
-0.24508777
-0.17117856
-0.51472265
0.19276917
-0.61288261
0.87636274
-0.74681652
-0.76906002
-1.0509691
-0.28401175
-0.27819273
-0.057820309
-2.5008347
-0.75503892
-0.74465209
-0.055623166
-5.8606601
0.93216872
1.4417422
0.005516069
-2.253413
0.58573031
0.5743252
-0.061806031
-1.1006162
0.59605908
-0.40906346
-0.21409833
-0.10267869
0.59537607
-0.5690152
-0.043226168
0.50655985
-0.093585111
-0.1523461
0.4446398
0.37964207
0.3751578
0.26354444
0.20208505
-0.070280924
0.098259144
0.154486
-0.051067822
0.019424176
0.21980676
-0.15135847
-0.50767362
0.051260978
2.5380428
-3.5214796
-1.5724957
0.25782171
2.3247364
-2.2536902
-0.14980541
1.0769558
1.0004493
-3.1053419
0.34559181
1.0839036
1.0553354
-3.7949004
0.38431388
1.2714771
0.4596017
-4.0579081
0.079371639
-0.99129677
-0.94138163
-1.430259
0.048106756
-0.69818437
-1.6404648
-1.6860596
0.11742812
-1.8263669
-1.0476447
-0.10010379
-0.12526622
-2.3547573
-0.019601757
1.4270741
-0.0097826067
0.27341259
-0.37609509
0.12031796
-0.12579718
-0.082235947
0.070299521
-0.30109984
0.11546811
-0.30796185
-0.55887997
-0.12098347
0.19165403
0.1320205
-0.20653337
-0.75318611
0.015293428
-0.075087816
0.063444577
-0.94950074
-0.48614201
-0.8809424
-0.20210782
-0.10163987
-0.52625477
0.23049305
-0.68580502
-0.7229712
-0.96098262
-0.84160274
0.47774678
-1.581964
0.61717027
1.6462234
-0.74123693
1.1644813
-16.811399
-0.41172725
1.2460661
-1.1748774
-0.055633277
-0.94426793
0.66213435
0.9144966
-1.3587484
-1.101042
-0.55002648
-1.9571784
0.89473963
6.6258316
1.3933158
-1.2323864
-0.48865581
0.99753606
2.5390265
1.524659
-1.5358765
1.252504
1.6957637
-17.495041
-0.89508736
-1.3036716
-2.6202424
0.1214681
-1.1262319
1.2988096
-0.9192217
-1.4536437
-1.6858597
1.4569225
2.9511445
1.0430367
-1.1431611
-1.4525455
-1.4717771
-19.737097
-1.7283326
-1.1226625
1.1807874
-3.5255144
2.1254101
3.5734715
1.2929497
2.477273
-0.29549053
-3.1841528
-3.6189568
-1.5665338
-2.2709422
1.6790736
-1.0057107
-0.15349288
-1.2163389
-0.81037426
0.91628283
1.5457605
3.0425682
-0.76917213
-1.4746634
-0.85225219
-1.7115667
1.6168088
-2.0079725
-1.8831024
-0.1886339
-0.68265367
-1.6830151
0.60150278
-1.5705773
0.75063646
-2.224649
0.42525283
-2.5215163
-3.7426641
-1.5085737
1.382231
3.2752357
-0.29901001
-1.9483429
1.7416942
-1.4925457
3.2321546
-0.63445479
2.5515425
-0.23706584
-3.1070454
1.4808134
-0.84136695
-2.893995
-1.8857249
-0.88774598
2.1667597
3.2636573
0.091043949
2.2150674
-4.2189021
-1.4114298
1.4632814
-0.94661921
-0.22610597
-3.995558
5.7653012
-3.0248864
-0.78771889
-1.9213971
-1.0997477
-1.350168
1.3524151
-0.71348906
0.19488166
-2.1125281
-1.0273371
-0.65741628
0.046311017
2.4317522
0.74518627
-0.86665106
2.5761368
0.38985685
0.080123782
-1.0326945
1.8376924
1.7830114
1.3844873
1.5589725
1.2278996
-0.51480424
1.8507327
0.78707236
-1.6985898
-0.6496765
-1.154598
3.3393476
1.2302266
-2.5971515
0.91036654
-3.0194285
2.6510441
-1.4927657
-1.9703373
2.5845385
-3.2656915
1.6449783
1.765833
-4.3552938
-0.50004178
-0.22824378
-2.5911636
-1.0191478
0.99127042
-1.8048598
-0.64344603
-2.2155652
-2.2640207
2.444572
4.484282
-6.4323206
3.5529754
-2.951386
-3.8053501
-0.59234095
-7.20928
0.80216742
-0.56248397
-0.57757831
-1.2622405
-0.17102587
-0.35704294
-0.2518225
-0.80268389
-0.62806886
-1.5498368
-1.0500331
0.5030362
-4.4948058
-0.28750291
-0.78152496
-0.0085260645
-0.15795736
0.10186151
1.831903
-1.0793477
0.042332109
-0.19909847
-8.955862
-3.02247
-1.3328539
0.71467388
0.041222896
-2.7828579
-0.7198773
-1.6914359
-0.97133046
-1.8306823
-1.9683821
-0.93718237
-2.3351812
1.8628109
-0.32925588
-3.4859128
-9.5540714
-1.2653043
-1.9119357
0.23274359
-2.663887
-0.047356356
-0.75990194
-1.6505868
-0.042133328
-0.024581689
-0.50239849
-2.1340749
-2.0602019
-0.57872659
0.80570889
-1.9693441
